-1.514816284179687500e-02 1.347782164812088013e-01 -9.914077073335647583e-02 1.210782751441001892e-01 1.689325273036956787e-01 6.974350661039352417e-02 -9.092689305543899536e-02 -3.138850256800651550e-02 -1.086830049753189087e-01 3.170023560523986816e-01 2.113616280257701874e-02 -3.229506546631455421e-03 9.913089126348495483e-02 6.181180849671363831e-02 -7.187128663063049316e-01 3.415511921048164368e-02 -4.176522791385650635e-02 2.240658253431320190e-01 -9.616637602448463440e-03 1.847937516868114471e-02 1.086158752441406250e-01 5.972271785140037537e-02 -5.350350961089134216e-02 4.245838895440101624e-02 -1.245937272906303406e-01 -8.082751929759979248e-02 -1.405324488878250122e-01 1.102988943457603455e-01 3.574368357658386230e-01 4.500436782836914062e-02 3.841642290353775024e-02 -4.754471592605113983e-03 -1.104822754859924316e-02 9.544597566127777100e-02 2.347108349204063416e-02 -9.155518375337123871e-03 -2.086039066314697266e+00 -1.899338327348232269e-02 -8.670310676097869873e-02 6.788358092308044434e-02 -3.892626240849494934e-02 1.297172755002975464e-01 -9.812501072883605957e-02 4.121967777609825134e-02 -1.311770733445882797e-02 1.317930221557617188e+00 7.165379077196121216e-02 -1.033756434917449951e-01 1.506031513214111328e+00 1.210277676582336426e-01 8.261546492576599121e-02 -5.583556890487670898e-01 -1.160003319382667542e-01 -1.715444803237915039e+00 1.300610303878784180e-01 1.130025461316108704e-01 -2.043063566088676453e-02 5.441767349839210510e-02 9.894488006830215454e-02 -5.686327069997787476e-02 4.155549034476280212e-02 1.107167974114418030e-01 3.155044838786125183e-02 6.339282263070344925e-03 -1.719007343053817749e-01 7.548082619905471802e-02 -6.887324899435043335e-02 2.441245317459106445e-02 5.718855652958154678e-03 2.035203576087951660e-01 2.627798728644847870e-02 7.202950865030288696e-02 -4.503034055233001709e-02 -6.456079334020614624e-02 4.852783307433128357e-02 3.371822834014892578e-02 1.598739810287952423e-02 -1.285863965749740601e-01 1.364248245954513550e-01 6.564959883689880371e-02 -2.619166299700737000e-02 5.605794023722410202e-03 -2.589406669139862061e-01 -5.195552855730056763e-02 -6.499291211366653442e-02 -1.138880178332328796e-01 -6.456673610955476761e-03 1.138376221060752869e-01 2.758586220443248749e-02 -8.544597774744033813e-03 -1.404003202915191650e-01 -2.143587917089462280e-02 -6.824262738227844238e-01 8.134785294532775879e-02 -1.131278499960899353e-01 -8.971790075302124023e-01 -4.509116709232330322e-02 -3.916256874799728394e-02 8.008978515863418579e-02 3.798539284616708755e-03 -1.271885931491851807e-01 1.658420681953430176e+00 2.699054181575775146e-01 3.592034429311752319e-02 -3.482141017913818359e+00 9.016721509397029877e-03 2.254284918308258057e-02 -1.500824987888336182e-01 4.603416621685028076e-01 -1.033268272876739502e-01 2.709795348346233368e-02 -1.552769690752029419e-01 6.565175205469131470e-02 8.117075264453887939e-02 1.509493291378021240e-01 1.563090831041336060e-01 7.120664417743682861e-02 -8.259218186140060425e-02 -2.007933855056762695e-01 1.983612775802612305e-02 -9.176021814346313477e-02 1.152022331953048706e-01 6.664540618658065796e-02 -1.516817510128021240e-01 5.210532248020172119e-02 7.352113723754882812e-02 1.117412000894546509e-01 -1.357350945472717285e-01 1.135639920830726624e-01 8.646259307861328125e-01 -1.325366050004959106e-01 2.236864089965820312e+00 5.609079077839851379e-02 -7.979825139045715332e-02 2.030564546585083008e-01 1.686752200126647949e+00 4.345864430069923401e-02 6.200017780065536499e-02 1.241169273853302002e-01 2.629462182521820068e-01 -9.550351649522781372e-02 -6.264653801918029785e-02 -9.554221481084823608e-02 6.793469935655593872e-02 -4.913552850484848022e-02 7.944057136774063110e-02 -4.924019426107406616e-02 -1.389938890933990479e-01 -5.315620079636573792e-02 -1.319888979196548462e-02 6.693154573440551758e-02 -7.314933836460113525e-02 2.239288762211799622e-02 -8.567771315574645996e-02 -1.337005048990249634e-01 3.259272500872612000e-02 2.110433131456375122e-01 -9.359997510910034180e-02 4.749401286244392395e-02 1.280514895915985107e-01 1.691308379173278809e+00 1.732665300369262695e-01 -1.163421198725700378e-01 8.274089545011520386e-02 8.777870982885360718e-02 4.269261378794908524e-03 1.018093153834342957e-01 -1.376918517053127289e-02 -1.467138230800628662e-01 -3.726766109466552734e-01 -2.602775096893310547e-01 1.477359700947999954e-02 1.468761414289474487e-01 6.860842555761337280e-02 8.195909112691879272e-02 9.092231094837188721e-02 -3.994958475232124329e-02 -7.217442151159048080e-03 -2.660442888736724854e-02 -6.511043757200241089e-02 -5.183247476816177368e-02 8.652890473604202271e-02 -1.019615679979324341e-01 -3.679716726765036583e-03 5.365259945392608643e-03 -1.998077705502510071e-02 -2.585139498114585876e-02 2.653053589165210724e-02 -5.486183986067771912e-02 -1.463325787335634232e-02 8.675811439752578735e-02 1.195659115910530090e-01 -1.827486008405685425e-01 -4.878206923604011536e-02 -8.721639961004257202e-02 6.338729057461023331e-03 -9.717216342687606812e-02 1.369842677377164364e-03 9.131850302219390869e-02 8.965291827917098999e-02 1.821219474077224731e-01 1.852328628301620483e-01 -8.739048242568969727e-02 -3.359619155526161194e-02 -1.708922721445560455e-02 1.214352622628211975e-01 -1.054845657199621201e-02 1.522939652204513550e-02 2.808156888931989670e-03 9.614461660385131836e-02 -5.611855164170265198e-02 -1.497451066970825195e-01 1.134051561355590820e+00 -2.422229945659637451e-02 9.281679987907409668e-02 9.991665370762348175e-03 -1.238307356834411621e-02 -1.176506206393241882e-01 1.976767033338546753e-01 -2.456115007400512695e+00 -7.179733365774154663e-02 7.050746586173772812e-03 -1.724275797605514526e-01 1.365467905998229980e-03 1.069348026067018509e-02 -1.467739511281251907e-02 -5.782907456159591675e-02 4.907698035240173340e-01 -4.782819189131259918e-03 3.368855640292167664e-02 2.793485112488269806e-02 2.455760166049003601e-02 2.365732751786708832e-02 -1.987618684768676758e+00 4.487015306949615479e-02 -4.165991768240928650e-02 -2.285999618470668793e-02 -9.550369530916213989e-02 -7.876942306756973267e-02 8.293268084526062012e-02 -3.736641258001327515e-02 1.872923523187637329e-01 6.407085061073303223e-02 -6.721479818224906921e-03 1.849053353071212769e-01 -1.690623015165328979e-01 1.346684217453002930e+00 -2.519026696681976318e-01 -2.073721587657928467e-02 -1.950384080410003662e-01 9.827417135238647461e-02 4.666738584637641907e-02 3.158793747425079346e-01 1.185531020164489746e-01 -4.936613142490386963e-02 1.838107109069824219e-01 4.339497908949851990e-02 3.201758861541748047e-02 9.501547366380691528e-02 1.058674082159996033e-01 -2.058238834142684937e-01 -1.753046214580535889e-01 -1.152628511190414429e-01 -6.578578948974609375e-01 -7.403340935707092285e-02 3.672512248158454895e-03 5.180482193827629089e-02 1.050463989377021790e-01 5.603604391217231750e-02 5.080511793494224548e-02 6.759329140186309814e-02 -1.157006993889808655e-01 1.253498252481222153e-02 -7.796923816204071045e-02 1.970685645937919617e-02 2.802619710564613342e-02 -2.526380494236946106e-02 -7.507856935262680054e-03 -5.139525979757308960e-02 4.473685100674629211e-02 -3.626202046871185303e-02 7.642708253115415573e-03 1.450753808021545410e-01 -6.188158318400382996e-02 -2.918052254244685173e-03 5.421487614512443542e-02 9.528682567179203033e-03 -1.322610974311828613e-01 -5.748012661933898926e-01 -1.083280324935913086e+00 5.888247862458229065e-02 -5.584109202027320862e-02 1.719227433204650879e-01 -7.943870127201080322e-02 -7.239615917205810547e-02 -2.068055570125579834e-01 -1.149646788835525513e-01 -3.578883409500122070e-02 -7.485906779766082764e-02 6.822019070386886597e-02 7.450811564922332764e-02 -1.247407644987106323e-01 1.540426015853881836e-01 1.017167866230010986e-01 -1.739732384681701660e+00 1.424720138311386108e-01 7.401103526353836060e-02 -5.471795424818992615e-02 -3.642029687762260437e-02 1.544094532728195190e-01 -6.902324408292770386e-02 1.394690126180648804e-01 -1.751496940851211548e-01 -9.766515344381332397e-02 -6.875845603644847870e-03 1.367177255451679230e-02 -3.728199750185012817e-02 -1.149173546582460403e-02 5.909887701272964478e-02 2.534623071551322937e-02 2.442802861332893372e-02 -2.102142333984375000e+00 -1.178154628723859787e-02 -1.573481857776641846e-01 -9.426161646842956543e-02 -6.253787875175476074e-02 1.429057028144598007e-02 5.867971479892730713e-02 -4.601459950208663940e-02 2.288145571947097778e-01 1.170065999031066895e-02 2.430906295776367188e-01 -7.349498569965362549e-02 -6.898725777864456177e-02 -4.284790530800819397e-02 5.362224951386451721e-02 -4.324670881032943726e-02 6.636528298258781433e-03 -1.079461071640253067e-02 1.399972941726446152e-02 -2.117320708930492401e-02 8.839222788810729980e-02 5.547208711504936218e-02 -2.860835008323192596e-02 1.194854602217674255e-01 1.959872059524059296e-02 -1.307508647441864014e-01 -8.416838943958282471e-02 1.316285431385040283e-01 5.131657700985670090e-03 -5.686962977051734924e-02 3.810581564903259277e-02 -5.506009459495544434e-01 -1.032148376107215881e-01 9.839625656604766846e-02 -2.207655906677246094e-01 9.614344686269760132e-03 3.239268809556961060e-02 -3.913059830665588379e-02 7.802805304527282715e-02 -6.144489347934722900e-02 1.478559672832489014e-01 8.913522958755493164e-02 8.018001914024353027e-03 1.702019870281219482e-01 8.051694184541702271e-02 -2.863621525466442108e-02 1.943724602460861206e-01 7.912541180849075317e-02 1.020894778775982559e-04 1.098710149526596069e-01 6.921346485614776611e-02 -1.774028837680816650e-01 -1.390801370143890381e-01 1.929330974817276001e-01 -2.228403836488723755e-02 -1.347915977239608765e-01 -1.285523921251296997e-01 -1.115683168172836304e-01 -7.105846889317035675e-03 8.277783542871475220e-02 -7.597242295742034912e-02 -1.641256093978881836e+00 6.505120545625686646e-02 2.877692282199859619e-01 -1.522005438804626465e+00 -2.525623142719268799e-02 -8.254026621580123901e-02 -9.192048758268356323e-02 1.868237555027008057e-02 3.016059286892414093e-02 2.315027080476284027e-02 5.226192250847816467e-02 -5.393637716770172119e-02 2.228630334138870239e-02 -1.344771534204483032e-01 6.369008868932723999e-02 -6.435628049075603485e-03 1.584655232727527618e-02 8.810694515705108643e-02 9.526938945055007935e-02 -1.783218979835510254e-01 1.176749616861343384e-01 4.032522439956665039e-02 -6.358447950333356857e-03 -1.879270195960998535e+00 1.610831022262573242e-01 6.995911896228790283e-02 1.523982267826795578e-02 3.129235468804836273e-03 1.303122192621231079e-01 -1.418411582708358765e-01 1.680714786052703857e-01 -7.513788342475891113e-02 1.118075754493474960e-02 -6.090493872761726379e-02 -2.777173221111297607e-01 -1.162760797888040543e-02 5.249414592981338501e-02 -5.777121782302856445e-01 1.843982934951782227e-01 5.237705707550048828e-01 5.560542270541191101e-02 -2.257673442363739014e-01 -1.256898697465658188e-02 2.428507246077060699e-02 2.164386445656418800e-03 -2.129116281867027283e-02 -7.437156885862350464e-02 1.902084425091743469e-02 -7.837810367345809937e-02 -1.708255857229232788e-01 -8.934392035007476807e-02 -1.448720335960388184e+00 -2.016414403915405273e+00 1.202665090560913086e+00 -5.499234050512313843e-02 -4.373228922486305237e-02 -6.971348077058792114e-02 2.064047336578369141e+00 1.626037657260894775e-01 1.522711962461471558e-01 -1.088964417576789856e-01 -2.274268679320812225e-02 2.486439198255538940e-01 3.365571737289428711e+00 2.681438624858856201e-01 -3.290713950991630554e-02 1.628598213195800781e+00 -1.065744757652282715e-01 2.053370922803878784e-01 -2.232454121112823486e-01 -1.804895281791687012e+00 -2.141137361526489258e+00 -6.850982457399368286e-02 -1.138396263122558594e-01 7.158862054347991943e-02 -8.404269069433212280e-02 4.516600444912910461e-02 6.528861820697784424e-02 8.222648501396179199e-02 -7.574180513620376587e-02 4.885107651352882385e-02 -1.241688504815101624e-01 7.292354851961135864e-02 -1.925870478153228760e-01 1.262244954705238342e-02 -1.496215760707855225e-01 -4.094499349594116211e-02 3.671796619892120361e-02 4.940584003925323486e-01 3.180856630206108093e-02 5.801056697964668274e-02 -3.916202113032341003e-02 1.859067007899284363e-02 -2.267054796218872070e+00 1.942185759544372559e-01 2.176447026431560516e-02 4.923278465867042542e-02 4.942900314927101135e-02 3.245785832405090332e-02 3.754042834043502808e-02 -2.984600961208343506e-01 -3.795097768306732178e-02 5.997854843735694885e-02 3.681445959955453873e-03 1.389649417251348495e-02 -1.079033389687538147e-01 -8.442499488592147827e-02 5.898154154419898987e-02 4.507761448621749878e-02 -1.570224016904830933e-02 1.097195446491241455e-01 2.341077089309692383e+00 -1.615935005247592926e-02 2.058263123035430908e-02 1.007502600550651550e-01 1.515336632728576660e-01 1.209341362118721008e-01 -7.105853408575057983e-02 -1.571649871766567230e-02 -2.438076436519622803e-01 3.739261999726295471e-02 -5.068667978048324585e-02 -1.619865931570529938e-02 9.765882045030593872e-02 -1.318697035312652588e-01 3.728898614645004272e-02 -3.197366313543170691e-04 7.340192794799804688e-02 5.707204937934875488e-01 4.975448548793792725e-01 -1.751562356948852539e-01 -9.946056604385375977e-01 1.687554456293582916e-02 -6.278213113546371460e-02 -1.844531670212745667e-02 -1.198414340615272522e-01 -5.440534278750419617e-02 -5.241280049085617065e-02 2.014403343200683594e-01 -1.109278723597526550e-01 1.171336993575096130e-01 -6.253908574581146240e-02 -1.850050128996372223e-02 -1.526250392198562622e-01 -1.849767267704010010e-01 8.753447979688644409e-02 -2.247218973934650421e-02 -9.208602458238601685e-02 -4.077979549765586853e-02 -5.748896598815917969e-01 -6.172065064311027527e-02 1.715102314949035645e+00 1.443682909011840820e-01 1.208922564983367920e-01 1.273164153099060059e+00 8.757831901311874390e-02 2.794526517391204834e-02 7.676185667514801025e-02 5.997781828045845032e-02 2.414245717227458954e-02 3.321555629372596741e-02 -2.745292782783508301e-01 9.368532896041870117e-02 1.087869517505168915e-02 8.763029426336288452e-02 -1.201656311750411987e-01 -6.877637933939695358e-03 7.056611776351928711e-02 1.368414163589477539e-01 9.905977547168731689e-02 5.470292642712593079e-02 9.396509826183319092e-02 -5.383311212062835693e-02 -3.108666539192199707e-01 6.906850636005401611e-02 5.352653563022613525e-02 3.354265168309211731e-02 8.418684825301170349e-03 1.289654970169067383e-01 9.736374951899051666e-03 9.357272833585739136e-02 -5.237103998661041260e-02 4.094177566003054380e-04 -1.085708886384963989e-01 1.944504329003393650e-04 8.536089956760406494e-02 -2.165971789509057999e-03 -7.073886692523956299e-02 1.396864801645278931e-01 -1.010568439960479736e-01 6.058599054813385010e-02 -2.555691753514111042e-04 -2.711759135127067566e-02 -1.622664481401443481e-01 1.146064233034849167e-02 4.560657143592834473e-01 2.103668265044689178e-02 4.083004221320152283e-02 -5.849294736981391907e-02 -2.331255748867988586e-02 1.387104392051696777e-02 5.270984955132007599e-03 -5.872156023979187012e-01 -6.400132924318313599e-02 9.327864646911621094e-02 -2.894030511379241943e-02 -1.043951958417892456e-01 -3.824462741613388062e-02 -2.559840120375156403e-02 -5.057010799646377563e-02 1.832940429449081421e-01 3.810006007552146912e-02 -4.557723924517631531e-02 1.560340672731399536e-01 4.583629220724105835e-02 1.258737891912460327e-01 8.131993561983108521e-02 3.337821364402770996e-02 -5.225716531276702881e-02 -2.665764093399047852e-02 1.062473747879266739e-02 7.854335755109786987e-02 5.028055608272552490e-02 1.090331841260194778e-02 8.792182803153991699e-02 6.167430058121681213e-02 -1.125617250800132751e-01 2.374123930931091309e-01 9.108153730630874634e-02 5.476823076605796814e-02 -2.048927417490631342e-04 2.683770656585693359e-01 -4.485111683607101440e-02 -2.319639682769775391e+00 1.188605874776840210e-01 1.682817488908767700e-01 1.060444340109825134e-01 -1.483817491680383682e-02 1.276473104953765869e-01 7.760646939277648926e-01 1.642547994852066040e-01 2.443598955869674683e-02 -1.512044761329889297e-02 -1.020620688796043396e-01 -8.801621198654174805e-02 1.810073107481002808e-02 -4.265329614281654358e-02 -5.468389987945556641e-01 1.941007934510707855e-02 2.596371807157993317e-02 3.966063633561134338e-02 -1.502021104097366333e-01 3.394852206110954285e-02 -1.816361665725708008e+00 -7.675369083881378174e-02 -2.879118919372558594e-02 2.081386186182498932e-02 4.874481260776519775e-02 -1.409827023744583130e-01 -2.683155238628387451e-02 -7.701525837182998657e-02 -2.460601776838302612e-01 6.428730487823486328e-02 7.908175885677337646e-02 -1.004663854837417603e-01 9.623183310031890869e-02 -4.152334108948707581e-02 2.931022346019744873e-01 3.200288116931915283e-01 8.487824350595474243e-02 1.475572027266025543e-02 -5.541978776454925537e-02 5.227604135870933533e-02 8.052504807710647583e-02 -2.581842057406902313e-02 -5.822477117180824280e-02 8.134406059980392456e-02 3.164965510368347168e-01 1.394766569137573242e-01 1.012595146894454956e-01 1.431078016757965088e-01 -2.063086926937103271e-01 -4.396072030067443848e-02 -1.850338459014892578e+00 5.163469910621643066e-02 2.236098796129226685e-02 6.619401276111602783e-02 8.556807879358530045e-04 1.786128729581832886e-01 2.361856400966644287e-02 -1.526912003755569458e-01 -7.619344443082809448e-02 1.267996430397033691e-01 -3.842265903949737549e-01 1.369912829250097275e-02 3.131044283509254456e-02 4.576490819454193115e-02 -5.765432491898536682e-02 3.223076462745666504e-02 6.594563275575637817e-02 1.972662843763828278e-02 -5.371424555778503418e-02 -6.522446870803833008e-02 8.307734504342079163e-03 -2.951091714203357697e-02 4.368923902511596680e-01 -6.231921538710594177e-02 -2.504935301840305328e-02 3.188210427761077881e-01 -5.073017254471778870e-02 8.161220699548721313e-02 -9.433972090482711792e-02 7.462483644485473633e-02 3.295171633362770081e-02 -1.176033377647399902e+00 -8.503008633852005005e-02 -6.163407233543694019e-04 -4.204929247498512268e-02 -4.417730867862701416e-02 -2.081985324621200562e-01 7.626847177743911743e-02 6.220798939466476440e-02 3.001017868518829346e-01 -1.081176660954952240e-02 3.653387427330017090e-01 2.037937402725219727e+00 8.596550673246383667e-02 -1.272162497043609619e-01 6.517669558525085449e-02 3.866210579872131348e-02 -1.424895226955413818e-01 4.720847681164741516e-02 -2.263380736112594604e-01 1.956671833992004395e+00 -4.210653156042098999e-02 -6.039786711335182190e-02 -7.139325141906738281e-02 1.585524529218673706e-01 1.756179481744766235e-01 1.927410602569580078e+00 1.553469002246856689e-01 -6.634888797998428345e-02 5.238866806030273438e-02 2.444607205688953400e-02 -8.245647698640823364e-02 -1.548877451568841934e-02 1.335058063268661499e-01 2.882904559373855591e-02 2.213218361139297485e-01 -6.044113636016845703e-01 2.061101607978343964e-02 1.111643016338348389e-01 2.153041809797286987e-01 -5.152698606252670288e-03 -7.213264107704162598e-01 2.789189815521240234e-01 -6.537561118602752686e-02 -3.564590215682983398e-02 1.016523838043212891e-01 2.087400853633880615e-01 -6.140975281596183777e-02 6.348115392029285431e-03 1.147400289773941040e-01 -4.780982807278633118e-02 -2.201161235570907593e-01 9.919179230928421021e-02 -3.620079951360821724e-04 -1.643868349492549896e-02 1.130522042512893677e-01 -8.116196095943450928e-02 4.471571445465087891e-01 -7.456638664007186890e-02 -4.700450226664543152e-02 5.674217939376831055e-01 2.386109158396720886e-02 3.349937498569488525e-02 7.471718639135360718e-02 -2.080227881669998169e-01 -1.747710257768630981e-01 -2.055511921644210815e-01 7.976388186216354370e-02 8.218067884445190430e-02 -1.337709575891494751e-01 7.740949839353561401e-02 6.642871350049972534e-02 -6.683170795440673828e-02
