1.310212630778551102e-02 1.964322775602340698e-01 -3.579301759600639343e-02 1.828212738037109375e-01 2.089901864528656006e-01 -1.545536331832408905e-02 -1.352472603321075439e-01 -4.356393218040466309e-02 -8.754921704530715942e-02 3.233783245086669922e-01 -2.139411494135856628e-02 -3.737500682473182678e-02 2.347593754529953003e-01 6.580328941345214844e-02 -7.639653682708740234e-01 7.608911255374550819e-04 -7.039182633161544800e-02 1.951003968715667725e-01 -3.903083130717277527e-02 2.472325600683689117e-02 1.053216457366943359e-01 7.019515335559844971e-02 -4.140087962150573730e-02 -3.790796548128128052e-02 -1.461767256259918213e-01 -8.784043043851852417e-02 -1.561905592679977417e-01 1.442110240459442139e-01 4.583559632301330566e-01 7.261195778846740723e-02 8.331549353897571564e-03 -2.555834315717220306e-02 6.941435392946004868e-03 7.960692793130874634e-02 4.663479700684547424e-02 -3.391296486370265484e-04 -1.961672782897949219e+00 2.377503737807273865e-02 -6.716760247945785522e-02 1.289976201951503754e-02 1.529478002339601517e-02 1.265420466661453247e-01 -5.825732275843620300e-02 4.105394706130027771e-02 2.656081318855285645e-02 1.215864539146423340e+00 7.454302161931991577e-02 -6.823084503412246704e-02 1.422728061676025391e+00 2.019783854484558105e-02 1.025832742452621460e-01 -5.150209665298461914e-01 -1.235216036438941956e-01 -1.663937568664550781e+00 1.100354343652725220e-01 1.110396385192871094e-01 -1.827037893235683441e-02 9.638976305723190308e-02 7.180450856685638428e-02 -9.667350351810455322e-02 5.237654596567153931e-02 1.126917600631713867e-01 9.795106947422027588e-02 4.091055598109960556e-03 -2.113023698329925537e-01 4.231724888086318970e-02 -1.034116372466087341e-01 1.013150215148925781e-01 9.622325189411640167e-03 1.951986849308013916e-01 2.624251879751682281e-02 1.265191882848739624e-01 -3.773470222949981689e-02 -9.231664985418319702e-02 1.810752204619348049e-03 3.204726381227374077e-03 4.788446426391601562e-02 -1.361032426357269287e-01 1.577789485454559326e-01 7.217971980571746826e-02 2.390405535697937012e-02 -5.111950635910034180e-02 -2.329816520214080811e-01 -8.922536671161651611e-02 -9.978836029767990112e-02 -1.116842851042747498e-01 -2.117044478654861450e-02 8.292368054389953613e-02 -1.183094363659620285e-02 -3.331131115555763245e-02 -9.868316352367401123e-02 5.088454484939575195e-02 -6.114027500152587891e-01 1.150034219026565552e-01 -9.779250621795654297e-02 -7.877356410026550293e-01 -7.229171693325042725e-02 -1.010952368378639221e-01 -1.326776982750743628e-04 1.313490886241197586e-02 -1.408831328153610229e-01 1.501857638359069824e+00 3.026576638221740723e-01 9.062124043703079224e-02 -3.359740018844604492e+00 2.687379345297813416e-02 1.178562641143798828e-01 -1.677330881357192993e-01 4.437738060951232910e-01 -1.259551644325256348e-01 5.338548496365547180e-02 -1.675512045621871948e-01 7.538162171840667725e-02 1.440112292766571045e-01 2.004736363887786865e-01 1.908812373876571655e-01 3.467519208788871765e-02 -5.053128674626350403e-02 -1.606777459383010864e-01 4.639371857047080994e-02 -1.195815578103065491e-01 1.077503114938735962e-01 3.265154361724853516e-02 -1.722308397293090820e-01 5.662557482719421387e-02 7.354770600795745850e-02 1.834697574377059937e-01 -9.903734922409057617e-02 1.450030356645584106e-01 7.807049751281738281e-01 -1.630479991436004639e-01 2.181883811950683594e+00 5.371915176510810852e-04 -7.746043801307678223e-02 2.648307979106903076e-01 1.566289901733398438e+00 8.251808583736419678e-02 1.215051040053367615e-01 1.735291928052902222e-01 2.404256165027618408e-01 -8.207829296588897705e-02 -7.591857016086578369e-02 -2.806453779339790344e-02 6.930752843618392944e-02 -2.325491234660148621e-02 1.024929434061050415e-01 -6.386871635913848877e-02 -2.247713506221771240e-01 2.413862850517034531e-03 -4.774958640336990356e-02 7.675634324550628662e-02 -6.057667732238769531e-02 -1.864240318536758423e-02 -7.183717191219329834e-02 -1.016739457845687866e-01 4.285232350230216980e-02 1.649903804063796997e-01 -6.359262764453887939e-02 7.872344553470611572e-02 9.372725337743759155e-02 1.630435943603515625e+00 2.027539759874343872e-01 -6.704023480415344238e-02 1.168133169412612915e-01 1.188709288835525513e-01 -4.772686213254928589e-02 8.554460108280181885e-02 -8.149264007806777954e-02 -1.958537548780441284e-01 -3.770070970058441162e-01 -2.536703646183013916e-01 6.139569729566574097e-02 2.198312729597091675e-01 6.494784355163574219e-02 9.428807348012924194e-02 7.622401416301727295e-02 -5.513616651296615601e-02 3.831397043541073799e-03 -6.257354468107223511e-02 -1.089296936988830566e-01 -2.554565109312534332e-02 9.810276329517364502e-02 -5.288276821374893188e-02 5.666192620992660522e-02 -4.613586701452732086e-03 -2.271781861782073975e-02 -2.970150671899318695e-02 6.547727622091770172e-03 -4.631764441728591919e-02 5.638999864459037781e-03 3.694068267941474915e-02 6.620987504720687866e-02 -2.119983732700347900e-01 -7.018644362688064575e-02 -1.231611520051956177e-01 -3.573774546384811401e-02 -1.637027859687805176e-01 6.992079317569732666e-02 1.085142493247985840e-01 1.862413063645362854e-02 2.086588144302368164e-01 1.041321977972984314e-01 -5.785997956991195679e-02 -5.181248858571052551e-02 6.276849890127778053e-04 4.475089907646179199e-02 -5.129696801304817200e-02 3.891586512327194214e-02 -1.074940897524356842e-02 9.358894824981689453e-02 -6.858228147029876709e-02 -2.032040655612945557e-01 1.031709432601928711e+00 1.768669672310352325e-02 8.589450269937515259e-02 3.685616701841354370e-02 7.014254480600357056e-02 -1.133821830153465271e-01 1.818419694900512695e-01 -2.411024332046508789e+00 -7.216373085975646973e-02 2.739968523383140564e-02 -2.332418709993362427e-01 1.136635802686214447e-02 6.993455346673727036e-03 -6.991004198789596558e-02 -9.536228328943252563e-02 4.195117950439453125e-01 1.052524894475936890e-01 5.255975201725959778e-02 -3.202848508954048157e-02 2.238252572715282440e-02 2.531973645091056824e-02 -1.903175115585327148e+00 4.390031471848487854e-02 -5.102623626589775085e-02 -5.299894139170646667e-02 -1.543652862310409546e-01 -1.699068695306777954e-01 1.825441420078277588e-01 -1.222936203703284264e-03 2.561735510826110840e-01 3.160231560468673706e-02 -3.558482974767684937e-02 2.342244386672973633e-01 -1.357838213443756104e-01 1.253384828567504883e+00 -2.349077910184860229e-01 -1.914351806044578552e-02 -2.459730207920074463e-01 9.090402722358703613e-02 -1.322758756577968597e-02 3.224193453788757324e-01 1.384090185165405273e-01 -9.319508075714111328e-02 2.628535926342010498e-01 5.226368457078933716e-02 3.687543049454689026e-02 1.331011354923248291e-01 1.392219364643096924e-01 -1.980050653219223022e-01 -1.225626692175865173e-01 -1.357781440019607544e-01 -6.898645162582397461e-01 -9.105498343706130981e-02 -3.674494102597236633e-02 -7.785499095916748047e-03 1.344171464443206787e-01 1.528380066156387329e-01 4.692445695400238037e-02 4.749093204736709595e-02 -1.276740729808807373e-01 3.144704550504684448e-02 -8.619807660579681396e-02 5.086910724639892578e-02 4.476165864616632462e-03 -4.533536359667778015e-02 -2.716282568871974945e-02 -1.490407586097717285e-01 3.566829115152359009e-02 -1.191231608390808105e-01 -1.281431782990694046e-02 2.197366654872894287e-01 -1.348381936550140381e-01 6.413276493549346924e-02 9.764887392520904541e-02 5.537674948573112488e-02 -9.998115152120590210e-02 -5.363305807113647461e-01 -9.673849940299987793e-01 8.027478307485580444e-02 -4.400566965341567993e-02 2.042721211910247803e-01 -1.228748336434364319e-01 -8.763283491134643555e-02 -1.963316500186920166e-01 -9.306139498949050903e-02 -9.872572124004364014e-02 2.097030542790889740e-02 6.842673569917678833e-02 7.082260400056838989e-02 -1.316879093647003174e-01 8.371634781360626221e-02 5.949549749493598938e-02 -1.716803789138793945e+00 1.329222023487091064e-01 9.246359579265117645e-03 -3.097563423216342926e-02 1.195848640054464340e-02 1.330741792917251587e-01 -1.419357061386108398e-01 1.463685035705566406e-01 -1.945207118988037109e-01 -5.625402182340621948e-02 -2.630811929702758789e-02 3.031193092465400696e-02 -6.417676061391830444e-02 -8.066408336162567139e-02 6.491624750196933746e-03 3.484994918107986450e-02 4.602262750267982483e-03 -2.034040927886962891e+00 -3.685601428151130676e-02 -1.326361000537872314e-01 -5.668350309133529663e-02 -1.362638026475906372e-01 4.486757889389991760e-02 4.854793846607208252e-02 1.237844862043857574e-02 2.984187006950378418e-01 1.315412074327468872e-01 3.662831485271453857e-01 -5.630087107419967651e-02 -5.821070820093154907e-02 -4.475005716085433960e-02 1.379124969244003296e-01 -1.634917780756950378e-02 2.943487092852592468e-02 -8.416342735290527344e-02 2.330341376364231110e-02 6.788232177495956421e-02 1.079907044768333435e-01 1.134781837463378906e-01 -1.258398406207561493e-02 1.746619641780853271e-01 2.983648795634508133e-03 -1.164020448923110962e-01 -9.430037438869476318e-02 1.604982912540435791e-01 3.761586174368858337e-02 -4.847370088100433350e-03 1.520238467492163181e-03 -5.215014219284057617e-01 -2.223139256238937378e-01 1.262217760086059570e-01 -2.611795663833618164e-01 2.268362417817115784e-02 9.992603957653045654e-02 -5.239928886294364929e-02 1.013266220688819885e-01 -3.055225312709808350e-02 2.062217891216278076e-01 1.357614845037460327e-01 3.097791597247123718e-02 2.034656703472137451e-01 9.924075752496719360e-02 -4.838816449046134949e-02 2.286735773086547852e-01 7.222135365009307861e-02 2.169657498598098755e-03 7.833655923604965210e-02 3.391010686755180359e-02 -2.031081020832061768e-01 -1.486849226057529449e-02 2.101606875658035278e-01 -5.495052784681320190e-02 -1.555089801549911499e-01 -1.613454893231391907e-02 -1.085898876190185547e-01 8.965631015598773956e-03 4.652884602546691895e-02 -5.049825832247734070e-02 -1.624239921569824219e+00 1.556417159736156464e-02 2.543151378631591797e-01 -1.461009621620178223e+00 -4.401644319295883179e-02 -4.358075186610221863e-02 -1.111620292067527771e-01 5.125724151730537415e-02 2.609442174434661865e-02 4.301559180021286011e-02 5.957607179880142212e-02 -8.049521595239639282e-02 4.238811507821083069e-02 -1.673815846443176270e-01 6.762970983982086182e-02 2.503212308511137962e-03 1.196325942873954773e-02 1.643912494182586670e-01 1.051525324583053589e-01 -1.658660471439361572e-01 4.799456149339675903e-02 4.212223738431930542e-02 -1.506597385741770267e-03 -1.785559415817260742e+00 1.837221533060073853e-01 4.003686457872390747e-02 4.521015658974647522e-02 2.972661517560482025e-02 1.422215551137924194e-01 -2.111564427614212036e-01 1.574226766824722290e-01 -1.718279570341110229e-01 6.926793605089187622e-03 -7.905129343271255493e-02 -3.388884663581848145e-01 -3.148781508207321167e-02 3.184689581394195557e-02 -5.908919572830200195e-01 1.879252493381500244e-01 4.904860854148864746e-01 -1.555637270212173462e-02 -1.974272280931472778e-01 4.007123038172721863e-02 6.335854530334472656e-02 -3.221998363733291626e-02 -1.176362764090299606e-02 -5.623056739568710327e-02 1.978566125035285950e-02 -3.189458698034286499e-02 -2.251335680484771729e-01 -7.849620282649993896e-02 -1.362729787826538086e+00 -1.946913957595825195e+00 1.197185516357421875e+00 -1.162242442369461060e-01 7.627690210938453674e-04 -7.989672571420669556e-02 1.994479417800903320e+00 1.538332849740982056e-01 1.542212963104248047e-01 -1.024647578597068787e-01 -6.931672990322113037e-02 2.690731287002563477e-01 3.300811767578125000e+00 2.816580832004547119e-01 -6.474029272794723511e-02 1.508358240127563477e+00 -1.536053866147994995e-01 1.787408888339996338e-01 -1.936991363763809204e-01 -1.750867843627929688e+00 -1.992600083351135254e+00 -8.859133720397949219e-02 -8.310334384441375732e-02 -4.742021858692169189e-02 -1.304703354835510254e-01 7.335763424634933472e-02 5.398023873567581177e-02 7.498584687709808350e-02 -9.746380150318145752e-02 5.827995017170906067e-02 -1.181666254997253418e-01 9.465570747852325439e-02 -2.123756855726242065e-01 2.243971265852451324e-02 -1.130486503243446350e-01 -3.307940438389778137e-02 6.673800759017467499e-03 4.735690057277679443e-01 2.820044383406639099e-02 4.590989649295806885e-02 -3.563957661390304565e-02 -6.446620915085077286e-03 -2.134267330169677734e+00 2.077722549438476562e-01 -1.738390885293483734e-02 9.380811825394630432e-03 3.392502665519714355e-03 1.047309674322605133e-02 1.343478113412857056e-01 -2.479626834392547607e-01 -2.900822786614298820e-03 9.058640152215957642e-02 1.655255630612373352e-02 -1.801009848713874817e-02 -5.650354176759719849e-02 -1.674881577491760254e-01 1.375415921211242676e-02 5.415415763854980469e-02 -3.228658810257911682e-02 1.454290598630905151e-01 2.206434726715087891e+00 -6.302252295427024364e-04 4.344094172120094299e-02 4.757428914308547974e-02 1.071332544088363647e-01 1.611492782831192017e-01 2.248505130410194397e-03 -9.958364535123109818e-04 -2.305367439985275269e-01 4.067815840244293213e-02 -5.545851588249206543e-02 -2.222357504069805145e-02 1.313942968845367432e-01 -6.041997671127319336e-02 3.012795001268386841e-03 4.643407650291919708e-03 1.008093580603599548e-01 5.334305763244628906e-01 4.379668235778808594e-01 -1.477589905261993408e-01 -9.324606060981750488e-01 -1.082609035074710846e-02 -1.426821947097778320e-01 -4.508931934833526611e-02 -6.025097891688346863e-02 -2.385494858026504517e-02 -9.349111467599868774e-02 1.207405775785446167e-01 -6.617899984121322632e-02 1.421333253383636475e-01 7.240188308060169220e-03 1.052472554147243500e-02 -1.891595423221588135e-01 -2.332226485013961792e-01 1.487836539745330811e-01 2.689747884869575500e-02 -1.308387815952301025e-01 -3.811217145994305611e-03 -5.534565448760986328e-01 -6.354629993438720703e-02 1.639323830604553223e+00 1.410183161497116089e-01 1.202731356024742126e-01 1.284221887588500977e+00 4.455481097102165222e-02 1.242848485708236694e-01 9.375540912151336670e-02 6.475280970335006714e-02 6.114672869443893433e-02 -3.763267770409584045e-02 -2.949789762496948242e-01 9.159736335277557373e-02 -4.545146226882934570e-02 3.720385581254959106e-02 -7.913656532764434814e-02 -2.697918098419904709e-03 3.462201356887817383e-02 1.519650220870971680e-01 1.073745489120483398e-01 2.238394692540168762e-02 1.601604223251342773e-01 -4.075530171394348145e-02 -3.280771672725677490e-01 6.546489149332046509e-02 7.882507145404815674e-02 -1.383904926478862762e-02 -3.643632400780916214e-03 1.623845398426055908e-01 -1.303856819868087769e-02 1.428202092647552490e-01 -3.374742716550827026e-02 5.715038254857063293e-02 -8.370191603899002075e-02 -5.720546096563339233e-02 6.741705536842346191e-02 -2.196223940700292587e-03 -3.808516636490821838e-02 1.301533877849578857e-01 -1.256538629531860352e-01 -1.250738650560379028e-02 3.914669901132583618e-02 -2.172171324491500854e-02 -1.707338690757751465e-01 8.849627524614334106e-02 4.384594559669494629e-01 3.344719111919403076e-02 -1.374668069183826447e-02 1.797180809080600739e-02 -1.330831460654735565e-02 3.820502012968063354e-02 2.666392549872398376e-02 -5.696154832839965820e-01 6.298679858446121216e-02 1.113071814179420471e-01 -1.318523660302162170e-03 -4.238307476043701172e-02 -2.370655722916126251e-02 -3.115622140467166901e-02 -6.650497764348983765e-02 1.497102677822113037e-01 1.530189532786607742e-02 -3.633931279182434082e-02 1.415598690509796143e-01 9.905840456485748291e-02 1.220742911100387573e-01 3.332940489053726196e-02 -1.351141487248241901e-03 -5.612312629818916321e-02 -3.038698993623256683e-02 -3.307915525510907173e-03 3.402571380138397217e-02 3.336190432310104370e-02 1.872275583446025848e-02 7.238193601369857788e-02 1.062372103333473206e-01 -9.446065127849578857e-02 2.597839832305908203e-01 9.726899117231369019e-02 1.746300235390663147e-02 3.027637675404548645e-02 2.628381848335266113e-01 5.374505999498069286e-04 -2.292567729949951172e+00 5.118315294384956360e-02 6.410242617130279541e-02 9.946560114622116089e-02 7.207594811916351318e-02 1.247391253709793091e-01 7.801957130432128906e-01 2.117334902286529541e-01 1.820341683924198151e-02 2.094250544905662537e-02 -1.001618057489395142e-01 -1.049471274018287659e-01 1.621944829821586609e-02 -5.034037306904792786e-02 -5.438920259475708008e-01 9.978874586522579193e-03 -3.280417621135711670e-02 5.164530011825263500e-04 -1.952543705701828003e-01 8.569335564970970154e-03 -1.724156737327575684e+00 -2.212273329496383667e-02 -5.114357918500900269e-02 7.551250047981739044e-03 -1.675140485167503357e-02 -1.150381118059158325e-01 -2.057137712836265564e-02 -3.099929727613925934e-02 -2.608411014080047607e-01 6.878808885812759399e-02 5.269427224993705750e-02 -1.174905896186828613e-01 9.410228580236434937e-02 1.219708658754825592e-02 2.570244371891021729e-01 3.587931692600250244e-01 8.450563251972198486e-02 -2.948293648660182953e-02 -1.300102472305297852e-01 9.231436997652053833e-02 4.368782788515090942e-02 -2.463123016059398651e-02 -1.133431643247604370e-01 2.522417344152927399e-02 2.628576159477233887e-01 1.734158843755722046e-01 1.575784385204315186e-01 1.160624250769615173e-01 -1.467701494693756104e-01 -4.504829272627830505e-02 -1.751926183700561523e+00 1.966207101941108704e-02 5.791895464062690735e-02 9.390371292829513550e-02 4.496067762374877930e-02 1.190081983804702759e-01 2.518456056714057922e-02 -1.692471206188201904e-01 -7.229359447956085205e-02 9.022529423236846924e-02 -3.800101876258850098e-01 3.785709291696548462e-02 6.276771309785544872e-04 8.401715755462646484e-02 -3.434999659657478333e-02 4.013602808117866516e-02 6.710278987884521484e-02 4.215845838189125061e-02 -5.692414566874504089e-02 -1.128259897232055664e-01 4.176099225878715515e-02 -2.541266940534114838e-02 3.806359767913818359e-01 -2.934813871979713440e-02 1.489359326660633087e-02 3.151729106903076172e-01 2.051288820803165436e-02 1.366175711154937744e-01 -8.752784878015518188e-02 7.174236327409744263e-02 1.883028633892536163e-02 -1.141299486160278320e+00 -3.690495714545249939e-02 4.672951065003871918e-03 -2.433655038475990295e-02 -5.249230656772851944e-03 -2.054148912429809570e-01 4.923591017723083496e-02 9.187681227922439575e-02 3.029400706291198730e-01 1.844097301363945007e-02 3.907983303070068359e-01 1.914800047874450684e+00 8.099703490734100342e-02 -7.815094292163848877e-02 8.857467770576477051e-02 8.118288218975067139e-02 -2.130140364170074463e-01 -2.104771509766578674e-02 -2.645305991172790527e-01 1.919059991836547852e+00 2.711039222776889801e-02 -1.052355617284774780e-01 -1.758575066924095154e-02 1.085874065756797791e-01 1.933275163173675537e-01 1.817645788192749023e+00 9.362258017063140869e-02 -1.009861081838607788e-01 1.060896143317222595e-01 6.287108361721038818e-02 -1.679334938526153564e-01 8.031550049781799316e-02 7.812450081110000610e-02 3.914771601557731628e-02 1.406555622816085815e-01 -6.701206564903259277e-01 1.213134638965129852e-02 9.939292818307876587e-02 1.856096386909484863e-01 -2.534306980669498444e-02 -7.324723005294799805e-01 3.025121986865997314e-01 1.554623059928417206e-02 -1.020548939704895020e-01 5.303421616554260254e-02 1.118099913001060486e-01 -2.873162366449832916e-02 -5.530092120170593262e-02 1.035719960927963257e-01 -3.756434470415115356e-02 -2.547426521778106689e-01 1.536060571670532227e-01 4.109769314527511597e-02 1.600055024027824402e-02 9.758993983268737793e-02 -7.528945803642272949e-02 4.535766541957855225e-01 -1.266383677721023560e-01 -4.855596274137496948e-02 5.611575245857238770e-01 3.238243982195854187e-02 -2.265667170286178589e-02 7.651449739933013916e-02 -1.943169534206390381e-01 -2.446698844432830811e-01 -2.773874104022979736e-01 1.051136851310729980e-01 1.797689348459243774e-01 -9.158636629581451416e-02 2.529573813080787659e-02 2.168154716491699219e-02 -7.904662936925888062e-02
