2.878031507134437561e-02 1.685278117656707764e-01 -3.070616722106933594e-02 1.721194386482238770e-01 1.930341273546218872e-01 1.134181278757750988e-03 -1.315327882766723633e-01 -1.825710386037826538e-02 -5.558144301176071167e-02 3.434215188026428223e-01 -1.235679350793361664e-02 -3.847876563668251038e-02 2.304459810256958008e-01 5.747966468334197998e-02 -7.585159540176391602e-01 -2.055975608527660370e-03 -8.775380998849868774e-02 2.036213874816894531e-01 -4.039150103926658630e-02 1.182596758008003235e-02 1.079512909054756165e-01 7.637687027454376221e-02 -6.144066900014877319e-02 -2.387024275958538055e-02 -1.596140563488006592e-01 -6.437732279300689697e-02 -1.866761296987533569e-01 1.338294595479965210e-01 4.424255490303039551e-01 9.945944696664810181e-02 5.766061600297689438e-03 -3.231576411053538322e-03 9.300988167524337769e-03 6.754146516323089600e-02 3.570451587438583374e-02 9.925493039190769196e-03 -1.991845369338989258e+00 8.687418885529041290e-03 -8.766164630651473999e-02 1.303537655621767044e-02 2.055682055652141571e-02 9.230622649192810059e-02 -6.541201472282409668e-02 4.890706390142440796e-02 -9.488873183727264404e-03 1.254258394241333008e+00 8.750950545072555542e-02 -4.336901754140853882e-02 1.422148823738098145e+00 1.693663001060485840e-02 9.553143382072448730e-02 -5.359932184219360352e-01 -8.406458050012588501e-02 -1.672932028770446777e+00 9.851019829511642456e-02 1.123590543866157532e-01 -1.168102212250232697e-02 9.856530278921127319e-02 8.510329574346542358e-02 -1.006395369768142700e-01 6.268525868654251099e-02 1.095413863658905029e-01 9.458407014608383179e-02 -1.856598071753978729e-02 -2.054379433393478394e-01 4.210946708917617798e-02 -6.432010233402252197e-02 9.170610457658767700e-02 1.915585831739008427e-03 2.028849124908447266e-01 2.419805712997913361e-02 1.302994936704635620e-01 -5.862532928586006165e-02 -8.939489722251892090e-02 -1.922758878208696842e-03 -1.073496765457093716e-03 1.200514286756515503e-02 -1.235215887427330017e-01 1.630415320396423340e-01 1.003018468618392944e-01 2.420135773718357086e-02 -4.637981206178665161e-02 -2.548794746398925781e-01 -7.134097814559936523e-02 -8.480070531368255615e-02 -1.035149022936820984e-01 -4.234842956066131592e-02 8.496890962123870850e-02 -3.524735569953918457e-02 -3.762145712971687317e-02 -1.120591089129447937e-01 5.770705267786979675e-02 -6.360267400741577148e-01 1.201763302087783813e-01 -9.727507829666137695e-02 -8.308758139610290527e-01 -7.784133404493331909e-02 -9.916149824857711792e-02 -4.282858688384294510e-03 3.180580586194992065e-02 -1.374923139810562134e-01 1.518400549888610840e+00 2.923339307308197021e-01 6.709159910678863525e-02 -3.400326490402221680e+00 1.404638681560754776e-02 1.303578466176986694e-01 -1.729557514190673828e-01 4.589313864707946777e-01 -1.275310218334197998e-01 3.161840885877609253e-02 -1.795227527618408203e-01 5.845154449343681335e-02 1.338308751583099365e-01 1.829969882965087891e-01 2.023179084062576294e-01 3.436931222677230835e-02 -7.664002478122711182e-02 -1.651722341775894165e-01 4.719389975070953369e-02 -1.342475861310958862e-01 1.243445202708244324e-01 4.022308066487312317e-02 -1.449855715036392212e-01 3.662759065628051758e-02 6.399004906415939331e-02 1.900944262742996216e-01 -1.098302081227302551e-01 1.442009210586547852e-01 7.792901396751403809e-01 -1.273724436759948730e-01 2.209391593933105469e+00 1.689878292381763458e-02 -7.657732069492340088e-02 2.413222193717956543e-01 1.581675529479980469e+00 9.180931001901626587e-02 1.272419989109039307e-01 1.915156841278076172e-01 2.257343977689743042e-01 -8.432768285274505615e-02 -8.772590756416320801e-02 -7.384004071354866028e-03 8.143465220928192139e-02 -1.035927515476942062e-02 1.244040802121162415e-01 -5.392308160662651062e-02 -2.356024086475372314e-01 -2.004993893206119537e-02 -1.842788606882095337e-02 5.579495429992675781e-02 -5.780650302767753601e-02 -2.111010625958442688e-02 -6.374716013669967651e-02 -1.024031266570091248e-01 3.321922942996025085e-02 1.564946025609970093e-01 -7.091818749904632568e-02 9.738663583993911743e-02 9.917368739843368530e-02 1.634403228759765625e+00 2.042485922574996948e-01 -7.017114758491516113e-02 1.059513688087463379e-01 1.363723278045654297e-01 -1.542102359235286713e-02 9.392096102237701416e-02 -7.690758258104324341e-02 -2.018974721431732178e-01 -3.682914972305297852e-01 -2.408555448055267334e-01 3.676300495862960815e-02 1.895468086004257202e-01 6.227917224168777466e-02 1.146892458200454712e-01 7.764873653650283813e-02 -4.048876836895942688e-02 8.212521672248840332e-03 -7.277363538742065430e-02 -1.163617819547653198e-01 -2.801295183598995209e-02 1.058198362588882446e-01 -5.458517000079154968e-02 4.059555381536483765e-02 2.757298760116100311e-03 -3.278798982501029968e-02 -9.008063003420829773e-03 2.124692872166633606e-02 -5.334557965397834778e-02 2.812226675450801849e-02 8.373595029115676880e-02 2.691395580768585205e-02 -2.108609974384307861e-01 -4.528670385479927063e-02 -1.307488679885864258e-01 -4.566894844174385071e-02 -1.601359248161315918e-01 8.444032818078994751e-02 1.042116358876228333e-01 2.040451392531394958e-02 1.920488178730010986e-01 1.197961941361427307e-01 -6.496663391590118408e-02 -4.872673749923706055e-02 -2.357547404244542122e-03 3.449425473809242249e-02 -4.707560688257217407e-02 4.195208661258220673e-03 6.799895782023668289e-03 1.050628647208213806e-01 -6.720791757106781006e-02 -2.052837461233139038e-01 1.056161403656005859e+00 1.821515336632728577e-02 1.155883893370628357e-01 3.073338605463504791e-02 5.465305596590042114e-02 -1.312016248703002930e-01 1.784420460462570190e-01 -2.426182746887207031e+00 -8.861003071069717407e-02 3.505836427211761475e-02 -2.065514028072357178e-01 -9.960910305380821228e-03 -5.768894334323704243e-04 -8.817196637392044067e-02 -8.892054855823516846e-02 4.383775591850280762e-01 9.018905460834503174e-02 4.055252298712730408e-02 -6.261957436800003052e-02 3.898173198103904724e-02 4.239815846085548401e-02 -1.926319837570190430e+00 4.761143401265144348e-02 -3.451601043343544006e-02 -2.942524105310440063e-02 -1.538281738758087158e-01 -1.747683733701705933e-01 1.556036621332168579e-01 -2.769887447357177734e-02 2.539416849613189697e-01 6.164399906992912292e-02 -2.175025455653667450e-02 2.130580246448516846e-01 -1.419563293457031250e-01 1.261654138565063477e+00 -2.303391396999359131e-01 -2.995725348591804504e-02 -2.491353005170822144e-01 7.000721246004104614e-02 -2.538352832198143005e-02 3.374781906604766846e-01 1.558500528335571289e-01 -1.079064682126045227e-01 2.315570116043090820e-01 5.085163563489913940e-02 4.164508357644081116e-02 1.030897721648216248e-01 1.238479167222976685e-01 -1.813644617795944214e-01 -1.195322349667549133e-01 -1.419240832328796387e-01 -6.597521901130676270e-01 -8.777969330549240112e-02 -2.701701037585735321e-02 -2.034459263086318970e-02 1.221467331051826477e-01 1.286509931087493896e-01 4.101261869072914124e-02 5.793955177068710327e-02 -1.409614980220794678e-01 4.945778846740722656e-02 -8.279369026422500610e-02 5.352974310517311096e-02 2.026988007128238678e-02 -3.254105523228645325e-02 -2.580980770289897919e-02 -1.107217669486999512e-01 3.112366423010826111e-02 -8.860371261835098267e-02 -3.097825683653354645e-02 2.034182995557785034e-01 -1.207252740859985352e-01 7.861230522394180298e-02 9.167956560850143433e-02 5.361093953251838684e-02 -1.023167893290519714e-01 -5.221396684646606445e-01 -1.020769357681274414e+00 8.518621325492858887e-02 -3.069645352661609650e-02 2.200374305248260498e-01 -1.149476915597915649e-01 -7.427724450826644897e-02 -1.901178210973739624e-01 -9.406410157680511475e-02 -1.158789247274398804e-01 4.013290628790855408e-02 5.912328511476516724e-02 4.434006288647651672e-02 -1.442638635635375977e-01 7.678616046905517578e-02 5.937392637133598328e-02 -1.726953029632568359e+00 1.464767456054687500e-01 3.752798214554786682e-02 -8.838991634547710419e-03 -2.831684891134500504e-03 1.275699138641357422e-01 -1.285257339477539062e-01 1.372870355844497681e-01 -1.752508431673049927e-01 -6.857030093669891357e-02 -3.426499897614121437e-03 1.627664454281330109e-02 -5.082588270306587219e-02 -6.984677910804748535e-02 5.267761647701263428e-02 5.301639437675476074e-02 -5.781347863376140594e-03 -2.069937467575073242e+00 -4.867032170295715332e-02 -1.230502873659133911e-01 -3.506667539477348328e-02 -1.232833415269851685e-01 3.666815161705017090e-02 5.675482377409934998e-02 -1.925298012793064117e-02 2.958040833473205566e-01 9.874299913644790649e-02 3.678120076656341553e-01 -3.820865973830223083e-02 -3.244511410593986511e-02 -2.968916855752468109e-02 1.337248384952545166e-01 -1.972832344472408295e-02 4.287043213844299316e-02 -7.219514995813369751e-02 3.389583528041839600e-02 6.750694662332534790e-02 1.271506100893020630e-01 8.552353829145431519e-02 -1.975043490529060364e-02 1.826742142438888550e-01 1.349050179123878479e-02 -1.018167808651924133e-01 -1.276774555444717407e-01 1.434902250766754150e-01 5.886590480804443359e-02 -2.545651979744434357e-02 -1.452451013028621674e-02 -5.206659436225891113e-01 -1.936505734920501709e-01 1.161944568157196045e-01 -2.248192429542541504e-01 2.180631645023822784e-02 8.947980403900146484e-02 -6.570819020271301270e-02 8.248931169509887695e-02 -4.994894564151763916e-02 1.998878866434097290e-01 1.408976912498474121e-01 1.597933098673820496e-02 1.742016375064849854e-01 1.183040291070938110e-01 -4.001453146338462830e-02 1.991612911224365234e-01 7.817423343658447266e-02 -5.246439203619956970e-02 4.498826339840888977e-02 1.139169000089168549e-02 -1.946140229701995850e-01 -2.039931342005729675e-02 2.154005169868469238e-01 -6.659719347953796387e-02 -1.728358268737792969e-01 -3.815056756138801575e-02 -7.103058695793151855e-02 2.650962769985198975e-02 1.572801545262336731e-02 -5.388239398598670959e-02 -1.614332199096679688e+00 2.439577318727970123e-02 2.262253314256668091e-01 -1.497107625007629395e+00 -3.706725314259529114e-02 -4.491397365927696228e-02 -1.213749572634696960e-01 4.365788400173187256e-02 4.882607143372297287e-03 6.645590811967849731e-02 2.842024900019168854e-02 -5.175079777836799622e-02 1.362825185060501099e-02 -1.690332293510437012e-01 6.147556751966476440e-02 -6.006654351949691772e-03 2.919569425284862518e-02 1.401212811470031738e-01 1.005737483501434326e-01 -1.646351367235183716e-01 5.010584741830825806e-02 4.810434952378273010e-02 -1.332894805818796158e-02 -1.813491702079772949e+00 1.723993420600891113e-01 3.145892545580863953e-02 4.237413406372070312e-02 2.291166037321090698e-02 1.560795307159423828e-01 -2.070793956518173218e-01 1.537052989006042480e-01 -1.588724851608276367e-01 -1.238986384123563766e-02 -7.667756080627441406e-02 -3.229444324970245361e-01 -2.883691154420375824e-02 3.417306765913963318e-02 -6.176906824111938477e-01 1.849570125341415405e-01 5.051715373992919922e-01 -1.981881633400917053e-02 -1.999272555112838745e-01 3.433366864919662476e-02 6.452457606792449951e-02 -1.197963766753673553e-02 3.342483192682266235e-03 -6.784900277853012085e-02 3.928932547569274902e-02 3.132024547085165977e-03 -2.308076322078704834e-01 -8.133993297815322876e-02 -1.397558450698852539e+00 -1.980566978454589844e+00 1.206345438957214355e+00 -9.678827226161956787e-02 -2.790113911032676697e-03 -6.363032013177871704e-02 2.022088766098022461e+00 1.633492559194564819e-01 1.552167385816574097e-01 -8.151283115148544312e-02 -6.726660579442977905e-02 2.550341188907623291e-01 3.304934501647949219e+00 2.730868458747863770e-01 -4.341252148151397705e-02 1.541947245597839355e+00 -1.185522824525833130e-01 1.704436391592025757e-01 -2.074732780456542969e-01 -1.766268849372863770e+00 -2.020257711410522461e+00 -6.637155264616012573e-02 -9.444446116685867310e-02 -4.102589190006256104e-02 -1.446215808391571045e-01 8.509734272956848145e-02 7.310590147972106934e-02 7.969287782907485962e-02 -9.083162993192672729e-02 3.945358097553253174e-02 -1.073662191629409790e-01 7.534140348434448242e-02 -1.914096772670745850e-01 3.532654047012329102e-02 -1.126196533441543579e-01 -3.513095900416374207e-02 -3.897961601614952087e-02 4.787242114543914795e-01 4.239767044782638550e-02 4.719090089201927185e-02 -3.715389594435691833e-02 -7.464979775249958038e-03 -2.159484148025512695e+00 1.876884698867797852e-01 -2.762182801961898804e-02 3.214448317885398865e-02 -3.337121382355690002e-02 1.463142689317464828e-02 1.434934586286544800e-01 -2.481340616941452026e-01 2.099663019180297852e-02 1.042943671345710754e-01 -2.098333556205034256e-03 -9.878877550363540649e-03 -5.256364867091178894e-02 -1.396926194429397583e-01 -5.676526110619306564e-03 3.189818933606147766e-02 -3.260153532028198242e-02 1.339955627918243408e-01 2.213073968887329102e+00 -3.623919794335961342e-03 3.961889445781707764e-02 4.237924143671989441e-02 5.619794130325317383e-02 1.125708147883415222e-01 -8.436830714344978333e-03 -4.503758624196052551e-03 -2.387654781341552734e-01 5.131893604993820190e-02 -7.976531237363815308e-02 -1.533959526568651199e-02 1.248022839426994324e-01 -6.623234599828720093e-02 -1.037048548460006714e-02 1.300324779003858566e-02 8.726800978183746338e-02 5.422938466072082520e-01 4.340868592262268066e-01 -1.571425050497055054e-01 -9.637880325317382812e-01 -1.616706326603889465e-02 -1.125909090042114258e-01 -4.249707236886024475e-02 -4.961521178483963013e-02 -3.452418744564056396e-02 -8.089208602905273438e-02 1.221904009580612183e-01 -8.809954673051834106e-02 1.424418836832046509e-01 -1.593668572604656219e-02 1.991388574242591858e-02 -1.933294236660003662e-01 -2.192693203687667847e-01 1.493608057498931885e-01 1.095273997634649277e-02 -1.238541901111602783e-01 -1.991701312363147736e-02 -5.660732388496398926e-01 -6.421244889497756958e-02 1.666367888450622559e+00 1.489449590444564819e-01 1.371205747127532959e-01 1.289384603500366211e+00 5.500343814492225647e-02 1.181498765945434570e-01 9.900966286659240723e-02 8.510229736566543579e-02 5.210496112704277039e-02 -1.635003462433815002e-02 -3.125139474868774414e-01 1.107140257954597473e-01 -4.898910969495773315e-02 7.148023694753646851e-02 -8.749807626008987427e-02 -4.390598461031913757e-02 4.088906198740005493e-02 1.542434245347976685e-01 9.832188487052917480e-02 1.438573189079761505e-02 1.556281000375747681e-01 -4.104436933994293213e-02 -3.543705940246582031e-01 7.879228144884109497e-02 1.194965690374374390e-01 -3.400225937366485596e-02 -2.145674079656600952e-02 2.034737616777420044e-01 -4.062182735651731491e-03 1.480241268873214722e-01 -2.719477750360965729e-02 1.919992454349994659e-02 -6.508310884237289429e-02 -5.784446746110916138e-02 2.323635108768939972e-02 5.657307803630828857e-03 -4.640119895339012146e-02 1.253956258296966553e-01 -1.365508884191513062e-01 1.243677455931901932e-02 3.875244036316871643e-02 -1.255832333117723465e-02 -1.479406654834747314e-01 8.340290933847427368e-02 4.738584458827972412e-01 2.924233675003051758e-02 -4.422034695744514465e-02 3.096385858952999115e-02 -5.746558308601379395e-03 4.017272591590881348e-02 3.964835405349731445e-02 -5.820219516754150391e-01 6.514224410057067871e-02 1.167755052447319031e-01 -1.483430806547403336e-02 -5.591409280896186829e-02 -3.787225484848022461e-02 -3.944752365350723267e-02 -6.155214831233024597e-02 1.422023773193359375e-01 2.717725932598114014e-02 -5.121474340558052063e-02 1.525965481996536255e-01 8.281904458999633789e-02 1.233665719628334045e-01 3.608082234859466553e-02 2.864748984575271606e-02 -6.980020552873611450e-02 -1.611041650176048279e-02 -4.927664995193481445e-03 1.568469405174255371e-02 3.112812899053096771e-02 1.055020187050104141e-02 7.470124959945678711e-02 1.120463833212852478e-01 -1.035363823175430298e-01 2.482566833496093750e-01 6.766737252473831177e-02 6.215805653482675552e-03 3.176535665988922119e-02 2.415415644645690918e-01 -5.450527649372816086e-03 -2.319288492202758789e+00 7.064236700534820557e-02 4.172598198056221008e-02 9.344460070133209229e-02 4.986032098531723022e-02 1.181479766964912415e-01 7.967267036437988281e-01 2.213956713676452637e-01 -2.615383081138134003e-02 1.829787343740463257e-02 -9.044548869132995605e-02 -1.038257628679275513e-01 2.656984375789761543e-03 -5.170013755559921265e-02 -5.370047092437744141e-01 2.837650105357170105e-02 -5.332794785499572754e-02 1.132447551935911179e-02 -1.668393611907958984e-01 1.762789487838745117e-02 -1.776112198829650879e+00 -4.260732978582382202e-02 -5.065914988517761230e-02 8.455273695290088654e-03 -2.595384232699871063e-02 -1.361563354730606079e-01 -5.755245313048362732e-02 -2.927322499454021454e-02 -2.559549212455749512e-01 1.045693531632423401e-01 6.625980138778686523e-02 -9.596594423055648804e-02 9.642827510833740234e-02 2.645049989223480225e-02 2.845600247383117676e-01 3.182556331157684326e-01 8.242165297269821167e-02 -2.767575159668922424e-02 -1.238294914364814758e-01 8.223780244588851929e-02 6.465731561183929443e-02 -3.757242858409881592e-02 -9.937427937984466553e-02 2.082620747387409210e-02 2.770814597606658936e-01 1.687835603952407837e-01 1.717166602611541748e-01 1.024821922183036804e-01 -1.594010591506958008e-01 -4.520507529377937317e-02 -1.764551758766174316e+00 5.717121064662933350e-03 6.768393516540527344e-02 8.828413486480712891e-02 6.992565840482711792e-02 1.347684413194656372e-01 1.242625061422586441e-02 -1.517439037561416626e-01 -8.764474838972091675e-02 7.920914888381958008e-02 -3.841713666915893555e-01 4.037365689873695374e-02 -8.106679655611515045e-03 5.869228020310401917e-02 -4.544826969504356384e-02 1.660780399106442928e-03 8.250309526920318604e-02 4.280774295330047607e-02 -6.836917996406555176e-02 -7.317608594894409180e-02 4.861265420913696289e-02 -2.191807143390178680e-02 3.993293344974517822e-01 -4.225286189466714859e-03 3.399279341101646423e-02 3.143961429595947266e-01 2.413706481456756592e-02 1.335454583168029785e-01 -6.854699552059173584e-02 8.700854331254959106e-02 4.038620740175247192e-02 -1.139806270599365234e+00 -5.814306810498237610e-02 2.247909270226955414e-02 -6.900001782923936844e-03 -3.868781775236129761e-02 -1.815735399723052979e-01 5.013313144445419312e-02 9.133625030517578125e-02 3.054772913455963135e-01 1.435073651373386383e-02 3.691875934600830078e-01 1.954286694526672363e+00 5.754697322845458984e-02 -6.991475820541381836e-02 1.083561927080154419e-01 7.380691170692443848e-02 -2.087571918964385986e-01 -5.326320976018905640e-02 -2.565449774265289307e-01 1.921535968780517578e+00 4.293482378125190735e-02 -1.048495396971702576e-01 -1.420724205672740936e-02 1.072857901453971863e-01 1.911684423685073853e-01 1.826991796493530273e+00 8.234669268131256104e-02 -1.038317158818244934e-01 1.124076694250106812e-01 4.745381325483322144e-02 -1.599743813276290894e-01 6.995803117752075195e-02 7.721113413572311401e-02 4.923599958419799805e-02 1.404400914907455444e-01 -6.363598704338073730e-01 1.802876591682434082e-02 1.195548698306083679e-01 2.063703835010528564e-01 -1.291665155440568924e-02 -7.300081849098205566e-01 3.204505741596221924e-01 3.438156098127365112e-02 -7.403378933668136597e-02 6.319158524274826050e-02 1.254935860633850098e-01 -2.162500843405723572e-02 -5.384401232004165649e-02 9.797705709934234619e-02 -2.129359729588031769e-02 -2.211869210004806519e-01 1.509788781404495239e-01 5.791183561086654663e-02 1.735252141952514648e-02 9.090600907802581787e-02 -7.830362766981124878e-02 4.302893280982971191e-01 -1.059535294771194458e-01 -7.347775995731353760e-02 5.887094140052795410e-01 2.464641258120536804e-02 -1.929894275963306427e-02 6.518136709928512573e-02 -1.938726752996444702e-01 -2.044453769922256470e-01 -2.653330862522125244e-01 6.342750787734985352e-02 1.526268273591995239e-01 -8.583058416843414307e-02 3.294782713055610657e-02 1.456948090344667435e-02 -6.488554179668426514e-02
