8.637253195047378540e-03 1.469497978687286377e-01 -3.785563260316848755e-02 1.547413021326065063e-01 1.965090483427047729e-01 4.850244522094726562e-02 -9.374686330556869507e-02 -3.983631357550621033e-02 -8.196043968200683594e-02 3.311168849468231201e-01 -9.781961329281330109e-03 -8.905105642043054104e-04 1.842715144157409668e-01 6.529741734266281128e-02 -7.561705112457275391e-01 4.822619259357452393e-02 -8.128134906291961670e-02 1.967949718236923218e-01 -2.386370673775672913e-02 2.940078824758529663e-02 1.016909182071685791e-01 8.216324448585510254e-02 -3.628705069422721863e-02 1.795087940990924835e-02 -1.663455218076705933e-01 -9.317754209041595459e-02 -1.508881896734237671e-01 1.282909512519836426e-01 4.405056238174438477e-01 5.229008942842483521e-02 4.108813777565956116e-02 -3.356826491653919220e-03 1.447084010578691959e-03 6.459593027830123901e-02 3.155678138136863708e-02 -1.900197821669280529e-03 -2.029619932174682617e+00 5.822224169969558716e-02 -9.313330054283142090e-02 4.396041855216026306e-02 1.566353254020214081e-02 1.321660280227661133e-01 -9.048342704772949219e-02 3.053791075944900513e-02 -7.529795984737575054e-04 1.258841753005981445e+00 7.613117247819900513e-02 -8.137074857950210571e-02 1.440625309944152832e+00 1.772261783480644226e-02 1.133213043212890625e-01 -5.721434354782104492e-01 -1.120058819651603699e-01 -1.694149136543273926e+00 1.010104492306709290e-01 1.053587868809700012e-01 -1.503406371921300888e-02 5.820076167583465576e-02 9.414489567279815674e-02 -5.992849543690681458e-02 2.740814350545406342e-02 1.392305493354797363e-01 5.029314011335372925e-02 2.904190495610237122e-02 -1.865759044885635376e-01 5.437751859426498413e-02 -2.804401330649852753e-02 6.401428580284118652e-02 -1.442539319396018982e-02 2.089123576879501343e-01 2.782639116048812866e-03 1.142379343509674072e-01 -9.073335677385330200e-02 -6.660726666450500488e-02 1.232590433210134506e-02 2.521654777228832245e-02 1.809203810989856720e-02 -1.274030357599258423e-01 1.486946046352386475e-01 4.435036331415176392e-02 1.654317602515220642e-02 -3.123530931770801544e-02 -2.589583694934844971e-01 -5.589568987488746643e-02 -9.076556563377380371e-02 -1.100822687149047852e-01 -5.561859160661697388e-02 9.317947179079055786e-02 -2.062394283711910248e-02 -4.729187488555908203e-02 -1.228507235646247864e-01 4.065022338181734085e-03 -6.703351736068725586e-01 9.689189493656158447e-02 -1.190864369273185730e-01 -8.637992143630981445e-01 -7.034116238355636597e-02 -6.467035412788391113e-02 4.672987014055252075e-02 3.764890879392623901e-02 -1.578318923711776733e-01 1.596957445144653320e+00 2.699953913688659668e-01 4.446723312139511108e-02 -3.416389703750610352e+00 4.033219814300537109e-02 5.089414864778518677e-02 -1.187785416841506958e-01 4.564826786518096924e-01 -1.004155874252319336e-01 5.137830600142478943e-02 -1.598860919475555420e-01 8.618514984846115112e-02 1.047633737325668335e-01 1.506625711917877197e-01 2.008545994758605957e-01 -4.602221772074699402e-03 -9.251953661441802979e-02 -1.713614314794540405e-01 2.043370530009269714e-02 -1.020254641771316528e-01 1.086477190256118774e-01 7.252640277147293091e-02 -1.608351916074752808e-01 6.045728549361228943e-02 6.425113976001739502e-02 1.299756914377212524e-01 -1.109779328107833862e-01 1.121697425842285156e-01 8.593312501907348633e-01 -1.296867728233337402e-01 2.180599212646484375e+00 3.563923016190528870e-02 -9.595281630754470825e-02 2.389049679040908813e-01 1.634546518325805664e+00 5.848091468214988708e-02 1.001961082220077515e-01 1.469225734472274780e-01 2.455062717199325562e-01 -9.813388437032699585e-02 -6.221800297498703003e-02 -3.738604858517646790e-02 8.116232603788375854e-02 -3.044841624796390533e-02 7.293558120727539062e-02 -5.467110127210617065e-02 -1.798531711101531982e-01 -1.290912367403507233e-02 -2.055380493402481079e-02 5.226250737905502319e-02 -5.466206371784210205e-02 -1.828927663154900074e-03 -5.160472169518470764e-02 -1.314650177955627441e-01 4.216634854674339294e-02 1.869026273488998413e-01 -8.955884724855422974e-02 9.720329940319061279e-02 1.335164904594421387e-01 1.647215604782104492e+00 1.943558603525161743e-01 -8.200679719448089600e-02 1.071404218673706055e-01 8.615641295909881592e-02 -3.747865557670593262e-02 1.130470484495162964e-01 -8.870565146207809448e-02 -1.778155714273452759e-01 -3.705329298973083496e-01 -2.707876861095428467e-01 2.558183483779430389e-02 1.966316848993301392e-01 5.495070666074752808e-02 8.592589199542999268e-02 1.163250133395195007e-01 -5.740102380514144897e-02 -8.380031213164329529e-03 -6.618494540452957153e-02 -9.362049400806427002e-02 1.095910742878913879e-02 1.278707683086395264e-01 -4.608372598886489868e-02 5.298524349927902222e-02 1.225278619676828384e-02 6.277855718508362770e-04 -4.630766063928604126e-02 3.157836571335792542e-02 -3.377135470509529114e-02 -2.505331113934516907e-02 4.966493323445320129e-02 1.181047037243843079e-01 -1.867909729480743408e-01 -5.997384339570999146e-02 -9.740070998668670654e-02 -3.674462810158729553e-02 -1.302700936794281006e-01 7.249479740858078003e-02 1.060024350881576538e-01 4.519512876868247986e-02 1.663729995489120483e-01 1.315235495567321777e-01 -9.276512265205383301e-02 -5.720055848360061646e-02 1.787243969738483429e-02 4.583398252725601196e-02 -3.879683837294578552e-02 1.337804459035396576e-02 7.070504594594240189e-03 7.833838462829589844e-02 -5.894841998815536499e-02 -1.725448518991470337e-01 1.086783051490783691e+00 1.013543736189603806e-02 7.083702832460403442e-02 4.079864174127578735e-02 4.269801825284957886e-02 -1.190108507871627808e-01 1.734673976898193359e-01 -2.442188262939453125e+00 -8.303607255220413208e-02 3.496862947940826416e-02 -2.097548842430114746e-01 2.481840737164020538e-02 1.702599227428436279e-03 -6.779763102531433105e-02 -9.015591442584991455e-02 4.557978212833404541e-01 5.592381581664085388e-02 4.316298291087150574e-02 9.192734956741333008e-03 1.965228840708732605e-02 9.369920007884502411e-03 -1.971257925033569336e+00 4.479714855551719666e-02 -4.785438254475593567e-02 -2.812610752880573273e-02 -1.549911499023437500e-01 -1.467362642288208008e-01 1.346933692693710327e-01 -3.342642635107040405e-02 2.121848464012145996e-01 8.008602261543273926e-02 3.335834015160799026e-03 2.239695936441421509e-01 -1.248226165771484375e-01 1.298288345336914062e+00 -2.367294877767562866e-01 -3.273155167698860168e-02 -2.425847798585891724e-01 8.398277312517166138e-02 -1.174035109579563141e-02 3.342490196228027344e-01 1.666203886270523071e-01 -9.576760232448577881e-02 2.273636609315872192e-01 6.685144454240798950e-02 2.709752507507801056e-02 1.253941953182220459e-01 1.437612622976303101e-01 -1.897570788860321045e-01 -1.108651831746101379e-01 -1.105735227465629578e-01 -6.697003245353698730e-01 -8.168661594390869141e-02 2.022656984627246857e-02 6.685729138553142548e-03 1.637925058603286743e-01 1.122450008988380432e-01 2.054080367088317871e-02 7.669130712747573853e-02 -1.445903629064559937e-01 2.353727631270885468e-02 -6.930583715438842773e-02 2.783047966659069061e-02 6.014773389324545860e-04 4.185467958450317383e-03 -1.675677485764026642e-02 -1.453689634799957275e-01 2.302090264856815338e-02 -9.887038171291351318e-02 -1.191331632435321808e-02 2.106965929269790649e-01 -9.897342324256896973e-02 3.622201830148696899e-02 6.823097914457321167e-02 5.053578317165374756e-02 -1.197183877229690552e-01 -5.643037557601928711e-01 -1.021899342536926270e+00 6.304239481687545776e-02 -3.709557279944419861e-02 1.797493398189544678e-01 -1.181391030550003052e-01 -8.630041033029556274e-02 -1.717460900545120239e-01 -9.777529537677764893e-02 -8.467438817024230957e-02 -2.320043742656707764e-03 3.378463536500930786e-02 6.000473722815513611e-02 -1.401586085557937622e-01 1.026207134127616882e-01 9.645250439643859863e-02 -1.714159846305847168e+00 1.519510149955749512e-01 4.234066978096961975e-02 -3.082932345569133759e-02 5.666595883667469025e-03 1.844477504491806030e-01 -9.524916112422943115e-02 9.838961064815521240e-02 -1.850993335247039795e-01 -7.123485207557678223e-02 -3.412070218473672867e-03 6.189095228910446167e-02 -4.052770882844924927e-02 -5.097503215074539185e-02 5.682323500514030457e-02 1.729759946465492249e-02 1.390577526763081551e-03 -2.047179222106933594e+00 -5.836685001850128174e-02 -1.433245539665222168e-01 -8.408685773611068726e-02 -9.503023326396942139e-02 3.637548908591270447e-02 8.549781143665313721e-02 -1.925736665725708008e-02 2.861667871475219727e-01 6.401766836643218994e-02 2.635836005210876465e-01 -9.154280275106430054e-02 -4.356773570179939270e-02 -5.197542533278465271e-02 1.057807654142379761e-01 -7.491033524274826050e-02 1.580349355936050415e-02 -8.368897438049316406e-02 2.849073149263858795e-02 2.596428990364074707e-02 8.824999630451202393e-02 6.110956147313117981e-02 -2.212799713015556335e-02 1.331076025962829590e-01 1.956913387402892113e-03 -1.443371027708053589e-01 -6.262162327766418457e-02 1.511006057262420654e-01 2.625498920679092407e-02 -3.589665144681930542e-02 1.660460792481899261e-02 -5.649875998497009277e-01 -1.712147891521453857e-01 9.822599589824676514e-02 -2.494207024574279785e-01 4.017344489693641663e-02 5.928194895386695862e-02 -7.688161730766296387e-02 9.197694808244705200e-02 -2.661265060305595398e-02 1.973358094692230225e-01 1.160477474331855774e-01 1.624091155827045441e-02 2.082993388175964355e-01 7.690185308456420898e-02 -5.866975337266921997e-02 2.299558073282241821e-01 9.886623919010162354e-02 -1.212591491639614105e-02 9.522115439176559448e-02 4.576256498694419861e-02 -1.851667463779449463e-01 -5.368493497371673584e-02 2.084357589483261108e-01 -3.915902599692344666e-02 -1.340678632259368896e-01 -1.011141091585159302e-01 -9.350919723510742188e-02 -5.622162483632564545e-03 5.035328119993209839e-02 -7.131224125623703003e-02 -1.638831496238708496e+00 9.383024647831916809e-03 2.629053890705108643e-01 -1.489256978034973145e+00 -5.045715346932411194e-02 -6.566298753023147583e-02 -1.202546730637550354e-01 3.326814621686935425e-02 3.325781598687171936e-02 4.378804191946983337e-02 7.775264233350753784e-02 -1.930600777268409729e-02 2.203343622386455536e-02 -1.590250432491302490e-01 6.424365192651748657e-02 2.176561392843723297e-03 1.996629498898983002e-02 1.224040538072586060e-01 1.220866739749908447e-01 -1.224779933691024780e-01 7.602667063474655151e-02 4.640826955437660217e-02 5.306901875883340836e-03 -1.817968487739562988e+00 1.660841554403305054e-01 4.259855300188064575e-02 2.228167466819286346e-02 4.829225689172744751e-02 1.307613551616668701e-01 -1.630011945962905884e-01 1.504428982734680176e-01 -1.329889148473739624e-01 2.210776135325431824e-02 -7.762356847524642944e-02 -2.961921691894531250e-01 -3.924005851149559021e-02 5.199199542403221130e-02 -5.778899192810058594e-01 1.712190955877304077e-01 5.199069380760192871e-01 -1.435288693755865097e-03 -2.190216928720474243e-01 1.071060635149478912e-02 6.377028673887252808e-02 -9.525819681584835052e-03 9.867644868791103363e-03 -6.466983258724212646e-02 1.305622700601816177e-02 -2.566008642315864563e-02 -1.762081682682037354e-01 -4.596902802586555481e-02 -1.417919754981994629e+00 -1.972797155380249023e+00 1.220589756965637207e+00 -8.513019979000091553e-02 -1.076352037489414215e-02 -5.542566999793052673e-02 2.022561073303222656e+00 1.651732772588729858e-01 1.564781367778778076e-01 -9.472467005252838135e-02 -5.098474398255348206e-02 2.367157936096191406e-01 3.322360992431640625e+00 2.569723725318908691e-01 -6.212678924202919006e-02 1.573911070823669434e+00 -1.193723976612091064e-01 2.088838368654251099e-01 -1.860045641660690308e-01 -1.771557331085205078e+00 -2.090874910354614258e+00 -7.418882101774215698e-02 -1.010181531310081482e-01 -5.094056949019432068e-03 -9.345763176679611206e-02 5.228631943464279175e-02 3.279175981879234314e-02 8.787894994020462036e-02 -9.651376307010650635e-02 6.629620492458343506e-02 -1.233191117644309998e-01 8.305040746927261353e-02 -2.179121673107147217e-01 1.286757923662662506e-02 -1.369514316320419312e-01 -1.848508790135383606e-02 1.593903452157974243e-02 5.079789757728576660e-01 2.278354577720165253e-02 5.629189684987068176e-02 -1.758293993771076202e-02 -1.489529013633728027e-02 -2.203844547271728516e+00 2.170931696891784668e-01 1.263307407498359680e-02 3.860740363597869873e-02 -7.197469472885131836e-03 3.726670518517494202e-02 9.458316862583160400e-02 -2.768954336643218994e-01 -8.390037342905998230e-03 9.747771173715591431e-02 3.425259888172149658e-02 1.247151521965861320e-03 -1.028260365128517151e-01 -1.242040246725082397e-01 3.361184522509574890e-02 3.959032520651817322e-02 -6.008271593600511551e-03 9.908323734998703003e-02 2.298052549362182617e+00 -1.563823968172073364e-02 4.029989987611770630e-02 1.209537833929061890e-01 1.459109634160995483e-01 1.773292422294616699e-01 -5.894118174910545349e-02 -4.903878085315227509e-03 -2.508085370063781738e-01 3.112956508994102478e-02 -7.896512001752853394e-02 -3.337565809488296509e-02 1.298047900199890137e-01 -1.036301851272583008e-01 8.212124928832054138e-03 -2.727078460156917572e-02 9.396763890981674194e-02 5.383673310279846191e-01 4.957472980022430420e-01 -1.826123893260955811e-01 -9.070078134536743164e-01 -6.018232088536024094e-04 -7.511293888092041016e-02 -1.730589196085929871e-02 -9.533636271953582764e-02 -8.231650292873382568e-02 -5.422951281070709229e-02 1.363337486982345581e-01 -5.454047024250030518e-02 1.467903256416320801e-01 -3.214531019330024719e-02 -3.378413245081901550e-02 -1.277753263711929321e-01 -2.170544564723968506e-01 1.205180957913398743e-01 -3.558560088276863098e-02 -1.042941287159919739e-01 -2.797457948327064514e-02 -5.532160401344299316e-01 -6.764675676822662354e-02 1.693158507347106934e+00 1.410026252269744873e-01 8.655207604169845581e-02 1.270846247673034668e+00 7.177130877971649170e-02 6.164289265871047974e-02 1.099645197391510010e-01 6.286052614450454712e-02 5.631813034415245056e-02 -4.955635964870452881e-02 -3.287532627582550049e-01 1.203704625368118286e-01 4.133859649300575256e-03 8.283709734678268433e-02 -9.835581481456756592e-02 -3.926918283104896545e-02 9.411668032407760620e-02 1.294941306114196777e-01 1.142078563570976257e-01 3.978807106614112854e-02 1.396969556808471680e-01 -5.612126737833023071e-02 -3.322727978229522705e-01 5.632949247956275940e-02 9.597334265708923340e-02 1.771741360425949097e-02 -3.912852145731449127e-03 1.853672415018081665e-01 -4.365371540188789368e-03 1.004730612039566040e-01 -5.017817765474319458e-02 1.729349978268146515e-02 -6.465230137109756470e-02 -1.702829822897911072e-02 5.692249163985252380e-02 7.007921580225229263e-03 -2.801962941884994507e-02 1.567535549402236938e-01 -1.270898133516311646e-01 3.618772327899932861e-02 4.595267400145530701e-02 -5.187550932168960571e-02 -1.635978221893310547e-01 4.727921262383460999e-02 4.628664255142211914e-01 6.371538341045379639e-02 -1.542709954082965851e-02 2.716498263180255890e-02 -3.503628820180892944e-02 4.606473818421363831e-02 1.880815438926219940e-02 -5.708277225494384766e-01 7.268759887665510178e-03 7.265562564134597778e-02 -5.691097676753997803e-02 -1.062419489026069641e-01 -3.822269290685653687e-02 -4.560939222574234009e-02 -8.417867869138717651e-02 1.719236969947814941e-01 2.124668471515178680e-02 -3.126210346817970276e-02 1.731217056512832642e-01 1.057569831609725952e-01 1.237585023045539856e-01 3.847868740558624268e-02 1.751756668090820312e-02 -5.146332830190658569e-02 -3.060612652916461229e-04 5.189330317080020905e-03 2.765122242271900177e-02 4.897833615541458130e-02 -1.132904365658760071e-02 6.266427785158157349e-02 8.756299316883087158e-02 -1.209048926830291748e-01 2.416072785854339600e-01 9.862110018730163574e-02 3.852067887783050537e-02 1.607482694089412689e-02 2.752134203910827637e-01 -2.669998677447438240e-03 -2.319854021072387695e+00 8.115260303020477295e-02 1.115793287754058838e-01 1.208986416459083557e-01 2.925297804176807404e-02 1.076130196452140808e-01 8.102831244468688965e-01 1.834640502929687500e-01 3.477670997381210327e-02 -1.865829713642597198e-02 -1.170190423727035522e-01 -1.079370081424713135e-01 7.889677770435810089e-03 -1.698660105466842651e-02 -5.354888439178466797e-01 1.438148552551865578e-03 -2.433531545102596283e-02 -6.930383387953042984e-03 -1.963490098714828491e-01 -5.911580752581357956e-03 -1.774211287498474121e+00 -5.192937329411506653e-02 -4.390088841319084167e-02 3.474987577646970749e-03 -2.297448925673961639e-02 -1.207300573587417603e-01 -6.019973754882812500e-02 -9.109294414520263672e-02 -2.332188338041305542e-01 7.044977694749832153e-02 7.042460888624191284e-02 -7.180642336606979370e-02 1.136167049407958984e-01 -2.504141442477703094e-02 2.427140325307846069e-01 3.330502808094024658e-01 8.315180987119674683e-02 -3.021563775837421417e-02 -9.016113728284835815e-02 1.012241542339324951e-01 4.095338284969329834e-02 -4.411552473902702332e-02 -9.909576922655105591e-02 2.978106588125228882e-02 2.845175564289093018e-01 1.599146276712417603e-01 1.085596159100532532e-01 1.231615394353866577e-01 -1.881403028964996338e-01 -3.430981561541557312e-02 -1.812556743621826172e+00 9.575596079230308533e-03 5.491207540035247803e-02 7.327661663293838501e-02 2.545834891498088837e-02 1.197034940123558044e-01 5.769542604684829712e-02 -1.729954034090042114e-01 -7.631225138902664185e-02 1.099017858505249023e-01 -3.858886063098907471e-01 2.271137945353984833e-02 7.627344690263271332e-03 8.019275963306427002e-02 -5.901626870036125183e-02 6.931880116462707520e-02 7.122386991977691650e-02 2.056667394936084747e-02 -7.562702894210815430e-02 -8.720742911100387573e-02 5.935966223478317261e-02 -1.781771332025527954e-02 3.917568624019622803e-01 -3.967607766389846802e-02 -4.884890280663967133e-03 3.179490268230438232e-01 -1.560309994965791702e-02 1.216583922505378723e-01 -9.674581885337829590e-02 8.604539930820465088e-02 4.943986982107162476e-02 -1.160183191299438477e+00 -5.894232541322708130e-02 1.050513796508312225e-02 -6.322949379682540894e-02 -3.797485679388046265e-02 -2.137293815612792969e-01 5.303509905934333801e-02 6.958404183387756348e-02 2.901131212711334229e-01 1.481232699006795883e-02 3.606298863887786865e-01 1.992120623588562012e+00 8.932124823331832886e-02 -9.424789994955062866e-02 7.441274821758270264e-02 6.455715000629425049e-02 -1.685570180416107178e-01 -2.160807512700557709e-02 -2.443524450063705444e-01 1.917732477188110352e+00 -3.135201521217823029e-03 -1.108846589922904968e-01 -4.332435503602027893e-02 1.158628091216087341e-01 1.778985559940338135e-01 1.855169773101806641e+00 1.175144761800765991e-01 -9.865481406450271606e-02 5.662467330694198608e-02 5.038951337337493896e-02 -1.288620531558990479e-01 2.234856598079204559e-02 7.974116504192352295e-02 3.208096697926521301e-02 1.990409493446350098e-01 -6.213924884796142578e-01 1.625971309840679169e-02 1.108048334717750549e-01 2.248704433441162109e-01 -4.145662486553192139e-02 -7.103621363639831543e-01 3.222327232360839844e-01 -2.203637361526489258e-02 -6.957867741584777832e-02 8.175932615995407104e-02 1.498636305332183838e-01 -7.490075379610061646e-02 1.962134381756186485e-03 7.412113994359970093e-02 -8.555299602448940277e-03 -2.085088789463043213e-01 1.359913647174835205e-01 1.076407637447118759e-02 9.856831282377243042e-03 1.501768827438354492e-01 -8.503156155347824097e-02 4.298221170902252197e-01 -1.098750010132789612e-01 -5.259219184517860413e-02 5.579507350921630859e-01 1.624609343707561493e-02 -4.144555889070034027e-03 9.571559727191925049e-02 -2.149970680475234985e-01 -2.510228157043457031e-01 -2.377317994832992554e-01 7.398287951946258545e-02 1.103236526250839233e-01 -8.091641962528228760e-02 4.581035673618316650e-02 5.462973937392234802e-02 -8.436803519725799561e-02
