-1.523915585130453110e-02 1.347889453172683716e-01 -9.912970662117004395e-02 1.210732161998748779e-01 1.688044667243957520e-01 6.972005218267440796e-02 -9.077892452478408813e-02 -3.131049498915672302e-02 -1.087126806378364563e-01 3.170191049575805664e-01 2.104282192885875702e-02 -3.265689359977841377e-03 9.916977584362030029e-02 6.179649010300636292e-02 -7.186350822448730469e-01 3.412222489714622498e-02 -4.182338342070579529e-02 2.241005897521972656e-01 -9.563087485730648041e-03 1.841539703309535980e-02 1.085738539695739746e-01 5.973225086927413940e-02 -5.349380522966384888e-02 4.236152023077011108e-02 -1.246614381670951843e-01 -8.065114170312881470e-02 -1.405619680881500244e-01 1.103093549609184265e-01 3.574259877204895020e-01 4.500429704785346985e-02 3.831565380096435547e-02 -4.736210219562053680e-03 -1.103465165942907333e-02 9.554202854633331299e-02 2.348564192652702332e-02 -9.215059690177440643e-03 -2.086235284805297852e+00 -1.903104037046432495e-02 -8.670790493488311768e-02 6.788878142833709717e-02 -3.902738168835639954e-02 1.297481507062911987e-01 -9.817466884851455688e-02 4.113513976335525513e-02 -1.325127389281988144e-02 1.318299412727355957e+00 7.168767601251602173e-02 -1.034689024090766907e-01 1.506204724311828613e+00 1.208947673439979553e-01 8.253023028373718262e-02 -5.583379268646240234e-01 -1.160218939185142517e-01 -1.715568900108337402e+00 1.300049573183059692e-01 1.130596473813056946e-01 -2.043208479881286621e-02 5.460788309574127197e-02 9.906479716300964355e-02 -5.684201046824455261e-02 4.154350236058235168e-02 1.107651665806770325e-01 3.152533620595932007e-02 6.230382714420557022e-03 -1.718766987323760986e-01 7.538253813982009888e-02 -6.889692693948745728e-02 2.439334616065025330e-02 5.761416628956794739e-03 2.035349309444427490e-01 2.618740871548652649e-02 7.206076383590698242e-02 -4.516775533556938171e-02 -6.451799720525741577e-02 4.854251444339752197e-02 3.366572037339210510e-02 1.599572598934173584e-02 -1.285452544689178467e-01 1.364017724990844727e-01 6.575382500886917114e-02 -2.629423327744007111e-02 5.707326345145702362e-03 -2.588815689086914062e-01 -5.193087831139564514e-02 -6.492751836776733398e-02 -1.138549670577049255e-01 -6.585338152945041656e-03 1.138110235333442688e-01 2.761207148432731628e-02 -8.350649848580360413e-03 -1.403845548629760742e-01 -2.141606062650680542e-02 -6.824651956558227539e-01 8.122818171977996826e-02 -1.130773946642875671e-01 -8.972315788269042969e-01 -4.512071609497070312e-02 -3.911077603697776794e-02 7.996112108230590820e-02 3.919854760169982910e-03 -1.273070126771926880e-01 1.658265829086303711e+00 2.699458003044128418e-01 3.589556738734245300e-02 -3.482204675674438477e+00 9.090733714401721954e-03 2.262319996953010559e-02 -1.500321924686431885e-01 4.602623283863067627e-01 -1.033357009291648865e-01 2.704964019358158112e-02 -1.552949100732803345e-01 6.557110697031021118e-02 8.116417378187179565e-02 1.509696394205093384e-01 1.562658995389938354e-01 7.128133624792098999e-02 -8.255547285079956055e-02 -2.008869946002960205e-01 1.989826932549476624e-02 -9.178861230611801147e-02 1.152028217911720276e-01 6.666292995214462280e-02 -1.517328619956970215e-01 5.208787694573402405e-02 7.334315776824951172e-02 1.117445603013038635e-01 -1.356487721204757690e-01 1.134667918086051941e-01 8.646835684776306152e-01 -1.324914693832397461e-01 2.237220287322998047e+00 5.601689592003822327e-02 -7.992405444383621216e-02 2.029065489768981934e-01 1.686653614044189453e+00 4.344977065920829773e-02 6.199390068650245667e-02 1.240726560354232788e-01 2.628013491630554199e-01 -9.538562595844268799e-02 -6.263513118028640747e-02 -9.570929408073425293e-02 6.790827959775924683e-02 -4.910458251833915710e-02 7.949208468198776245e-02 -4.917644336819648743e-02 -1.390229314565658569e-01 -5.304964631795883179e-02 -1.319903507828712463e-02 6.699188053607940674e-02 -7.310768961906433105e-02 2.230723202228546143e-02 -8.576006442308425903e-02 -1.337063610553741455e-01 3.261327371001243591e-02 2.110331207513809204e-01 -9.368218481540679932e-02 4.762804508209228516e-02 1.280195564031600952e-01 1.691871643066406250e+00 1.731748431921005249e-01 -1.162162423133850098e-01 8.280145376920700073e-02 8.783258497714996338e-02 4.259031265974044800e-03 1.018820926547050476e-01 -1.380925066769123077e-02 -1.466983854770660400e-01 -3.726885020732879639e-01 -2.602239847183227539e-01 1.484908442944288254e-02 1.468568891286849976e-01 6.858474016189575195e-02 8.192531764507293701e-02 9.090089052915573120e-02 -3.991797566413879395e-02 -7.202875800430774689e-03 -2.662843279540538788e-02 -6.525006890296936035e-02 -5.203112959861755371e-02 8.655971288681030273e-02 -1.021077334880828857e-01 -3.738268278539180756e-03 5.382954608649015427e-03 -2.000223100185394287e-02 -2.593327686190605164e-02 2.647373266518115997e-02 -5.483363568782806396e-02 -1.461908314377069473e-02 8.670472353696823120e-02 1.195439696311950684e-01 -1.827410608530044556e-01 -4.880979657173156738e-02 -8.721137046813964844e-02 6.365768145769834518e-03 -9.722710400819778442e-02 1.446790643967688084e-03 9.120307862758636475e-02 8.960066735744476318e-02 1.820805370807647705e-01 1.852196156978607178e-01 -8.737094700336456299e-02 -3.369515016674995422e-02 -1.719045080244541168e-02 1.214267611503601074e-01 -1.051029656082391739e-02 1.530130766332149506e-02 2.774440683424472809e-03 9.609841555356979370e-02 -5.612810328602790833e-02 -1.497453451156616211e-01 1.134088873863220215e+00 -2.426763996481895447e-02 9.287174791097640991e-02 1.003282517194747925e-02 -1.235070545226335526e-02 -1.177241802215576172e-01 1.976108700037002563e-01 -2.455901861190795898e+00 -7.181701064109802246e-02 7.147636264562606812e-03 -1.722528934478759766e-01 1.437770552001893520e-03 1.065623015165328979e-02 -1.470181439071893692e-02 -5.779685825109481812e-02 4.907976686954498291e-01 -4.808198660612106323e-03 3.359693661332130432e-02 2.810696884989738464e-02 2.450048364698886871e-02 2.362633869051933289e-02 -1.987434864044189453e+00 4.487526416778564453e-02 -4.174969345331192017e-02 -2.279225178062915802e-02 -9.547154605388641357e-02 -7.879260927438735962e-02 8.298666030168533325e-02 -3.745772689580917358e-02 1.873924881219863892e-01 6.398093700408935547e-02 -6.811017636209726334e-03 1.848263144493103027e-01 -1.691048294305801392e-01 1.346893906593322754e+00 -2.519651949405670166e-01 -2.068056911230087280e-02 -1.951535642147064209e-01 9.824647754430770874e-02 4.656035080552101135e-02 3.159010708332061768e-01 1.185273304581642151e-01 -4.940815642476081848e-02 1.837888360023498535e-01 4.336958006024360657e-02 3.204747289419174194e-02 9.503136575222015381e-02 1.058606654405593872e-01 -2.058779299259185791e-01 -1.754577606916427612e-01 -1.154561862349510193e-01 -6.578550338745117188e-01 -7.406687736511230469e-02 3.788350149989128113e-03 5.175578221678733826e-02 1.050968170166015625e-01 5.602003261446952820e-02 5.090612918138504028e-02 6.766648590564727783e-02 -1.156745925545692444e-01 1.251253485679626465e-02 -7.800836116075515747e-02 1.972814835608005524e-02 2.808545529842376709e-02 -2.523604966700077057e-02 -7.476835977286100388e-03 -5.128533020615577698e-02 4.474211856722831726e-02 -3.621089085936546326e-02 7.667193654924631119e-03 1.450403630733489990e-01 -6.182573735713958740e-02 -2.883300883695483208e-03 5.424294248223304749e-02 9.629869833588600159e-03 -1.322270631790161133e-01 -5.746864080429077148e-01 -1.083372831344604492e+00 5.871279165148735046e-02 -5.583711341023445129e-02 1.720369011163711548e-01 -7.961863279342651367e-02 -7.241833955049514771e-02 -2.067730724811553955e-01 -1.150371283292770386e-01 -3.570915386080741882e-02 -7.467240095138549805e-02 6.810041517019271851e-02 7.443245500326156616e-02 -1.247512176632881165e-01 1.539673656225204468e-01 1.017271652817726135e-01 -1.739745616912841797e+00 1.425018310546875000e-01 7.403820753097534180e-02 -5.475845560431480408e-02 -3.636915236711502075e-02 1.544986069202423096e-01 -6.901717185974121094e-02 1.395718306303024292e-01 -1.751260906457901001e-01 -9.765041619539260864e-02 -6.815779954195022583e-03 1.364625524729490280e-02 -3.728360310196876526e-02 -1.153623498976230621e-02 5.904949828982353210e-02 2.543472126126289368e-02 2.445857599377632141e-02 -2.102035522460937500e+00 -1.172320079058408737e-02 -1.573415994644165039e-01 -9.428007900714874268e-02 -6.256029754877090454e-02 1.425701379776000977e-02 5.854145437479019165e-02 -4.599878564476966858e-02 2.287149578332901001e-01 1.158206071704626083e-02 2.431309968233108521e-01 -7.358600944280624390e-02 -6.901317834854125977e-02 -4.284203425049781799e-02 5.366073921322822571e-02 -4.320804029703140259e-02 6.636179052293300629e-03 -1.073685660958290100e-02 1.404166966676712036e-02 -2.121956273913383484e-02 8.845122903585433960e-02 5.541906505823135376e-02 -2.867896854877471924e-02 1.195308119058609009e-01 1.960468478500843048e-02 -1.307450085878372192e-01 -8.427203446626663208e-02 1.316090077161788940e-01 5.158067215234041214e-03 -5.699536576867103577e-02 3.796878457069396973e-02 -5.507520437240600586e-01 -1.032224744558334351e-01 9.854874759912490845e-02 -2.206178754568099976e-01 9.674071334302425385e-03 3.232594206929206848e-02 -3.891305997967720032e-02 7.793020457029342651e-02 -6.151146441698074341e-02 1.478491425514221191e-01 8.895457535982131958e-02 8.059042505919933319e-03 1.701163351535797119e-01 8.063228428363800049e-02 -2.869055606424808502e-02 1.942224502563476562e-01 7.923863083124160767e-02 -1.746594207361340523e-04 1.098686903715133667e-01 6.915806978940963745e-02 -1.774284094572067261e-01 -1.392252594232559204e-01 1.928726434707641602e-01 -2.234030328691005707e-02 -1.346493214368820190e-01 -1.285654604434967041e-01 -1.113910228013992310e-01 -7.185035385191440582e-03 8.278733491897583008e-02 -7.592780888080596924e-02 -1.641080975532531738e+00 6.493496894836425781e-02 2.878698408603668213e-01 -1.521798372268676758e+00 -2.547654695808887482e-02 -8.275330811738967896e-02 -9.193062037229537964e-02 1.860266365110874176e-02 3.025148250162601471e-02 2.315160818397998810e-02 5.230605602264404297e-02 -5.372519046068191528e-02 2.234387584030628204e-02 -1.344480663537979126e-01 6.355872005224227905e-02 -6.543844472616910934e-03 1.593924686312675476e-02 8.813585340976715088e-02 9.524241834878921509e-02 -1.782876700162887573e-01 1.176991239190101624e-01 4.035332798957824707e-02 -6.294908933341503143e-03 -1.879263877868652344e+00 1.611094623804092407e-01 6.997489184141159058e-02 1.520791370421648026e-02 3.096038242802023888e-03 1.302628070116043091e-01 -1.418892890214920044e-01 1.680241972208023071e-01 -7.497876882553100586e-02 1.118935924023389816e-02 -6.096743419766426086e-02 -2.776985466480255127e-01 -1.169042475521564484e-02 5.253564938902854919e-02 -5.777598619461059570e-01 1.843368709087371826e-01 5.236777663230895996e-01 5.563874915242195129e-02 -2.257523685693740845e-01 -1.262423489242792130e-02 2.431852743029594421e-02 2.157270908355712891e-03 -2.118792943656444550e-02 -7.431828975677490234e-02 1.896967738866806030e-02 -7.830120623111724854e-02 -1.707019656896591187e-01 -8.927728980779647827e-02 -1.448632597923278809e+00 -2.016018152236938477e+00 1.202540993690490723e+00 -5.497652664780616760e-02 -4.367830976843833923e-02 -6.980732828378677368e-02 2.064022779464721680e+00 1.625673323869705200e-01 1.523424088954925537e-01 -1.089367941021919250e-01 -2.264541387557983398e-02 2.485920935869216919e-01 3.365437030792236328e+00 2.681723535060882568e-01 -3.294611349701881409e-02 1.628665566444396973e+00 -1.064316183328628540e-01 2.053687274456024170e-01 -2.232609689235687256e-01 -1.804987668991088867e+00 -2.141225814819335938e+00 -6.844851374626159668e-02 -1.138374730944633484e-01 7.141280174255371094e-02 -8.412904292345046997e-02 4.515497758984565735e-02 6.519098579883575439e-02 8.211645483970642090e-02 -7.577301561832427979e-02 4.884116724133491516e-02 -1.242027878761291504e-01 7.295089960098266602e-02 -1.925223618745803833e-01 1.262873318046331406e-02 -1.497239917516708374e-01 -4.088857397437095642e-02 3.679209575057029724e-02 4.942100644111633301e-01 3.180024772882461548e-02 5.809397250413894653e-02 -3.923698514699935913e-02 1.864423975348472595e-02 -2.267078161239624023e+00 1.941047161817550659e-01 2.171881124377250671e-02 4.928009957075119019e-02 4.949388280510902405e-02 3.240335360169410706e-02 3.746404498815536499e-02 -2.985394299030303955e-01 -3.789181634783744812e-02 5.998491123318672180e-02 3.680051770061254501e-03 1.396956946700811386e-02 -1.080248057842254639e-01 -8.442603796720504761e-02 5.899197608232498169e-02 4.516055434942245483e-02 -1.578401960432529449e-02 1.097764223814010620e-01 2.340926170349121094e+00 -1.616493985056877136e-02 2.061486057937145233e-02 1.007296070456504822e-01 1.514803916215896606e-01 1.208439990878105164e-01 -7.101088017225265503e-02 -1.574912294745445251e-02 -2.438084781169891357e-01 3.736055642366409302e-02 -5.071111395955085754e-02 -1.621012017130851746e-02 9.755241125822067261e-02 -1.318786591291427612e-01 3.735443949699401855e-02 -2.443309349473565817e-04 7.332988083362579346e-02 5.708225369453430176e-01 4.976579844951629639e-01 -1.751392632722854614e-01 -9.948253035545349121e-01 1.675655320286750793e-02 -6.275849044322967529e-02 -1.847947202622890472e-02 -1.199230700731277466e-01 -5.437396466732025146e-02 -5.242501199245452881e-02 2.013472318649291992e-01 -1.109505444765090942e-01 1.171830445528030396e-01 -6.264781206846237183e-02 -1.851592771708965302e-02 -1.526405960321426392e-01 -1.850337982177734375e-01 8.753930777311325073e-02 -2.246030047535896301e-02 -9.207405149936676025e-02 -4.080131277441978455e-02 -5.749089717864990234e-01 -6.178637221455574036e-02 1.715020418167114258e+00 1.443265676498413086e-01 1.208617910742759705e-01 1.273179292678833008e+00 8.763855695724487305e-02 2.789792791008949280e-02 7.678470760583877563e-02 6.001648306846618652e-02 2.408844791352748871e-02 3.328009322285652161e-02 -2.745956480503082275e-01 9.359690546989440918e-02 1.091701723635196686e-02 8.754111081361770630e-02 -1.200981661677360535e-01 -6.836699321866035461e-03 7.044655084609985352e-02 1.368564665317535400e-01 9.907470643520355225e-02 5.465083941817283630e-02 9.408097714185714722e-02 -5.385539680719375610e-02 -3.108517527580261230e-01 6.922027468681335449e-02 5.343005433678627014e-02 3.347317501902580261e-02 8.492566645145416260e-03 1.289673298597335815e-01 9.718601591885089874e-03 9.351417422294616699e-02 -5.237965658307075500e-02 3.068293153773993254e-04 -1.085833385586738586e-01 1.223073486471548676e-04 8.526515960693359375e-02 -2.261807443574070930e-03 -7.081067562103271484e-02 1.396930664777755737e-01 -1.011651828885078430e-01 6.064398214221000671e-02 -2.588759234640747309e-04 -2.708412334322929382e-02 -1.623132973909378052e-01 1.143920700997114182e-02 4.559540152549743652e-01 2.099484391510486603e-02 4.084021225571632385e-02 -5.850335955619812012e-02 -2.343991212546825409e-02 1.394145935773849487e-02 5.284499842673540115e-03 -5.870441794395446777e-01 -6.395746022462844849e-02 9.320539236068725586e-02 -2.884792722761631012e-02 -1.043949201703071594e-01 -3.820798546075820923e-02 -2.549191378057003021e-02 -5.035914480686187744e-02 1.832628846168518066e-01 3.807525709271430969e-02 -4.553556814789772034e-02 1.559774428606033325e-01 4.569708928465843201e-02 1.258058845996856689e-01 8.135575056076049805e-02 3.337161988019943237e-02 -5.231322348117828369e-02 -2.665337733924388885e-02 1.044446323066949844e-02 7.860431820154190063e-02 5.021128058433532715e-02 1.095967832952737808e-02 8.799939602613449097e-02 6.178448349237442017e-02 -1.127017959952354431e-01 2.373443245887756348e-01 9.113115072250366211e-02 5.482505261898040771e-02 -2.015851787291467190e-04 2.683530747890472412e-01 -4.496987536549568176e-02 -2.319830894470214844e+00 1.188515648245811462e-01 1.682689487934112549e-01 1.060446053743362427e-01 -1.489284727722406387e-02 1.276126801967620850e-01 7.761108279228210449e-01 1.643559336662292480e-01 2.445130422711372375e-02 -1.521037239581346512e-02 -1.020194441080093384e-01 -8.798059076070785522e-02 1.826916076242923737e-02 -4.259292036294937134e-02 -5.467546582221984863e-01 1.937466301023960114e-02 2.606639079749584198e-02 3.970988839864730835e-02 -1.502761691808700562e-01 3.403596952557563782e-02 -1.816277265548706055e+00 -7.664579153060913086e-02 -2.873842418193817139e-02 2.081211283802986145e-02 4.874250292778015137e-02 -1.409690231084823608e-01 -2.677947469055652618e-02 -7.702922075986862183e-02 -2.460239082574844360e-01 6.428425014019012451e-02 7.887616008520126343e-02 -1.004013493657112122e-01 9.620512276887893677e-02 -4.151210933923721313e-02 2.930732071399688721e-01 3.200654387474060059e-01 8.483334630727767944e-02 1.478123664855957031e-02 -5.530880391597747803e-02 5.235242471098899841e-02 8.058302104473114014e-02 -2.595942653715610504e-02 -5.816898494958877563e-02 8.122143894433975220e-02 3.165990710258483887e-01 1.395449340343475342e-01 1.011324897408485413e-01 1.431447267532348633e-01 -2.062831073999404907e-01 -4.399542137980461121e-02 -1.850413799285888672e+00 5.162860080599784851e-02 2.229477837681770325e-02 6.636089086532592773e-02 7.660262635909020901e-04 1.786114424467086792e-01 2.363094501197338104e-02 -1.527769267559051514e-01 -7.607263326644897461e-02 1.269238591194152832e-01 -3.842081427574157715e-01 1.378610823303461075e-02 3.143006563186645508e-02 4.583292454481124878e-02 -5.773092433810234070e-02 3.209652006626129150e-02 6.593348830938339233e-02 1.975294575095176697e-02 -5.379439890384674072e-02 -6.516575068235397339e-02 8.190363645553588867e-03 -2.945327945053577423e-02 4.369564354419708252e-01 -6.230465322732925415e-02 -2.512519434094429016e-02 3.187600970268249512e-01 -5.071548372507095337e-02 8.157394081354141235e-02 -9.429420530796051025e-02 7.461615651845932007e-02 3.288792073726654053e-02 -1.176060557365417480e+00 -8.505275845527648926e-02 -6.455830880440771580e-04 -4.201867431402206421e-02 -4.415526613593101501e-02 -2.081277519464492798e-01 7.625184208154678345e-02 6.226184591650962830e-02 3.001375496387481689e-01 -1.058524567633867264e-02 3.653019070625305176e-01 2.038133382797241211e+00 8.601342141628265381e-02 -1.273006051778793335e-01 6.515110284090042114e-02 3.872869163751602173e-02 -1.424736082553863525e-01 4.716654494404792786e-02 -2.263400405645370483e-01 1.956757068634033203e+00 -4.211653769016265869e-02 -6.045045703649520874e-02 -7.138291001319885254e-02 1.586728990077972412e-01 1.755913645029067993e-01 1.927715182304382324e+00 1.553190946578979492e-01 -6.633062660694122314e-02 5.247094482183456421e-02 2.440680377185344696e-02 -8.246345818042755127e-02 -1.553920842707157135e-02 1.335969716310501099e-01 2.901179902255535126e-02 2.213526666164398193e-01 -6.043203473091125488e-01 2.055779471993446350e-02 1.111144423484802246e-01 2.153259962797164917e-01 -5.169275682419538498e-03 -7.213882207870483398e-01 2.788676023483276367e-01 -6.527020782232284546e-02 -3.559486195445060730e-02 1.016220524907112122e-01 2.088529765605926514e-01 -6.138102337718009949e-02 6.389119662344455719e-03 1.147575452923774719e-01 -4.773755744099617004e-02 -2.201029360294342041e-01 9.928535670042037964e-02 -3.567538806237280369e-04 -1.633463054895401001e-02 1.129803657531738281e-01 -8.111163973808288574e-02 4.472898840904235840e-01 -7.460162043571472168e-02 -4.702103137969970703e-02 5.674784779548645020e-01 2.381449751555919647e-02 3.357706964015960693e-02 7.466339319944381714e-02 -2.079731076955795288e-01 -1.747997552156448364e-01 -2.056917101144790649e-01 7.974419742822647095e-02 8.217070251703262329e-02 -1.338268667459487915e-01 7.745604217052459717e-02 6.632906198501586914e-02 -6.686066836118698120e-02
