1.295798830687999725e-02 1.964558660984039307e-01 -3.574781492352485657e-02 1.828752011060714722e-01 2.088688313961029053e-01 -1.550533343106508255e-02 -1.351594477891921997e-01 -4.347677156329154968e-02 -8.755847811698913574e-02 3.234153389930725098e-01 -2.146414481103420258e-02 -3.740173950791358948e-02 2.347356081008911133e-01 6.580394506454467773e-02 -7.638390660285949707e-01 7.577603682875633240e-04 -7.042221724987030029e-02 1.950736194849014282e-01 -3.899546712636947632e-02 2.465216442942619324e-02 1.052701249718666077e-01 7.024370133876800537e-02 -4.145837947726249695e-02 -3.801228478550910950e-02 -1.461613774299621582e-01 -8.755844086408615112e-02 -1.562135964632034302e-01 1.442044824361801147e-01 4.583597779273986816e-01 7.255406677722930908e-02 8.287402801215648651e-03 -2.557894028723239899e-02 6.935626268386840820e-03 7.969795167446136475e-02 4.667462408542633057e-02 -3.960741742048412561e-04 -1.961843848228454590e+00 2.378866448998451233e-02 -6.712464243173599243e-02 1.290106493979692459e-02 1.520802360028028488e-02 1.265731602907180786e-01 -5.835100263357162476e-02 4.096355661749839783e-02 2.637454867362976074e-02 1.216154456138610840e+00 7.461578398942947388e-02 -6.831021606922149658e-02 1.422787427902221680e+00 2.006926015019416809e-02 1.024685949087142944e-01 -5.150188207626342773e-01 -1.235356107354164124e-01 -1.664011716842651367e+00 1.100182980298995972e-01 1.110178977251052856e-01 -1.832205057144165039e-02 9.656742215156555176e-02 7.184441387653350830e-02 -9.660907089710235596e-02 5.240993946790695190e-02 1.128184050321578979e-01 9.792785346508026123e-02 4.004488699138164520e-03 -2.112763226032257080e-01 4.226916283369064331e-02 -1.034518629312515259e-01 1.013498678803443909e-01 9.679997339844703674e-03 1.952815800905227661e-01 2.620273269712924957e-02 1.266110986471176147e-01 -3.785149008035659790e-02 -9.226743131875991821e-02 1.800253638066351414e-03 3.064736723899841309e-03 4.792224988341331482e-02 -1.361559778451919556e-01 1.577434539794921875e-01 7.236222922801971436e-02 2.384986355900764465e-02 -5.105440691113471985e-02 -2.329758703708648682e-01 -8.915024995803833008e-02 -9.968208521604537964e-02 -1.115775108337402344e-01 -2.125899866223335266e-02 8.287989348173141479e-02 -1.173162460327148438e-02 -3.319199010729789734e-02 -9.870092570781707764e-02 5.085301399230957031e-02 -6.114022135734558105e-01 1.148449778556823730e-01 -9.779177606105804443e-02 -7.877507209777832031e-01 -7.229075580835342407e-02 -1.010236144065856934e-01 -2.613225951790809631e-04 1.327728666365146637e-02 -1.410143673419952393e-01 1.501622915267944336e+00 3.026353120803833008e-01 9.060410410165786743e-02 -3.359728336334228516e+00 2.693812921643257141e-02 1.178951710462570190e-01 -1.676621139049530029e-01 4.437464773654937744e-01 -1.260325014591217041e-01 5.342146754264831543e-02 -1.675841659307479858e-01 7.528464496135711670e-02 1.440697014331817627e-01 2.005504071712493896e-01 1.908429414033889771e-01 3.472544997930526733e-02 -5.052286386489868164e-02 -1.607708036899566650e-01 4.646788910031318665e-02 -1.195464134216308594e-01 1.077128648757934570e-01 3.268506377935409546e-02 -1.723330616950988770e-01 5.668169260025024414e-02 7.334951311349868774e-02 1.834696680307388306e-01 -9.888880699872970581e-02 1.449893414974212646e-01 7.807689309120178223e-01 -1.629882007837295532e-01 2.182168483734130859e+00 4.880433843936771154e-04 -7.757151871919631958e-02 2.647435069084167480e-01 1.566152334213256836e+00 8.251726627349853516e-02 1.215368658304214478e-01 1.735887825489044189e-01 2.402847558259963989e-01 -8.191240578889846802e-02 -7.585926353931427002e-02 -2.817334234714508057e-02 6.930646300315856934e-02 -2.327369339764118195e-02 1.024875789880752563e-01 -6.371738016605377197e-02 -2.248320281505584717e-01 2.559127053245902061e-03 -4.773396253585815430e-02 7.683662325143814087e-02 -6.058766692876815796e-02 -1.874000951647758484e-02 -7.198205590248107910e-02 -1.016772240400314331e-01 4.287014529109001160e-02 1.649833470582962036e-01 -6.371816247701644897e-02 7.880054414272308350e-02 9.368933737277984619e-02 1.630889654159545898e+00 2.027080357074737549e-01 -6.687732040882110596e-02 1.168534383177757263e-01 1.189825683832168579e-01 -4.771941900253295898e-02 8.567684888839721680e-02 -8.157666027545928955e-02 -1.958610266447067261e-01 -3.770117163658142090e-01 -2.536447048187255859e-01 6.142515689134597778e-02 2.198361605405807495e-01 6.495718657970428467e-02 9.421496093273162842e-02 7.616553455591201782e-02 -5.512467026710510254e-02 3.825129475444555283e-03 -6.263871490955352783e-02 -1.091217249631881714e-01 -2.572114206850528717e-02 9.818860143423080444e-02 -5.298486351966857910e-02 5.654316022992134094e-02 -4.635191056877374649e-03 -2.272808179259300232e-02 -2.972859144210815430e-02 6.540093570947647095e-03 -4.632823541760444641e-02 5.676960106939077377e-03 3.687911480665206909e-02 6.617616117000579834e-02 -2.120045125484466553e-01 -7.027481496334075928e-02 -1.231581717729568481e-01 -3.571970388293266296e-02 -1.636778116226196289e-01 7.003766298294067383e-02 1.083782464265823364e-01 1.852478645741939545e-02 2.086729109287261963e-01 1.041067093610763550e-01 -5.780164524912834167e-02 -5.184546858072280884e-02 5.220590392127633095e-04 4.479525238275527954e-02 -5.125319957733154297e-02 3.898415714502334595e-02 -1.078583858907222748e-02 9.357314556837081909e-02 -6.864082813262939453e-02 -2.032684534788131714e-01 1.031683802604675293e+00 1.763280108571052551e-02 8.601463586091995239e-02 3.684462979435920715e-02 7.007630169391632080e-02 -1.134227514266967773e-01 1.817938387393951416e-01 -2.410783290863037109e+00 -7.208932191133499146e-02 2.744319476187229156e-02 -2.331385910511016846e-01 1.145050395280122757e-02 6.869169883430004120e-03 -7.001851499080657959e-02 -9.536190330982208252e-02 4.194843173027038574e-01 1.053057163953781128e-01 5.254976823925971985e-02 -3.173504397273063660e-02 2.240852825343608856e-02 2.537212893366813660e-02 -1.902986884117126465e+00 4.390033334493637085e-02 -5.109189078211784363e-02 -5.295800045132637024e-02 -1.543080806732177734e-01 -1.699819862842559814e-01 1.826227009296417236e-01 -1.360140042379498482e-03 2.562511563301086426e-01 3.157979995012283325e-02 -3.569722920656204224e-02 2.341233491897583008e-01 -1.358208805322647095e-01 1.253459453582763672e+00 -2.349366247653961182e-01 -1.908175274729728699e-02 -2.462009638547897339e-01 9.082977473735809326e-02 -1.334123127162456512e-02 3.224533200263977051e-01 1.383637040853500366e-01 -9.318955242633819580e-02 2.628320157527923584e-01 5.226312950253486633e-02 3.690831735730171204e-02 1.331659257411956787e-01 1.392509639263153076e-01 -1.981354653835296631e-01 -1.227059960365295410e-01 -1.359758079051971436e-01 -6.898522973060607910e-01 -9.110863506793975830e-02 -3.661299869418144226e-02 -7.912659086287021637e-03 1.344402730464935303e-01 1.528284102678298950e-01 4.697945713996887207e-02 4.749593883752822876e-02 -1.276733577251434326e-01 3.135757893323898315e-02 -8.623030036687850952e-02 5.085618048906326294e-02 4.547136835753917694e-03 -4.536410048604011536e-02 -2.715826407074928284e-02 -1.488957852125167847e-01 3.570627421140670776e-02 -1.191341653466224670e-01 -1.287808269262313843e-02 2.197063267230987549e-01 -1.348254233598709106e-01 6.419599056243896484e-02 9.764048457145690918e-02 5.540631338953971863e-02 -9.992224723100662231e-02 -5.362110733985900879e-01 -9.674186706542968750e-01 8.014576137065887451e-02 -4.399010539054870605e-02 2.043891251087188721e-01 -1.230937466025352478e-01 -8.769769966602325439e-02 -1.962897032499313354e-01 -9.309899061918258667e-02 -9.862751513719558716e-02 2.120590023696422577e-02 6.822438538074493408e-02 7.075262069702148438e-02 -1.317233145236968994e-01 8.364676684141159058e-02 5.950659513473510742e-02 -1.716802835464477539e+00 1.329900324344635010e-01 9.289996698498725891e-03 -3.094023093581199646e-02 1.210299786180257797e-02 1.332183331251144409e-01 -1.419222652912139893e-01 1.464611887931823730e-01 -1.944667100906372070e-01 -5.628042295575141907e-02 -2.626927755773067474e-02 3.020781278610229492e-02 -6.421907246112823486e-02 -8.075305819511413574e-02 6.417794618755578995e-03 3.497300669550895691e-02 4.655855707824230194e-03 -2.033852100372314453e+00 -3.676482290029525757e-02 -1.326489895582199097e-01 -5.658593773841857910e-02 -1.361597925424575806e-01 4.484539106488227844e-02 4.846943542361259460e-02 1.241972763091325760e-02 2.983213365077972412e-01 1.314412802457809448e-01 3.663561940193176270e-01 -5.640884116291999817e-02 -5.828034132719039917e-02 -4.477474093437194824e-02 1.379161477088928223e-01 -1.633945852518081665e-02 2.938045561313629150e-02 -8.411177247762680054e-02 2.334864251315593719e-02 6.777906417846679688e-02 1.080913394689559937e-01 1.134064421057701111e-01 -1.261688955128192902e-02 1.746989786624908447e-01 2.911057323217391968e-03 -1.164861321449279785e-01 -9.433128684759140015e-02 1.604729741811752319e-01 3.779068961739540100e-02 -5.018656142055988312e-03 1.384115545079112053e-03 -5.216730833053588867e-01 -2.222480326890945435e-01 1.263357698917388916e-01 -2.610620856285095215e-01 2.269280329346656799e-02 9.983569383621215820e-02 -5.220727249979972839e-02 1.012499704957008362e-01 -3.065499663352966309e-02 2.063022851943969727e-01 1.356920152902603149e-01 3.107561729848384857e-02 2.034279108047485352e-01 9.938913583755493164e-02 -4.843100160360336304e-02 2.285430133342742920e-01 7.232651859521865845e-02 1.898622489534318447e-03 7.830028235912322998e-02 3.388576582074165344e-02 -2.031999379396438599e-01 -1.502543408423662186e-02 2.100294828414916992e-01 -5.503122135996818542e-02 -1.553845405578613281e-01 -1.605685241520404816e-02 -1.083875074982643127e-01 8.845651522278785706e-03 4.651083052158355713e-02 -5.054488033056259155e-02 -1.623990058898925781e+00 1.550573669373989105e-02 2.543927133083343506e-01 -1.460769295692443848e+00 -4.423346370458602905e-02 -4.382793232798576355e-02 -1.111207455396652222e-01 5.117604136466979980e-02 2.610936202108860016e-02 4.308807104825973511e-02 5.962785333395004272e-02 -8.036904036998748779e-02 4.245373234152793884e-02 -1.673177182674407959e-01 6.756784766912460327e-02 2.410039538517594337e-03 1.209425646811723709e-02 1.643997579813003540e-01 1.051489710807800293e-01 -1.658367365598678589e-01 4.801998659968376160e-02 4.220141470432281494e-02 -1.415928942151367664e-03 -1.785448431968688965e+00 1.838254630565643311e-01 4.002859815955162048e-02 4.519400000572204590e-02 2.974449098110198975e-02 1.421825587749481201e-01 -2.111721038818359375e-01 1.573886275291442871e-01 -1.717117130756378174e-01 6.935576908290386200e-03 -7.906879484653472900e-02 -3.389391601085662842e-01 -3.154052421450614929e-02 3.184852376580238342e-02 -5.908856391906738281e-01 1.878459006547927856e-01 4.903620779514312744e-01 -1.560129784047603607e-02 -1.973597705364227295e-01 3.998912125825881958e-02 6.339770555496215820e-02 -3.223539143800735474e-02 -1.171420048922300339e-02 -5.617509409785270691e-02 1.979709044098854065e-02 -3.186496347188949585e-02 -2.249400317668914795e-01 -7.838223874568939209e-02 -1.362564325332641602e+00 -1.946463823318481445e+00 1.197000145912170410e+00 -1.162057667970657349e-01 8.464396232739090919e-04 -8.003330230712890625e-02 1.994353652000427246e+00 1.537827700376510620e-01 1.543786972761154175e-01 -1.025037541985511780e-01 -6.916225701570510864e-02 2.689840495586395264e-01 3.300705671310424805e+00 2.816532254219055176e-01 -6.478387117385864258e-02 1.508399248123168945e+00 -1.534909904003143311e-01 1.787938773632049561e-01 -1.936468183994293213e-01 -1.750929117202758789e+00 -1.992645859718322754e+00 -8.853051066398620605e-02 -8.315205574035644531e-02 -4.764723032712936401e-02 -1.305911093950271606e-01 7.340383529663085938e-02 5.383295565843582153e-02 7.481344789266586304e-02 -9.750793874263763428e-02 5.836251378059387207e-02 -1.182076483964920044e-01 9.467691183090209961e-02 -2.124080657958984375e-01 2.247492410242557526e-02 -1.131396144628524780e-01 -3.304332494735717773e-02 6.737968418747186661e-03 4.737266600131988525e-01 2.818568982183933258e-02 4.599943011999130249e-02 -3.569065779447555542e-02 -6.368368864059448242e-03 -2.134150266647338867e+00 2.077011317014694214e-01 -1.744684576988220215e-02 9.442718699574470520e-03 3.496787277981638908e-03 1.035610679537057877e-02 1.342930048704147339e-01 -2.479995042085647583e-01 -2.842370886355638504e-03 9.059138596057891846e-02 1.651081070303916931e-02 -1.793276146054267883e-02 -5.660142377018928528e-02 -1.674934327602386475e-01 1.369147934019565582e-02 5.417720600962638855e-02 -3.251522779464721680e-02 1.454868614673614502e-01 2.206244707107543945e+00 -6.583493086509406567e-04 4.340381175279617310e-02 4.754737019538879395e-02 1.070272177457809448e-01 1.610179394483566284e-01 2.354708034545183182e-03 -1.053152955137193203e-03 -2.304917573928833008e-01 4.067147523164749146e-02 -5.546002835035324097e-02 -2.231392636895179749e-02 1.313539445400238037e-01 -6.044455245137214661e-02 3.071657847613096237e-03 4.645635373890399933e-03 1.007445454597473145e-01 5.335099697113037109e-01 4.381318688392639160e-01 -1.477389335632324219e-01 -9.326658248901367188e-01 -1.094290334731340408e-02 -1.426748931407928467e-01 -4.509527608752250671e-02 -6.031379103660583496e-02 -2.382908388972282410e-02 -9.352946281433105469e-02 1.205838695168495178e-01 -6.622282415628433228e-02 1.420921087265014648e-01 7.081524468958377838e-03 1.056427508592605591e-02 -1.891113668680191040e-01 -2.332634478807449341e-01 1.488308608531951904e-01 2.695817127823829651e-02 -1.308354288339614868e-01 -3.814001102000474930e-03 -5.534769296646118164e-01 -6.362701207399368286e-02 1.639206528663635254e+00 1.409909874200820923e-01 1.202767863869667053e-01 1.284192681312561035e+00 4.468172416090965271e-02 1.242584213614463806e-01 9.372726082801818848e-02 6.487282365560531616e-02 6.108963489532470703e-02 -3.757044672966003418e-02 -2.950217127799987793e-01 9.151390194892883301e-02 -4.534580931067466736e-02 3.712990134954452515e-02 -7.905395328998565674e-02 -2.639637561514973640e-03 3.450423851609230042e-02 1.519499272108078003e-01 1.073930487036705017e-01 2.233928628265857697e-02 1.602923423051834106e-01 -4.071731492877006531e-02 -3.281061053276062012e-01 6.560439616441726685e-02 7.875764369964599609e-02 -1.391727942973375320e-02 -3.592770546674728394e-03 1.624542325735092163e-01 -1.299643237143754959e-02 1.427037864923477173e-01 -3.377493470907211304e-02 5.706497281789779663e-02 -8.372133970260620117e-02 -5.727235600352287292e-02 6.732913851737976074e-02 -2.287671435624361038e-03 -3.803234547376632690e-02 1.301577389240264893e-01 -1.257372647523880005e-01 -1.251932233572006226e-02 3.914054483175277710e-02 -2.164405770599842072e-02 -1.707894951105117798e-01 8.847080171108245850e-02 4.383711814880371094e-01 3.345900028944015503e-02 -1.361621171236038208e-02 1.796161755919456482e-02 -1.350123248994350433e-02 3.827244788408279419e-02 2.666315063834190369e-02 -5.695058703422546387e-01 6.301536411046981812e-02 1.112505793571472168e-01 -1.249565975740551949e-03 -4.235649853944778442e-02 -2.367498353123664856e-02 -3.105377778410911560e-02 -6.624552607536315918e-02 1.497868746519088745e-01 1.523219235241413116e-02 -3.632546961307525635e-02 1.415317207574844360e-01 9.894853830337524414e-02 1.220604032278060913e-01 3.343036770820617676e-02 -1.368522061966359615e-03 -5.624830722808837891e-02 -3.035809472203254700e-02 -3.426593495532870293e-03 3.407742083072662354e-02 3.328926488757133484e-02 1.876232400536537170e-02 7.244177162647247314e-02 1.063099876046180725e-01 -9.463895857334136963e-02 2.596830427646636963e-01 9.727837145328521729e-02 1.754865981638431549e-02 3.024571575224399567e-02 2.628559470176696777e-01 4.189174505881965160e-04 -2.292604207992553711e+00 5.119903013110160828e-02 6.410555541515350342e-02 9.951681643724441528e-02 7.200793921947479248e-02 1.247951984405517578e-01 7.802180051803588867e-01 2.118225991725921631e-01 1.823356933891773224e-02 2.083109319210052490e-02 -1.000999063253402710e-01 -1.049363240599632263e-01 1.642358489334583282e-02 -5.021436884999275208e-02 -5.438517928123474121e-01 9.978411719202995300e-03 -3.263030201196670532e-02 5.607826751656830311e-04 -1.953519582748413086e-01 8.607798255980014801e-03 -1.723966836929321289e+00 -2.205590531229972839e-02 -5.113816261291503906e-02 7.536976598203182220e-03 -1.673194579780101776e-02 -1.150169968605041504e-01 -2.046668902039527893e-02 -3.106446191668510437e-02 -2.607563138008117676e-01 6.877826154232025146e-02 5.251967161893844604e-02 -1.173660606145858765e-01 9.404091536998748779e-02 1.222780160605907440e-02 2.569838762283325195e-01 3.587910234928131104e-01 8.447056263685226440e-02 -2.948605641722679138e-02 -1.299007982015609741e-01 9.239680320024490356e-02 4.369389265775680542e-02 -2.474409900605678558e-02 -1.133059859275817871e-01 2.503356896340847015e-02 2.629619538784027100e-01 1.736007779836654663e-01 1.574234664440155029e-01 1.161216720938682556e-01 -1.467629373073577881e-01 -4.505670443177223206e-02 -1.751945137977600098e+00 1.961867138743400574e-02 5.793932825326919556e-02 9.402513504028320312e-02 4.481493681669235229e-02 1.189688891172409058e-01 2.527482248842716217e-02 -1.693993061780929565e-01 -7.223208248615264893e-02 9.026569128036499023e-02 -3.800550103187561035e-01 3.795629739761352539e-02 7.143365219235420227e-04 8.413065224885940552e-02 -3.446371853351593018e-02 4.003608971834182739e-02 6.705088168382644653e-02 4.215929284691810608e-02 -5.703163146972656250e-02 -1.127857118844985962e-01 4.164870828390121460e-02 -2.536009810864925385e-02 3.806778788566589355e-01 -2.929961122572422028e-02 1.480505615472793579e-02 3.151105344295501709e-01 2.048065140843391418e-02 1.365710198879241943e-01 -8.749620616436004639e-02 7.169798761606216431e-02 1.874165050685405731e-02 -1.141277432441711426e+00 -3.692255541682243347e-02 4.701100755482912064e-03 -2.429807558655738831e-02 -5.215822253376245499e-03 -2.053121328353881836e-01 4.923830181360244751e-02 9.192755073308944702e-02 3.029570281505584717e-01 1.865075901150703430e-02 3.907522857189178467e-01 1.914923429489135742e+00 8.105933666229248047e-02 -7.816879451274871826e-02 8.851625025272369385e-02 8.121331036090850830e-02 -2.130232751369476318e-01 -2.105290256440639496e-02 -2.645589709281921387e-01 1.919091820716857910e+00 2.714112773537635803e-02 -1.052587255835533142e-01 -1.757080480456352234e-02 1.086522787809371948e-01 1.932490170001983643e-01 1.817912459373474121e+00 9.348689019680023193e-02 -1.009929627180099487e-01 1.061555370688438416e-01 6.281589716672897339e-02 -1.679607480764389038e-01 8.022709935903549194e-02 7.814552634954452515e-02 3.935056924819946289e-02 1.406410038471221924e-01 -6.701189875602722168e-01 1.204661093652248383e-02 9.934075176715850830e-02 1.855717152357101440e-01 -2.540902420878410339e-02 -7.324339151382446289e-01 3.024842739105224609e-01 1.569502428174018860e-02 -1.020264476537704468e-01 5.303340032696723938e-02 1.118864789605140686e-01 -2.861220762133598328e-02 -5.532377213239669800e-02 1.035562008619308472e-01 -3.754300996661186218e-02 -2.547130882740020752e-01 1.536964774131774902e-01 4.105703532695770264e-02 1.612221077084541321e-02 9.754054993391036987e-02 -7.516428828239440918e-02 4.537260532379150391e-01 -1.266699284315109253e-01 -4.854622110724449158e-02 5.611454248428344727e-01 3.236024454236030579e-02 -2.262160368263721466e-02 7.644251734018325806e-02 -1.942192018032073975e-01 -2.446949183940887451e-01 -2.775414288043975830e-01 1.051469817757606506e-01 1.797457039356231689e-01 -9.158544242382049561e-02 2.538981102406978607e-02 2.159080840647220612e-02 -7.911939918994903564e-02
