2.889740280807018280e-02 1.414194703102111816e-01 -8.671538531780242920e-02 1.385555565357208252e-01 2.086521536111831665e-01 4.603447020053863525e-02 -1.262039542198181152e-01 -4.244703333824872971e-03 -5.790869146585464478e-02 2.762700021266937256e-01 -1.734087616205215454e-02 -1.086525339633226395e-02 2.320902645587921143e-01 3.775360807776451111e-02 -7.640112042427062988e-01 3.047472331672906876e-03 -6.610324233770370483e-02 1.797714680433273315e-01 -2.441256307065486908e-02 4.181905463337898254e-02 1.053836196660995483e-01 3.100093081593513489e-02 -4.276572261005640030e-03 -2.239555492997169495e-02 -8.505672961473464966e-02 -7.788172364234924316e-02 -1.955077499151229858e-01 1.141102164983749390e-01 4.088973999023437500e-01 9.785047173500061035e-02 1.258775684982538223e-02 4.636633023619651794e-02 -1.689197495579719543e-02 4.846216365694999695e-02 7.276611775159835815e-02 1.025420706719160080e-02 -1.991950631141662598e+00 -3.017201833426952362e-02 -1.100231558084487915e-01 -2.909454144537448883e-02 1.428782381117343903e-02 6.985531747341156006e-02 -6.122034788131713867e-02 9.974117577075958252e-02 -2.183612901717424393e-03 1.294843673706054688e+00 5.175973474979400635e-02 -1.565278135240077972e-02 1.434801459312438965e+00 7.586895674467086792e-02 1.452746689319610596e-01 -5.754810571670532227e-01 -7.850337028503417969e-02 -1.673701524734497070e+00 1.159716695547103882e-01 1.126425638794898987e-01 4.206916317343711853e-02 4.815032333135604858e-02 1.070508956909179688e-01 -3.321469947695732117e-02 6.270236521959304810e-02 7.968281954526901245e-02 8.667585253715515137e-02 -1.354580558836460114e-02 -2.079963237047195435e-01 5.425301566720008850e-02 -7.384648174047470093e-02 7.020635902881622314e-02 -2.825959958136081696e-02 1.740570366382598877e-01 -6.637833546847105026e-03 9.952846914529800415e-02 -6.896179169416427612e-02 -5.445790290832519531e-02 3.138272091746330261e-02 6.425330415368080139e-03 -6.130559369921684265e-02 -8.557877689599990845e-02 2.330323159694671631e-01 1.125511303544044495e-01 1.280466932803392410e-02 -2.507684752345085144e-02 -2.451380640268325806e-01 -5.730058625340461731e-02 -8.658744394779205322e-02 -1.186432987451553345e-01 -6.525142490863800049e-02 9.211654216051101685e-02 -2.223068103194236755e-02 -1.751936413347721100e-02 -9.675621241331100464e-02 9.177393466234207153e-02 -6.496299505233764648e-01 9.496052563190460205e-02 -1.006004735827445984e-01 -8.490132093429565430e-01 -6.009967252612113953e-02 -8.231795579195022583e-02 3.792223706841468811e-02 4.524154961109161377e-02 -1.515220105648040771e-01 1.535747289657592773e+00 2.797714471817016602e-01 6.015125662088394165e-02 -3.449621915817260742e+00 -6.546000367961823940e-04 1.181876808404922485e-01 -1.545891910791397095e-01 4.434364140033721924e-01 -1.286118328571319580e-01 3.078128769993782043e-02 -1.434250324964523315e-01 1.007796525955200195e-01 1.285120099782943726e-01 1.909155696630477905e-01 1.892332583665847778e-01 4.775766655802726746e-02 -7.251548767089843750e-02 -1.961709856986999512e-01 3.617060929536819458e-02 -1.789565235376358032e-01 1.092940270900726318e-01 -1.384360436350107193e-02 -1.545542627573013306e-01 1.403596810996532440e-02 9.944581985473632812e-02 1.430374532938003540e-01 -1.386732310056686401e-01 1.104184612631797791e-01 8.103143572807312012e-01 -7.875637710094451904e-02 2.209391832351684570e+00 -1.616988517343997955e-02 -8.258045464754104614e-02 2.480199635028839111e-01 1.603045105934143066e+00 7.332255691289901733e-02 1.678766310214996338e-01 1.505358368158340454e-01 1.996996998786926270e-01 -1.087689474225044250e-01 -5.688162147998809814e-02 -3.991804271936416626e-02 4.359677806496620178e-02 -3.149466961622238159e-02 1.330755352973937988e-01 -2.606523036956787109e-02 -2.474491894245147705e-01 -3.117410652339458466e-02 6.054514553397893906e-03 4.397607967257499695e-02 -3.171255439519882202e-02 3.163203655276447535e-04 -1.081225741654634476e-02 -1.307121515274047852e-01 6.387846916913986206e-02 1.472436338663101196e-01 -6.010109558701515198e-02 7.936513423919677734e-02 1.304359436035156250e-01 1.653701066970825195e+00 1.786439120769500732e-01 -6.678675115108489990e-02 1.496085673570632935e-01 9.180151671171188354e-02 -5.962155014276504517e-02 7.114250212907791138e-02 -4.711931943893432617e-02 -2.166842073202133179e-01 -3.835662901401519775e-01 -2.768902182579040527e-01 5.015993118286132812e-02 1.898644119501113892e-01 1.844414882361888885e-02 1.653346121311187744e-01 6.911448389291763306e-02 -4.651192948222160339e-02 -3.235773416236042976e-03 -9.542729705572128296e-02 -1.353979706764221191e-01 -1.663853228092193604e-02 1.253549754619598389e-01 -5.147803574800491333e-02 2.438799478113651276e-02 3.877951204776763916e-02 1.326535921543836594e-02 -7.818866521120071411e-03 -2.198046445846557617e-02 -5.753905698657035828e-02 3.799221292138099670e-02 5.973885208368301392e-02 3.532709553837776184e-02 -1.838516592979431152e-01 -4.973014444112777710e-02 -7.660646736621856689e-02 -1.780129782855510712e-02 -1.236839666962623596e-01 7.943920046091079712e-02 1.209660246968269348e-01 1.495023164898157120e-02 2.489462494850158691e-01 1.287328600883483887e-01 -5.395869538187980652e-02 -6.627511233091354370e-02 -2.961249090731143951e-02 1.307296217419207096e-03 -7.254578918218612671e-02 -2.270204201340675354e-02 -2.722665667533874512e-02 1.171526759862899780e-01 -2.016679011285305023e-02 -1.897560656070709229e-01 1.091723561286926270e+00 2.030489034950733185e-02 8.930877596139907837e-02 3.577583283185958862e-02 1.114038005471229553e-01 -1.173364669084548950e-01 1.857326924800872803e-01 -2.430447816848754883e+00 -9.451416134834289551e-02 6.164927501231431961e-03 -1.472554653882980347e-01 3.043532138690352440e-03 2.196932584047317505e-02 -4.851395636796951294e-02 -7.362417876720428467e-02 4.555967450141906738e-01 6.201999634504318237e-02 3.863007947802543640e-02 -1.027272492647171021e-01 6.071797385811805725e-02 2.841738611459732056e-02 -1.945888161659240723e+00 5.362653732299804688e-02 -1.679133437573909760e-02 -2.016759477555751801e-02 -1.606917679309844971e-01 -1.237617358565330505e-01 1.599926948547363281e-01 -1.717286556959152222e-02 2.561069726943969727e-01 4.392848163843154907e-02 -5.254188552498817444e-02 2.333640009164810181e-01 -1.499176919460296631e-01 1.284884095191955566e+00 -2.712040543556213379e-01 -3.151646256446838379e-02 -1.859069466590881348e-01 8.213484287261962891e-02 9.708837606012821198e-03 3.090569376945495605e-01 1.736033707857131958e-01 -8.607278764247894287e-02 2.058081924915313721e-01 2.198069728910923004e-02 2.856818400323390961e-02 9.354116767644882202e-02 1.180116906762123108e-01 -1.969707310199737549e-01 -1.382077187299728394e-01 -1.045194640755653381e-01 -6.505993604660034180e-01 -6.041301414370536804e-02 -3.999681398272514343e-02 -4.575483966618776321e-03 1.014019623398780823e-01 1.227971315383911133e-01 4.028154909610748291e-02 2.742294780910015106e-02 -1.196894869208335876e-01 7.239141315221786499e-02 -9.340303391218185425e-02 1.717073842883110046e-02 5.170189216732978821e-02 2.964158076792955399e-03 -3.963961452245712280e-02 -8.666014671325683594e-02 1.303151156753301620e-02 -1.004634276032447815e-01 -3.695999830961227417e-02 2.519494295120239258e-01 -1.297597736120223999e-01 3.704535588622093201e-02 1.090481281280517578e-01 3.213078156113624573e-02 -1.203183308243751526e-01 -5.546978116035461426e-01 -1.077432155609130859e+00 3.882348537445068359e-02 -2.724713459610939026e-02 2.114360481500625610e-01 -1.409980356693267822e-01 -6.755922734737396240e-02 -1.868910491466522217e-01 -8.891869336366653442e-02 -4.979587346315383911e-02 4.329746961593627930e-02 6.551679968833923340e-02 3.859156370162963867e-02 -1.160946190357208252e-01 1.063452437520027161e-01 2.692594937980175018e-02 -1.725318431854248047e+00 1.303013265132904053e-01 3.808869048953056335e-02 1.299988664686679840e-02 -2.022273093461990356e-02 1.048024892807006836e-01 -1.301723420619964600e-01 1.331973969936370850e-01 -2.157774269580841064e-01 -2.698821015655994415e-02 2.283100504428148270e-03 1.606998965144157410e-02 -4.356162250041961670e-02 -4.352290928363800049e-02 2.873894572257995605e-02 4.935040324926376343e-02 1.038958667777478695e-03 -2.092740774154663086e+00 -2.923200838267803192e-02 -1.280503422021865845e-01 -5.684602633118629456e-02 -1.673559099435806274e-01 3.148963302373886108e-02 8.918850868940353394e-02 -2.307104878127574921e-02 2.840617597103118896e-01 6.086360663175582886e-02 2.645035386085510254e-01 -3.491527587175369263e-02 -6.251257658004760742e-02 -6.745190359652042389e-03 1.248085945844650269e-01 -7.267773151397705078e-02 5.467683076858520508e-02 -9.222175925970077515e-02 2.648526802659034729e-02 5.040232557803392410e-03 1.291339248418807983e-01 7.128100842237472534e-02 -4.381401464343070984e-02 1.182579323649406433e-01 3.600700944662094116e-02 -1.118360087275505066e-01 -1.221769377589225769e-01 1.483168751001358032e-01 7.009933888912200928e-02 -1.950513198971748352e-02 5.382622033357620239e-02 -5.239824652671813965e-01 -1.889103204011917114e-01 1.618428230285644531e-01 -2.447114437818527222e-01 2.756631001830101013e-02 7.808472216129302979e-02 -1.008667200803756714e-01 9.781698882579803467e-02 -6.246988847851753235e-02 2.247571200132369995e-01 1.187251284718513489e-01 -4.560241010040044785e-03 1.467596739530563354e-01 8.528169244527816772e-02 -3.294279426336288452e-02 2.349123507738113403e-01 6.958191841840744019e-02 2.986427955329418182e-02 5.914003029465675354e-02 8.630777709186077118e-03 -2.279636114835739136e-01 -2.680774219334125519e-02 2.010054886341094971e-01 -3.817256912589073181e-02 -1.442478448152542114e-01 -6.671405583620071411e-02 -8.780787885189056396e-02 4.652800783514976501e-02 2.262782864272594452e-02 -2.246498689055442810e-02 -1.633994221687316895e+00 4.708418622612953186e-02 2.221488952636718750e-01 -1.507602810859680176e+00 -4.108334332704544067e-02 -3.615061193704605103e-02 -1.005610376596450806e-01 2.606839686632156372e-02 -2.996896579861640930e-02 4.058821871876716614e-02 1.444207783788442612e-02 -6.102083250880241394e-02 5.192257091403007507e-02 -2.087784856557846069e-01 5.982999876141548157e-02 -3.070098906755447388e-02 3.295153751969337463e-02 1.660121828317642212e-01 9.027685225009918213e-02 -1.639826893806457520e-01 7.137691229581832886e-02 7.638404145836830139e-03 -7.086414843797683716e-02 -1.828744411468505859e+00 1.386882662773132324e-01 7.560840342193841934e-03 2.590522542595863342e-02 6.100453902035951614e-03 1.464075595140457153e-01 -1.925985515117645264e-01 1.861822158098220825e-01 -9.662587940692901611e-02 1.325801014900207520e-02 -7.459689676761627197e-02 -2.761801183223724365e-01 -5.367441102862358093e-02 3.260326338931918144e-03 -6.450292468070983887e-01 2.068381160497665405e-01 4.981594979763031006e-01 1.937004178762435913e-02 -2.049432694911956787e-01 7.292366120964288712e-03 6.064855307340621948e-02 -2.740118466317653656e-02 -2.508198097348213196e-02 -8.686966449022293091e-02 -1.928276568651199341e-02 2.514307573437690735e-02 -1.329855620861053467e-01 -3.220158070325851440e-02 -1.398177981376647949e+00 -1.996044635772705078e+00 1.210013866424560547e+00 -9.227718412876129150e-02 2.669194247573614120e-03 -7.829403877258300781e-02 2.083982229232788086e+00 1.370459049940109253e-01 9.264557808637619019e-02 -1.182723864912986755e-01 -8.323784917593002319e-02 2.494528442621231079e-01 3.265584707260131836e+00 2.699594795703887939e-01 -4.340517148375511169e-02 1.576897740364074707e+00 -7.099936157464981079e-02 2.535469830036163330e-01 -1.996730268001556396e-01 -1.770827174186706543e+00 -2.081958293914794922e+00 -8.161458373069763184e-02 -9.291157871484756470e-02 3.252578433603048325e-03 -1.212062165141105652e-01 8.944781869649887085e-02 2.242393046617507935e-02 9.816066175699234009e-02 -7.456696778535842896e-02 8.571647107601165771e-02 -7.517032325267791748e-02 9.587616473436355591e-02 -2.208347171545028687e-01 4.177506640553474426e-02 -7.731536030769348145e-02 -5.669031292200088501e-02 -1.158727915026247501e-03 4.867281913757324219e-01 4.258567094802856445e-02 3.239899128675460815e-02 -5.123034864664077759e-02 -2.251157350838184357e-02 -2.182299852371215820e+00 2.106205672025680542e-01 1.190728135406970978e-02 7.879724353551864624e-02 -2.933848462998867035e-02 3.752475231885910034e-02 1.193392127752304077e-01 -2.035004496574401855e-01 -2.700586989521980286e-02 1.042369082570075989e-01 1.935574598610401154e-02 -8.643690496683120728e-03 -6.802709400653839111e-02 -1.949694603681564331e-01 -3.151995316147804260e-02 3.030335716903209686e-02 6.251286249607801437e-03 9.115798026323318481e-02 2.249601125717163086e+00 3.313454985618591309e-02 1.745964959263801575e-02 2.977476455271244049e-02 1.050148159265518188e-01 1.590922772884368896e-01 -7.733371853828430176e-02 1.695237006060779095e-03 -2.432909458875656128e-01 6.464926898479461670e-02 -7.453354448080062866e-02 -3.100868081673979759e-03 1.062048226594924927e-01 -1.080257743597030640e-01 2.628167532384395599e-02 2.218797057867050171e-02 8.843038231134414673e-02 5.485597252845764160e-01 4.281657040119171143e-01 -1.208967268466949463e-01 -9.861475825309753418e-01 1.970617100596427917e-02 -1.117720529437065125e-01 -2.922962047159671783e-02 -4.547297954559326172e-02 -2.578019350767135620e-02 -8.673288673162460327e-02 1.743762195110321045e-01 -7.462048530578613281e-02 1.308566033840179443e-01 -2.239667251706123352e-02 1.347351074218750000e-02 -1.757767796516418457e-01 -1.859434992074966431e-01 1.075464487075805664e-01 -1.782600767910480499e-02 -9.263779222965240479e-02 -6.230928469449281693e-03 -5.873554348945617676e-01 -2.892808057367801666e-02 1.678579449653625488e+00 1.281929165124893188e-01 1.551724374294281006e-01 1.290758848190307617e+00 2.181020565330982208e-02 1.065565645694732666e-01 1.414082497358322144e-01 6.617875397205352783e-02 5.680853128433227539e-02 -1.771645434200763702e-02 -2.748469412326812744e-01 9.548770636320114136e-02 -6.426836550235748291e-02 8.428498357534408569e-02 -9.154791384935379028e-02 -4.500686377286911011e-02 4.249501973390579224e-02 1.485540568828582764e-01 1.497685164213180542e-01 1.810777373611927032e-02 1.235697790980339050e-01 -6.983726471662521362e-02 -3.160921037197113037e-01 3.951684013009071350e-02 1.272317022085189819e-01 -3.750717639923095703e-02 -6.131818052381277084e-03 1.834179461002349854e-01 2.934532612562179565e-02 1.167926266789436340e-01 -7.235713303089141846e-02 1.477759517729282379e-02 -1.118520274758338928e-01 1.452642306685447693e-02 4.191673547029495239e-02 -1.237791869789361954e-02 -1.028884276747703552e-01 1.308394819498062134e-01 -1.354062408208847046e-01 8.370808325707912445e-03 5.735929310321807861e-02 -3.576238825917243958e-02 -1.647978276014328003e-01 6.482435017824172974e-02 4.873352646827697754e-01 4.314752668142318726e-02 -7.255609333515167236e-02 5.177672021090984344e-03 -2.974717132747173309e-02 2.014210447669029236e-02 8.849108591675758362e-03 -6.011528372764587402e-01 2.755750156939029694e-02 1.019676476716995239e-01 -7.707121968269348145e-02 -6.319513171911239624e-02 -6.119661778211593628e-02 -6.027857959270477295e-02 -5.893567577004432678e-02 1.695813387632369995e-01 5.148287490010261536e-02 -6.068252027034759521e-02 1.256646960973739624e-01 4.068440943956375122e-02 1.446247100830078125e-01 9.650435298681259155e-03 2.338143438100814819e-02 -5.207685381174087524e-02 2.360367029905319214e-02 1.902051083743572235e-02 1.830747351050376892e-02 5.483901128172874451e-02 5.692081525921821594e-02 4.101761430501937866e-02 9.235886484384536743e-02 -8.142910897731781006e-02 2.303858846426010132e-01 5.413848534226417542e-02 6.719908677041530609e-03 -9.680429939180612564e-04 1.874153017997741699e-01 2.627206407487392426e-02 -2.297141313552856445e+00 7.918817549943923950e-02 9.499303996562957764e-02 7.980050146579742432e-02 2.780560217797756195e-02 1.392738968133926392e-01 7.957936525344848633e-01 2.166931182146072388e-01 9.518673177808523178e-04 2.767288498580455780e-02 -8.239436894655227661e-02 -8.216302841901779175e-02 -6.368511822074651718e-03 -5.128980800509452820e-02 -5.581623315811157227e-01 1.070070359855890274e-02 -2.257543243467807770e-02 3.250456601381301880e-02 -1.374413520097732544e-01 2.422413043677806854e-02 -1.812141537666320801e+00 -7.731678336858749390e-02 -3.659526631236076355e-02 5.090781673789024353e-02 -2.084992825984954834e-03 -1.511824876070022583e-01 -5.571118369698524475e-02 -6.614376604557037354e-02 -2.638679444789886475e-01 8.883619308471679688e-02 6.851376593112945557e-02 -1.111864969134330750e-01 1.112405434250831604e-01 5.647893063724040985e-03 2.807291448116302490e-01 3.301108777523040771e-01 8.530809730291366577e-02 -4.849692434072494507e-02 -1.014318838715553284e-01 6.058873236179351807e-02 7.877107709646224976e-02 -5.218643322587013245e-02 -1.000163853168487549e-01 2.392039634287357330e-02 2.661355435848236084e-01 1.758054047822952271e-01 1.279986351728439331e-01 1.181200891733169556e-01 -1.817660480737686157e-01 2.423321269452571869e-02 -1.797250270843505859e+00 9.280511178076267242e-03 4.501913487911224365e-02 1.020032912492752075e-01 7.362710684537887573e-02 1.633658558130264282e-01 2.490922063589096069e-02 -1.309475451707839966e-01 -5.357924476265907288e-02 8.668090403079986572e-02 -3.489259183406829834e-01 6.481736898422241211e-02 4.899767227470874786e-03 1.541966386139392853e-02 -4.484670981764793396e-02 1.987173967063426971e-02 7.946177572011947632e-02 3.239239007234573364e-02 -4.473780468106269836e-02 -8.804658800363540649e-02 -3.838304197415709496e-03 -5.264413729310035706e-02 4.046446979045867920e-01 -4.140677675604820251e-02 6.235073879361152649e-02 3.125655353069305420e-01 -1.433247048407793045e-02 1.221643313765525818e-01 -5.917435511946678162e-02 5.740656703710556030e-02 3.739480674266815186e-02 -1.114315748214721680e+00 -4.302671179175376892e-02 1.667567156255245209e-02 -2.558836154639720917e-02 -2.756103873252868652e-02 -1.816670000553131104e-01 1.977079547941684723e-02 9.495606273412704468e-02 3.510471284389495850e-01 -1.179683208465576172e-02 4.220554530620574951e-01 1.946077466011047363e+00 9.193872660398483276e-02 -9.888180345296859741e-02 1.159315109252929688e-01 5.007309839129447937e-02 -1.730340570211410522e-01 -2.383159473538398743e-02 -2.274681180715560913e-01 1.971114635467529297e+00 -1.241270918399095535e-02 -1.372400224208831787e-01 -4.691969603300094604e-02 1.324919909238815308e-01 1.611172556877136230e-01 1.849813699722290039e+00 9.082463383674621582e-02 -7.411043345928192139e-02 1.211138591170310974e-01 2.560073509812355042e-02 -1.123491972684860229e-01 4.673707112669944763e-02 5.896056443452835083e-02 -2.104932069778442383e-02 1.667780131101608276e-01 -6.649824976921081543e-01 8.142207749187946320e-03 1.382757723331451416e-01 2.163327187299728394e-01 1.270765252411365509e-02 -7.660850882530212402e-01 3.162125051021575928e-01 -2.698017051443457603e-03 -5.187528207898139954e-02 6.995710730552673340e-02 1.495981514453887939e-01 -5.314668640494346619e-02 -7.304598391056060791e-02 1.306601166725158691e-01 2.113027265295386314e-03 -2.028515189886093140e-01 1.393507868051528931e-01 1.495314296334981918e-02 -8.597221225500106812e-03 5.886081233620643616e-02 -5.723268538713455200e-02 4.208959341049194336e-01 -1.449812352657318115e-01 -7.819186896085739136e-02 5.843349099159240723e-01 4.510802775621414185e-02 2.676797332242131233e-03 9.874861687421798706e-02 -1.888174414634704590e-01 -1.460143923759460449e-01 -2.276995778083801270e-01 4.071480408310890198e-02 1.318904906511306763e-01 -8.800423145294189453e-02 1.729531772434711456e-02 3.806264698505401611e-02 -5.931473150849342346e-02
