2.863975241780281067e-02 1.685534566640853882e-01 -3.065293468534946442e-02 1.721842736005783081e-01 1.929376870393753052e-01 1.066935248672962189e-03 -1.314363628625869751e-01 -1.817632466554641724e-02 -5.563132464885711670e-02 3.434534966945648193e-01 -1.240670494735240936e-02 -3.847761824727058411e-02 2.304579317569732666e-01 5.748834088444709778e-02 -7.583726644515991211e-01 -2.067679306492209435e-03 -8.777300268411636353e-02 2.036335319280624390e-01 -4.033409059047698975e-02 1.165451575070619583e-02 1.078896149992942810e-01 7.641663402318954468e-02 -6.151496991515159607e-02 -2.399274893105030060e-02 -1.596252769231796265e-01 -6.413158774375915527e-02 -1.866375356912612915e-01 1.337941735982894897e-01 4.424584805965423584e-01 9.939958155155181885e-02 5.739303305745124817e-03 -3.247604938223958015e-03 9.292261675000190735e-03 6.769822537899017334e-02 3.573381528258323669e-02 9.878397919237613678e-03 -1.991992831230163574e+00 8.693854324519634247e-03 -8.767843246459960938e-02 1.301850005984306335e-02 2.048928290605545044e-02 9.234023839235305786e-02 -6.548614799976348877e-02 4.880826175212860107e-02 -9.676887653768062592e-03 1.254551768302917480e+00 8.756845444440841675e-02 -4.348209872841835022e-02 1.422222495079040527e+00 1.681684516370296478e-02 9.543247520923614502e-02 -5.359659194946289062e-01 -8.404207974672317505e-02 -1.673020839691162109e+00 9.844310581684112549e-02 1.123695746064186096e-01 -1.173824537545442581e-02 9.871731698513031006e-02 8.513474464416503906e-02 -1.006316468119621277e-01 6.269565224647521973e-02 1.096746399998664856e-01 9.457442164421081543e-02 -1.860268227756023407e-02 -2.054017484188079834e-01 4.205232858657836914e-02 -6.437249481678009033e-02 9.175101667642593384e-02 1.983548747375607491e-03 2.029446214437484741e-01 2.417630515992641449e-02 1.303785443305969238e-01 -5.870701372623443604e-02 -8.935957401990890503e-02 -1.883794669993221760e-03 -1.210840768180787563e-03 1.209553238004446030e-02 -1.235719993710517883e-01 1.629638671875000000e-01 1.004454493522644043e-01 2.410953864455223083e-02 -4.632252827286720276e-02 -2.548274695873260498e-01 -7.128278911113739014e-02 -8.470926433801651001e-02 -1.033768504858016968e-01 -4.245641082525253296e-02 8.491440862417221069e-02 -3.515022620558738708e-02 -3.750288859009742737e-02 -1.120812445878982544e-01 5.767627805471420288e-02 -6.360574364662170410e-01 1.200769543647766113e-01 -9.726393967866897583e-02 -8.308856487274169922e-01 -7.785741984844207764e-02 -9.905590116977691650e-02 -4.437588155269622803e-03 3.193987160921096802e-02 -1.376572400331497192e-01 1.518159270286560059e+00 2.922591567039489746e-01 6.703088432550430298e-02 -3.400263786315917969e+00 1.410739589482545853e-02 1.303875446319580078e-01 -1.728824228048324585e-01 4.589354395866394043e-01 -1.275257766246795654e-01 3.166236728429794312e-02 -1.795008182525634766e-01 5.830567702651023865e-02 1.339199244976043701e-01 1.830714941024780273e-01 2.022815197706222534e-01 3.439645469188690186e-02 -7.658815383911132812e-02 -1.652363389730453491e-01 4.728298261761665344e-02 -1.341857910156250000e-01 1.242917925119400024e-01 4.026562348008155823e-02 -1.450875103473663330e-01 3.672128543257713318e-02 6.378582119941711426e-02 1.901006847620010376e-01 -1.096730083227157593e-01 1.441644728183746338e-01 7.793537974357604980e-01 -1.273878216743469238e-01 2.209696292877197266e+00 1.681013777852058411e-02 -7.674840837717056274e-02 2.412271350622177124e-01 1.581507086753845215e+00 9.181200712919235229e-02 1.272659748792648315e-01 1.915585994720458984e-01 2.255370616912841797e-01 -8.421532809734344482e-02 -8.768358081579208374e-02 -7.523573003709316254e-03 8.145444095134735107e-02 -1.034763734787702560e-02 1.244194433093070984e-01 -5.383043736219406128e-02 -2.356544584035873413e-01 -1.987251639366149902e-02 -1.840775273740291595e-02 5.587126314640045166e-02 -5.778722837567329407e-02 -2.120235189795494080e-02 -6.384680420160293579e-02 -1.025022938847541809e-01 3.325576707720756531e-02 1.564774960279464722e-01 -7.101301848888397217e-02 9.745144098997116089e-02 9.911025315523147583e-02 1.634911298751831055e+00 2.042103409767150879e-01 -7.001642882823944092e-02 1.060172915458679199e-01 1.365019530057907104e-01 -1.540199387818574905e-02 9.404051303863525391e-02 -7.700932025909423828e-02 -2.018853425979614258e-01 -3.683034181594848633e-01 -2.408451586961746216e-01 3.683277219533920288e-02 1.895570307970046997e-01 6.231527030467987061e-02 1.146020293235778809e-01 7.757340371608734131e-02 -4.047417268157005310e-02 8.209630846977233887e-03 -7.279560714960098267e-02 -1.165790334343910217e-01 -2.821545116603374481e-02 1.059053167700767517e-01 -5.471527948975563049e-02 4.045387357473373413e-02 2.734807087108492851e-03 -3.282361477613449097e-02 -9.016784839332103729e-03 2.121732197701931000e-02 -5.331736430525779724e-02 2.818817459046840668e-02 8.368194848299026489e-02 2.687104977667331696e-02 -2.109433114528656006e-01 -4.536398500204086304e-02 -1.308083087205886841e-01 -4.566731303930282593e-02 -1.601578444242477417e-01 8.451755344867706299e-02 1.041003316640853882e-01 2.033826708793640137e-02 1.920794099569320679e-01 1.197630167007446289e-01 -6.490286439657211304e-02 -4.872896894812583923e-02 -2.478141337633132935e-03 3.456881642341613770e-02 -4.707597941160202026e-02 4.301800392568111420e-03 6.733560469001531601e-03 1.050882935523986816e-01 -6.728247553110122681e-02 -2.053433060646057129e-01 1.056135177612304688e+00 1.817086897790431976e-02 1.157449781894683838e-01 3.071529231965541840e-02 5.459126085042953491e-02 -1.312143802642822266e-01 1.783472895622253418e-01 -2.425960540771484375e+00 -8.859043568372726440e-02 3.509820997714996338e-02 -2.064609378576278687e-01 -9.898972697556018829e-03 -7.108154240995645523e-04 -8.830585330724716187e-02 -8.894270658493041992e-02 4.383425414562225342e-01 9.024679660797119141e-02 4.054400324821472168e-02 -6.234392896294593811e-02 3.895631805062294006e-02 4.246511682868003845e-02 -1.926081776618957520e+00 4.761450737714767456e-02 -3.462193906307220459e-02 -2.934122085571289062e-02 -1.537535935640335083e-01 -1.748462766408920288e-01 1.557074785232543945e-01 -2.782682701945304871e-02 2.540568411350250244e-01 6.162191927433013916e-02 -2.182852290570735931e-02 2.129290848970413208e-01 -1.419949680566787720e-01 1.261719822883605957e+00 -2.304184138774871826e-01 -2.993246912956237793e-02 -2.493513524532318115e-01 6.995142996311187744e-02 -2.551648579537868500e-02 3.374832272529602051e-01 1.558110117912292480e-01 -1.079588755965232849e-01 2.315573841333389282e-01 5.079792439937591553e-02 4.171308875083923340e-02 1.031412184238433838e-01 1.238537281751632690e-01 -1.814900487661361694e-01 -1.196197718381881714e-01 -1.421537548303604126e-01 -6.597201228141784668e-01 -8.780649304389953613e-02 -2.686110138893127441e-02 -2.050222456455230713e-02 1.221858114004135132e-01 1.286633014678955078e-01 4.109697416424751282e-02 5.794324353337287903e-02 -1.409504711627960205e-01 4.935635253787040710e-02 -8.284913003444671631e-02 5.352488905191421509e-02 2.029528655111789703e-02 -3.257891163229942322e-02 -2.583309449255466461e-02 -1.105862930417060852e-01 3.118995763361454010e-02 -8.862127363681793213e-02 -3.104559890925884247e-02 2.033847570419311523e-01 -1.207425594329833984e-01 7.869468629360198975e-02 9.175550937652587891e-02 5.364857614040374756e-02 -1.022634282708168030e-01 -5.219982266426086426e-01 -1.020813107490539551e+00 8.505029976367950439e-02 -3.073967248201370239e-02 2.202249020338058472e-01 -1.151951625943183899e-01 -7.434193789958953857e-02 -1.900102496147155762e-01 -9.406653046607971191e-02 -1.157928109169006348e-01 4.037771746516227722e-02 5.887690186500549316e-02 4.428368806838989258e-02 -1.442899703979492188e-01 7.669044286012649536e-02 5.941601097583770752e-02 -1.726930379867553711e+00 1.465636193752288818e-01 3.751254081726074219e-02 -8.821949362754821777e-03 -2.698676194995641708e-03 1.277007758617401123e-01 -1.285171806812286377e-01 1.374621689319610596e-01 -1.752710342407226562e-01 -6.861139833927154541e-02 -3.406207310035824776e-03 1.617770269513130188e-02 -5.093546211719512939e-02 -6.994994729757308960e-02 5.259336158633232117e-02 5.316484719514846802e-02 -5.757184699177742004e-03 -2.069756269454956055e+00 -4.862555861473083496e-02 -1.230212673544883728e-01 -3.498906269669532776e-02 -1.231666505336761475e-01 3.664382919669151306e-02 5.660973116755485535e-02 -1.922740228474140167e-02 2.957251071929931641e-01 9.864833950996398926e-02 3.678283393383026123e-01 -3.832983598113059998e-02 -3.253184631466865540e-02 -2.971440367400646210e-02 1.337453573942184448e-01 -1.969471760094165802e-02 4.285148531198501587e-02 -7.219704240560531616e-02 3.394896164536476135e-02 6.741686165332794189e-02 1.272279471158981323e-01 8.544524013996124268e-02 -1.985402591526508331e-02 1.827203184366226196e-01 1.341636478900909424e-02 -1.019015982747077942e-01 -1.277178376913070679e-01 1.434978246688842773e-01 5.900188535451889038e-02 -2.564999088644981384e-02 -1.470564585179090500e-02 -5.207809805870056152e-01 -1.935745626688003540e-01 1.163344308733940125e-01 -2.246849089860916138e-01 2.182788960635662079e-02 8.939446508884429932e-02 -6.547652930021286011e-02 8.243002742528915405e-02 -5.001283064484596252e-02 1.999250054359436035e-01 1.407874077558517456e-01 1.612173952162265778e-02 1.741948574781417847e-01 1.184555441141128540e-01 -4.010158777236938477e-02 1.990182995796203613e-01 7.829298824071884155e-02 -5.274865403771400452e-02 4.496949911117553711e-02 1.130483206361532211e-02 -1.946755051612854004e-01 -2.047948725521564484e-02 2.153376191854476929e-01 -6.672655791044235229e-02 -1.727832406759262085e-01 -3.813687339425086975e-02 -7.078988850116729736e-02 2.639358490705490112e-02 1.572052575647830963e-02 -5.396169796586036682e-02 -1.614079952239990234e+00 2.432171255350112915e-02 2.262961715459823608e-01 -1.496849417686462402e+00 -3.729510679841041565e-02 -4.516130685806274414e-02 -1.213529631495475769e-01 4.360263422131538391e-02 4.920937120914459229e-03 6.653287261724472046e-02 2.847484685480594635e-02 -5.163015052676200867e-02 1.371591165661811829e-02 -1.689664423465728760e-01 6.139871478080749512e-02 -6.103522144258022308e-03 2.928866259753704071e-02 1.401413977146148682e-01 1.006012782454490662e-01 -1.646063327789306641e-01 5.011875182390213013e-02 4.818687960505485535e-02 -1.322375610470771790e-02 -1.813379883766174316e+00 1.725513190031051636e-01 3.144633024930953979e-02 4.233119636774063110e-02 2.285435982048511505e-02 1.560261994600296021e-01 -2.071167975664138794e-01 1.537446081638336182e-01 -1.587421894073486328e-01 -1.237773150205612183e-02 -7.668505609035491943e-02 -3.229171335697174072e-01 -2.894618175923824310e-02 3.421546891331672668e-02 -6.176812052726745605e-01 1.848733723163604736e-01 5.050278306007385254e-01 -1.983260735869407654e-02 -1.998506188392639160e-01 3.426889702677726746e-02 6.453458964824676514e-02 -1.205672137439250946e-02 3.419788321480154991e-03 -6.781952828168869019e-02 3.929760679602622986e-02 3.182144602760672569e-03 -2.306582182645797729e-01 -8.126155287027359009e-02 -1.397384524345397949e+00 -1.980112075805664062e+00 1.206162571907043457e+00 -9.676870703697204590e-02 -2.695534611120820045e-03 -6.376042962074279785e-02 2.021927118301391602e+00 1.633050292730331421e-01 1.554175764322280884e-01 -8.155670017004013062e-02 -6.712850928306579590e-02 2.549951076507568359e-01 3.304859638214111328e+00 2.730627954006195068e-01 -4.346099868416786194e-02 1.541953921318054199e+00 -1.184624955058097839e-01 1.704786121845245361e-01 -2.073703259229660034e-01 -1.766334176063537598e+00 -2.020301818847656250e+00 -6.630077213048934937e-02 -9.444855153560638428e-02 -4.125984758138656616e-02 -1.447639465332031250e-01 8.510238677263259888e-02 7.293911278247833252e-02 7.945128530263900757e-02 -9.087987989187240601e-02 3.951132670044898987e-02 -1.074048802256584167e-01 7.538340240716934204e-02 -1.914000362157821655e-01 3.537498787045478821e-02 -1.127452999353408813e-01 -3.508203104138374329e-02 -3.892958536744117737e-02 4.788534045219421387e-01 4.241422563791275024e-02 4.731722548604011536e-02 -3.721987083554267883e-02 -7.384395226836204529e-03 -2.159374237060546875e+00 1.876033693552017212e-01 -2.765929885208606720e-02 3.223160654306411743e-02 -3.330761566758155823e-02 1.449764892458915710e-02 1.434557437896728516e-01 -2.481418699026107788e-01 2.107498608529567719e-02 1.043189167976379395e-01 -2.151930006220936775e-03 -9.816760197281837463e-03 -5.258056893944740295e-02 -1.397470086812973022e-01 -5.733766127377748489e-03 3.191112354397773743e-02 -3.283091261982917786e-02 1.340886503458023071e-01 2.212879657745361328e+00 -3.670101519674062729e-03 3.962708637118339539e-02 4.236368089914321899e-02 5.606967210769653320e-02 1.123756468296051025e-01 -8.287397213280200958e-03 -4.614117089658975601e-03 -2.387202084064483643e-01 5.129796639084815979e-02 -7.976572215557098389e-02 -1.542398054152727127e-02 1.248005256056785583e-01 -6.625160574913024902e-02 -1.031213812530040741e-02 1.302369963377714157e-02 8.721839636564254761e-02 5.423388481140136719e-01 4.342758357524871826e-01 -1.571097522974014282e-01 -9.639920592308044434e-01 -1.631221175193786621e-02 -1.125435978174209595e-01 -4.255421087145805359e-02 -4.969409480690956116e-02 -3.446662425994873047e-02 -8.091343939304351807e-02 1.220273226499557495e-01 -8.815091848373413086e-02 1.424536406993865967e-01 -1.609128341078758240e-02 1.995401456952095032e-02 -1.932413727045059204e-01 -2.193429470062255859e-01 1.494944542646408081e-01 1.103220880031585693e-02 -1.238830760121345520e-01 -1.988508552312850952e-02 -5.660935044288635254e-01 -6.427835673093795776e-02 1.666253685951232910e+00 1.489143222570419312e-01 1.370738446712493896e-01 1.289337873458862305e+00 5.513768643140792847e-02 1.181486025452613831e-01 9.896631538867950439e-02 8.521598577499389648e-02 5.208927765488624573e-02 -1.627462357282638550e-02 -3.126128315925598145e-01 1.106279790401458740e-01 -4.886200651526451111e-02 7.136763632297515869e-02 -8.739055693149566650e-02 -4.382460191845893860e-02 4.075375944375991821e-02 1.542520821094512939e-01 9.833366423845291138e-02 1.432812307029962540e-02 1.557820588350296021e-01 -4.100141674280166626e-02 -3.543996512889862061e-01 7.897046953439712524e-02 1.194432601332664490e-01 -3.404368087649345398e-02 -2.136560343205928802e-02 2.035400867462158203e-01 -4.037394188344478607e-03 1.479194611310958862e-01 -2.721109241247177124e-02 1.910634897649288177e-02 -6.508199125528335571e-02 -5.790511518716812134e-02 2.311343513429164886e-02 5.592570640146732330e-03 -4.630755260586738586e-02 1.254608482122421265e-01 -1.366075873374938965e-01 1.245782803744077682e-02 3.870791196823120117e-02 -1.245724223554134369e-02 -1.480046212673187256e-01 8.342798799276351929e-02 4.737901389598846436e-01 2.922752499580383301e-02 -4.412527754902839661e-02 3.085749037563800812e-02 -5.932172294706106186e-03 4.021045565605163574e-02 3.964579477906227112e-02 -5.818535685539245605e-01 6.524566560983657837e-02 1.167548224329948425e-01 -1.474763453006744385e-02 -5.592503398656845093e-02 -3.778297081589698792e-02 -3.930387273430824280e-02 -6.132616475224494934e-02 1.422140002250671387e-01 2.709130570292472839e-02 -5.123596265912055969e-02 1.525348871946334839e-01 8.267696201801300049e-02 1.233467161655426025e-01 3.618020564317703247e-02 2.863812446594238281e-02 -6.988770514726638794e-02 -1.609188504517078400e-02 -5.061171483248472214e-03 1.574587635695934296e-02 3.107253648340702057e-02 1.059519778937101364e-02 7.476908713579177856e-02 1.121201291680335999e-01 -1.036957949399948120e-01 2.481588274240493774e-01 6.766546517610549927e-02 6.288754288107156754e-03 3.173505887389183044e-02 2.415059804916381836e-01 -5.552438087761402130e-03 -2.319381237030029297e+00 7.064960151910781860e-02 4.170718416571617126e-02 9.351971000432968140e-02 4.974666237831115723e-02 1.181811913847923279e-01 7.967508435249328613e-01 2.215123474597930908e-01 -2.615058235824108124e-02 1.821283437311649323e-02 -9.035199880599975586e-02 -1.038381308317184448e-01 2.865002956241369247e-03 -5.154343694448471069e-02 -5.369729995727539062e-01 2.831494063138961792e-02 -5.317446961998939514e-02 1.128474716097116470e-02 -1.669364869594573975e-01 1.765469461679458618e-02 -1.775896310806274414e+00 -4.250978305935859680e-02 -5.059678107500076294e-02 8.454032242298126221e-03 -2.599064819514751434e-02 -1.360819339752197266e-01 -5.745429918169975281e-02 -2.934760600328445435e-02 -2.558338940143585205e-01 1.045985892415046692e-01 6.607190519571304321e-02 -9.583955258131027222e-02 9.636747837066650391e-02 2.648470737040042877e-02 2.845070958137512207e-01 3.182509541511535645e-01 8.242540806531906128e-02 -2.766186185181140900e-02 -1.237189248204231262e-01 8.236505091190338135e-02 6.472886353731155396e-02 -3.769405558705329895e-02 -9.935320168733596802e-02 2.063854224979877472e-02 2.771716415882110596e-01 1.689637005329132080e-01 1.715790778398513794e-01 1.026050150394439697e-01 -1.594058573246002197e-01 -4.525063186883926392e-02 -1.764545202255249023e+00 5.663279443979263306e-03 6.772429496049880981e-02 8.843971043825149536e-02 6.978940963745117188e-02 1.347242295742034912e-01 1.249199919402599335e-02 -1.519007384777069092e-01 -8.758609741926193237e-02 7.926973700523376465e-02 -3.842054009437561035e-01 4.048273339867591858e-02 -8.030457422137260437e-03 5.878723412752151489e-02 -4.554137215018272400e-02 1.545599428936839104e-03 8.249437063932418823e-02 4.283520206809043884e-02 -6.846567243337631226e-02 -7.314733415842056274e-02 4.851663857698440552e-02 -2.181931212544441223e-02 3.993407785892486572e-01 -4.146602004766464233e-03 3.389833867549896240e-02 3.143550455570220947e-01 2.411115914583206177e-02 1.334955692291259766e-01 -6.852624565362930298e-02 8.695391565561294556e-02 4.027028381824493408e-02 -1.139815211296081543e+00 -5.819358304142951965e-02 2.250216901302337646e-02 -6.870877929031848907e-03 -3.872005268931388855e-02 -1.814460903406143188e-01 5.013268813490867615e-02 9.140088409185409546e-02 3.054705262184143066e-01 1.458887662738561630e-02 3.691225945949554443e-01 1.954382658004760742e+00 5.756782367825508118e-02 -6.996800750494003296e-02 1.082850843667984009e-01 7.385790348052978516e-02 -2.087766975164413452e-01 -5.331104621291160583e-02 -2.566010653972625732e-01 1.921549081802368164e+00 4.301376268267631531e-02 -1.048549413681030273e-01 -1.416242774575948715e-02 1.073674559593200684e-01 1.911135762929916382e-01 1.827245950698852539e+00 8.219172060489654541e-02 -1.038749143481254578e-01 1.124809831380844116e-01 4.743932187557220459e-02 -1.600549221038818359e-01 6.990648061037063599e-02 7.727304100990295410e-02 4.941108077764511108e-02 1.404345333576202393e-01 -6.363040804862976074e-01 1.789825409650802612e-02 1.195363774895668030e-01 2.063371092081069946e-01 -1.297848299145698547e-02 -7.299800515174865723e-01 3.204015195369720459e-01 3.450223803520202637e-02 -7.399428635835647583e-02 6.322474777698516846e-02 1.255369931459426880e-01 -2.148912288248538971e-02 -5.382660031318664551e-02 9.792841970920562744e-02 -2.126643992960453033e-02 -2.212031334638595581e-01 1.511008292436599731e-01 5.789307132363319397e-02 1.744042336940765381e-02 9.086611121892929077e-02 -7.814576476812362671e-02 4.304186105728149414e-01 -1.059677526354789734e-01 -7.348851114511489868e-02 5.887157320976257324e-01 2.460555545985698700e-02 -1.921294815838336945e-02 6.516167521476745605e-02 -1.937913149595260620e-01 -2.045540511608123779e-01 -2.655702829360961914e-01 6.344187259674072266e-02 1.525765806436538696e-01 -8.581838011741638184e-02 3.302251920104026794e-02 1.442421600222587585e-02 -6.491500139236450195e-02
