8.494769223034381866e-03 1.469669193029403687e-01 -3.783579170703887939e-02 1.547859460115432739e-01 1.963742822408676147e-01 4.840711504220962524e-02 -9.363890439271926880e-02 -3.976731002330780029e-02 -8.196560293436050415e-02 3.311231434345245361e-01 -9.869609959423542023e-03 -9.092943510040640831e-04 1.842642873525619507e-01 6.530760228633880615e-02 -7.560697197914123535e-01 4.822231084108352661e-02 -8.131485432386398315e-02 1.968425065279006958e-01 -2.386193349957466125e-02 2.934660762548446655e-02 1.016364023089408875e-01 8.223085850477218628e-02 -3.632088005542755127e-02 1.782847568392753601e-02 -1.663497239351272583e-01 -9.299374371767044067e-02 -1.509282141923904419e-01 1.282756626605987549e-01 4.405450522899627686e-01 5.229022353887557983e-02 4.099461063742637634e-02 -3.378079272806644440e-03 1.461619045585393906e-03 6.468525528907775879e-02 3.158791363239288330e-02 -1.956791151314973831e-03 -2.029813528060913086e+00 5.818486586213111877e-02 -9.313181787729263306e-02 4.393388703465461731e-02 1.557323802262544632e-02 1.321574002504348755e-01 -9.053979814052581787e-02 3.044511005282402039e-02 -9.088687947951257229e-04 1.259146809577941895e+00 7.623362541198730469e-02 -8.144558221101760864e-02 1.440739393234252930e+00 1.756569743156433105e-02 1.132194623351097107e-01 -5.721508264541625977e-01 -1.120285689830780029e-01 -1.694271922111511230e+00 1.009485423564910889e-01 1.053554117679595947e-01 -1.507171522825956345e-02 5.836004391312599182e-02 9.424388408660888672e-02 -5.988597124814987183e-02 2.743441984057426453e-02 1.392885446548461914e-01 5.027435347437858582e-02 2.895018272101879120e-02 -1.865245699882507324e-01 5.429889261722564697e-02 -2.808567509055137634e-02 6.400332599878311157e-02 -1.437957026064395905e-02 2.089280039072036743e-01 2.678081858903169632e-03 1.143094450235366821e-01 -9.082032740116119385e-02 -6.654565036296844482e-02 1.228866912424564362e-02 2.509684115648269653e-02 1.813439279794692993e-02 -1.274329125881195068e-01 1.486279070377349854e-01 4.455490782856941223e-02 1.646086201071739197e-02 -3.116718307137489319e-02 -2.589654624462127686e-01 -5.585146322846412659e-02 -9.065540879964828491e-02 -1.100227013230323792e-01 -5.572823062539100647e-02 9.311496466398239136e-02 -2.059392444789409637e-02 -4.714390262961387634e-02 -1.228865757584571838e-01 4.087476059794425964e-03 -6.703414320945739746e-01 9.673263132572174072e-02 -1.190662756562232971e-01 -8.638370037078857422e-01 -7.034870982170104980e-02 -6.461758166551589966e-02 4.659171402454376221e-02 3.780211508274078369e-02 -1.579839587211608887e-01 1.596768617630004883e+00 2.700439393520355225e-01 4.443331062793731689e-02 -3.416439056396484375e+00 4.036854952573776245e-02 5.096970498561859131e-02 -1.187429279088973999e-01 4.564708471298217773e-01 -1.004776656627655029e-01 5.138667300343513489e-02 -1.598947942256927490e-01 8.609996736049652100e-02 1.048213988542556763e-01 1.507159173488616943e-01 2.008200585842132568e-01 -4.568341188132762909e-03 -9.253387153148651123e-02 -1.714728474617004395e-01 2.048370428383350372e-02 -1.020342931151390076e-01 1.086391508579254150e-01 7.256864011287689209e-02 -1.609127223491668701e-01 6.046215072274208069e-02 6.408783048391342163e-02 1.300108432769775391e-01 -1.108426600694656372e-01 1.121236011385917664e-01 8.593785762786865234e-01 -1.296230405569076538e-01 2.180918693542480469e+00 3.557346016168594360e-02 -9.608431160449981689e-02 2.387779355049133301e-01 1.634392380714416504e+00 5.850601196289062500e-02 1.002136319875717163e-01 1.469403654336929321e-01 2.453571856021881104e-01 -9.796298295259475708e-02 -6.219454109668731689e-02 -3.752556070685386658e-02 8.112276345491409302e-02 -3.043532744050025940e-02 7.298415154218673706e-02 -5.456046760082244873e-02 -1.799287647008895874e-01 -1.278294064104557037e-02 -2.056359499692916870e-02 5.235372111201286316e-02 -5.463653057813644409e-02 -1.910664141178131104e-03 -5.164888128638267517e-02 -1.314809173345565796e-01 4.217985644936561584e-02 1.868562698364257812e-01 -8.961752802133560181e-02 9.731885045766830444e-02 1.334969401359558105e-01 1.647690653800964355e+00 1.942776888608932495e-01 -8.187413215637207031e-02 1.071376055479049683e-01 8.626115322113037109e-02 -3.752457350492477417e-02 1.131393834948539734e-01 -8.878644555807113647e-02 -1.778267920017242432e-01 -3.704824745655059814e-01 -2.707626521587371826e-01 2.562985941767692566e-02 1.966533809900283813e-01 5.496126040816307068e-02 8.588178455829620361e-02 1.163174584507942200e-01 -5.739283934235572815e-02 -8.383842185139656067e-03 -6.623724102973937988e-02 -9.377816319465637207e-02 1.083540823310613632e-02 1.279094219207763672e-01 -4.616509005427360535e-02 5.290888994932174683e-02 1.222932524979114532e-02 5.871076718904078007e-04 -4.632938280701637268e-02 3.158398717641830444e-02 -3.375227376818656921e-02 -2.503599599003791809e-02 4.960105940699577332e-02 1.180464103817939758e-01 -1.868166923522949219e-01 -6.006478518247604370e-02 -9.740181267261505127e-02 -3.677428513765335083e-02 -1.302251219749450684e-01 7.258524000644683838e-02 1.059173643589019775e-01 4.514753445982933044e-02 1.663639396429061890e-01 1.315404027700424194e-01 -9.274304658174514771e-02 -5.725630000233650208e-02 1.778686046600341797e-02 4.585569351911544800e-02 -3.880929201841354370e-02 1.343640498816967010e-02 7.044448982924222946e-03 7.827518880367279053e-02 -5.901379883289337158e-02 -1.725909113883972168e-01 1.086818218231201172e+00 1.009280141443014145e-02 7.092028111219406128e-02 4.080056399106979370e-02 4.267944395542144775e-02 -1.190344989299774170e-01 1.734275221824645996e-01 -2.441975116729736328e+00 -8.301989734172821045e-02 3.503074496984481812e-02 -2.096048295497894287e-01 2.491210587322711945e-02 1.629709033295512199e-03 -6.786959618330001831e-02 -9.013568609952926636e-02 4.557985067367553711e-01 5.589574202895164490e-02 4.314851015806198120e-02 9.438601322472095490e-03 1.964600756764411926e-02 9.376593865454196930e-03 -1.971090912818908691e+00 4.481430351734161377e-02 -4.792707785964012146e-02 -2.809209376573562622e-02 -1.549779772758483887e-01 -1.467991918325424194e-01 1.347460895776748657e-01 -3.355555236339569092e-02 2.122362256050109863e-01 7.999812811613082886e-02 3.210620488971471786e-03 2.238691449165344238e-01 -1.248868703842163086e-01 1.298395037651062012e+00 -2.367628663778305054e-01 -3.271848335862159729e-02 -2.427824437618255615e-01 8.394264429807662964e-02 -1.187750883400440216e-02 3.342705368995666504e-01 1.665816456079483032e-01 -9.576662629842758179e-02 2.273156344890594482e-01 6.681594252586364746e-02 2.712992765009403229e-02 1.254239380359649658e-01 1.437846571207046509e-01 -1.898205131292343140e-01 -1.110280603170394897e-01 -1.107410714030265808e-01 -6.696887612342834473e-01 -8.170843869447708130e-02 2.033813484013080597e-02 6.577519234269857407e-03 1.637796610593795776e-01 1.122132837772369385e-01 2.060724981129169464e-02 7.672663778066635132e-02 -1.446038186550140381e-01 2.346917614340782166e-02 -6.934655457735061646e-02 2.782529592514038086e-02 6.922953180037438869e-04 4.192523658275604248e-03 -1.669881865382194519e-02 -1.452829539775848389e-01 2.303775399923324585e-02 -9.887550771236419678e-02 -1.196569018065929413e-02 2.106940746307373047e-01 -9.891598671674728394e-02 3.629336506128311157e-02 6.827224791049957275e-02 5.063231661915779114e-02 -1.196453496813774109e-01 -5.641877651214599609e-01 -1.021963477134704590e+00 6.290961056947708130e-02 -3.706280142068862915e-02 1.799091398715972900e-01 -1.183731257915496826e-01 -8.633928000926971436e-02 -1.717230677604675293e-01 -9.780626744031906128e-02 -8.460254967212677002e-02 -2.067394321784377098e-03 3.365006670355796814e-02 5.989154055714607239e-02 -1.401783078908920288e-01 1.025691553950309753e-01 9.643288701772689819e-02 -1.714150786399841309e+00 1.519991457462310791e-01 4.240600764751434326e-02 -3.081150725483894348e-02 5.778746679425239563e-03 1.845735162496566772e-01 -9.526135027408599854e-02 9.846965968608856201e-02 -1.850709766149520874e-01 -7.124246656894683838e-02 -3.351150779053568840e-03 6.183990463614463806e-02 -4.053680598735809326e-02 -5.105740204453468323e-02 5.676401033997535706e-02 1.739898882806301117e-02 1.401846762746572495e-03 -2.047055959701538086e+00 -5.824341624975204468e-02 -1.433369219303131104e-01 -8.404035121202468872e-02 -9.496652334928512573e-02 3.637962043285369873e-02 8.540856838226318359e-02 -1.924154907464981079e-02 2.860984206199645996e-01 6.391268223524093628e-02 2.636161148548126221e-01 -9.166068583726882935e-02 -4.357645288109779358e-02 -5.198768153786659241e-02 1.058394536375999451e-01 -7.490141689777374268e-02 1.579992659389972687e-02 -8.362131565809249878e-02 2.857660129666328430e-02 2.592443674802780151e-02 8.832730352878570557e-02 6.101972237229347229e-02 -2.216662839055061340e-02 1.331341415643692017e-01 1.907229190692305565e-03 -1.443825513124465942e-01 -6.268553435802459717e-02 1.510670483112335205e-01 2.637597545981407166e-02 -3.607033193111419678e-02 1.644901745021343231e-02 -5.651735067367553711e-01 -1.711824536323547363e-01 9.835951030254364014e-02 -2.492707669734954834e-01 4.018171504139900208e-02 5.923471227288246155e-02 -7.671893388032913208e-02 9.192592650651931763e-02 -2.672268822789192200e-02 1.973746418952941895e-01 1.159445345401763916e-01 1.630171947181224823e-02 2.082805633544921875e-01 7.702359557151794434e-02 -5.868566408753395081e-02 2.298188954591751099e-01 9.898027777671813965e-02 -1.241384260356426239e-02 9.518969804048538208e-02 4.568212479352951050e-02 -1.852414011955261230e-01 -5.383590608835220337e-02 2.083390802145004272e-01 -3.924235329031944275e-02 -1.338869631290435791e-01 -1.010857447981834412e-01 -9.329541027545928955e-02 -5.730127915740013123e-03 5.033003538846969604e-02 -7.132780551910400391e-02 -1.638589978218078613e+00 9.307914413511753082e-03 2.629750370979309082e-01 -1.489051699638366699e+00 -5.064832419157028198e-02 -6.590931117534637451e-02 -1.202344074845314026e-01 3.318270295858383179e-02 3.330439701676368713e-02 4.386268183588981628e-02 7.780240476131439209e-02 -1.911838538944721222e-02 2.209402248263359070e-02 -1.589618474245071411e-01 6.417164206504821777e-02 2.065768232569098473e-03 2.009843103587627411e-02 1.224272921681404114e-01 1.220921799540519714e-01 -1.224483624100685120e-01 7.599426060914993286e-02 4.648452624678611755e-02 5.371609702706336975e-03 -1.817917346954345703e+00 1.661832034587860107e-01 4.261613264679908752e-02 2.221736684441566467e-02 4.832102730870246887e-02 1.307136863470077515e-01 -1.630349010229110718e-01 1.504174321889877319e-01 -1.329111158847808838e-01 2.215267159044742584e-02 -7.766143977642059326e-02 -2.962613701820373535e-01 -3.932305052876472473e-02 5.201159045100212097e-02 -5.779114961624145508e-01 1.711258590221405029e-01 5.197951197624206543e-01 -1.415354665368795395e-03 -2.189705371856689453e-01 1.069425046443939209e-02 6.379760056734085083e-02 -9.539716877043247223e-03 9.915744885802268982e-03 -6.467546522617340088e-02 1.305985264480113983e-02 -2.558437734842300415e-02 -1.760436147451400757e-01 -4.584383219480514526e-02 -1.417799592018127441e+00 -1.972347259521484375e+00 1.220462441444396973e+00 -8.508879691362380981e-02 -1.072884257882833481e-02 -5.552849918603897095e-02 2.022467374801635742e+00 1.651099622249603271e-01 1.565880775451660156e-01 -9.477471560239791870e-02 -5.091593042016029358e-02 2.366364896297454834e-01 3.322266578674316406e+00 2.570232152938842773e-01 -6.217569485306739807e-02 1.573966264724731445e+00 -1.192474067211151123e-01 2.089070230722427368e-01 -1.860059201717376709e-01 -1.771642446517944336e+00 -2.090940237045288086e+00 -7.411729544401168823e-02 -1.010634228587150574e-01 -5.284677725285291672e-03 -9.357614815235137939e-02 5.233122780919075012e-02 3.271062672138214111e-02 8.776186406612396240e-02 -9.654379636049270630e-02 6.631807982921600342e-02 -1.233241185545921326e-01 8.312000334262847900e-02 -2.179092317819595337e-01 1.293457951396703720e-02 -1.370722949504852295e-01 -1.843644306063652039e-02 1.594501174986362457e-02 5.081279277801513672e-01 2.278634160757064819e-02 5.643165484070777893e-02 -1.768190413713455200e-02 -1.482231356203556061e-02 -2.203786373138427734e+00 2.169843316078186035e-01 1.259330380707979202e-02 3.869412839412689209e-02 -7.169696502387523651e-03 3.718942776322364807e-02 9.450058639049530029e-02 -2.769333124160766602e-01 -8.292586542665958405e-03 9.751030802726745605e-02 3.423776105046272278e-02 1.321923802606761456e-03 -1.029384583234786987e-01 -1.241254732012748718e-01 3.356156498193740845e-02 3.967517986893653870e-02 -6.206725724041461945e-03 9.920104593038558960e-02 2.297904014587402344e+00 -1.567725650966167450e-02 4.031723365187644958e-02 1.208841428160667419e-01 1.458452790975570679e-01 1.772963851690292358e-01 -5.889730900526046753e-02 -4.965836182236671448e-03 -2.507624030113220215e-01 3.112414665520191193e-02 -7.897119969129562378e-02 -3.341668471693992615e-02 1.297638118267059326e-01 -1.036469936370849609e-01 8.256356231868267059e-03 -2.725580707192420959e-02 9.390103816986083984e-02 5.384409427642822266e-01 4.959242939949035645e-01 -1.825788021087646484e-01 -9.072092771530151367e-01 -7.284372695721685886e-04 -7.508566230535507202e-02 -1.734049245715141296e-02 -9.540467709302902222e-02 -8.228357881307601929e-02 -5.421297997236251831e-02 1.361855268478393555e-01 -5.457773432135581970e-02 1.467673182487487793e-01 -3.226113691926002502e-02 -3.378602117300033569e-02 -1.277835220098495483e-01 -2.171106934547424316e-01 1.205780431628227234e-01 -3.557580336928367615e-02 -1.042977496981620789e-01 -2.796980738639831543e-02 -5.532715916633605957e-01 -6.773132830858230591e-02 1.693057179450988770e+00 1.409782022237777710e-01 8.652847260236740112e-02 1.270835161209106445e+00 7.186569273471832275e-02 6.158979982137680054e-02 1.099425032734870911e-01 6.293999403715133667e-02 5.630012974143028259e-02 -4.950120672583580017e-02 -3.288189172744750977e-01 1.202648133039474487e-01 4.191522020846605301e-03 8.273523300886154175e-02 -9.831257909536361694e-02 -3.923282399773597717e-02 9.402061253786087036e-02 1.294877678155899048e-01 1.142235174775123596e-01 3.971761092543601990e-02 1.398127079010009766e-01 -5.610017478466033936e-02 -3.322661221027374268e-01 5.647623166441917419e-02 9.590850770473480225e-02 1.764164492487907410e-02 -3.848914289847016335e-03 1.854422092437744141e-01 -4.334625788033008575e-03 1.003931388258934021e-01 -5.017944052815437317e-02 1.718407496809959412e-02 -6.464628875255584717e-02 -1.709889248013496399e-02 5.678220093250274658e-02 6.936128251254558563e-03 -2.804508060216903687e-02 1.567582786083221436e-01 -1.271983683109283447e-01 3.614397346973419189e-02 4.592845961451530457e-02 -5.180435627698898315e-02 -1.636299490928649902e-01 4.729966074228286743e-02 4.627690017223358154e-01 6.369324028491973877e-02 -1.536345388740301132e-02 2.717557176947593689e-02 -3.515803813934326172e-02 4.607915878295898438e-02 1.881998404860496521e-02 -5.707503557205200195e-01 7.321015931665897369e-03 7.258970290422439575e-02 -5.683938041329383850e-02 -1.062484607100486755e-01 -3.817725926637649536e-02 -4.550596326589584351e-02 -8.396710455417633057e-02 1.719363480806350708e-01 2.118545398116111755e-02 -3.124234266579151154e-02 1.730892062187194824e-01 1.056371405720710754e-01 1.237059757113456726e-01 3.859746456146240234e-02 1.751283556222915649e-02 -5.152916908264160156e-02 -2.815628831740468740e-04 5.090464837849140167e-03 2.766108140349388123e-02 4.897067323327064514e-02 -1.126828137785196304e-02 6.274946033954620361e-02 8.760631084442138672e-02 -1.210632771253585815e-01 2.415392249822616577e-01 9.861607104539871216e-02 3.851713240146636963e-02 1.603042334318161011e-02 2.751950621604919434e-01 -2.790030324831604958e-03 -2.319978475570678711e+00 8.119240403175354004e-02 1.115460768342018127e-01 1.209164336323738098e-01 2.915291301906108856e-02 1.076285317540168762e-01 8.103411793708801270e-01 1.835587322711944580e-01 3.480264917016029358e-02 -1.873299852013587952e-02 -1.169207394123077393e-01 -1.079366728663444519e-01 8.047156035900115967e-03 -1.689946465194225311e-02 -5.354463458061218262e-01 1.442346954718232155e-03 -2.419551275670528412e-02 -6.902100984007120132e-03 -1.964581310749053955e-01 -5.850828718394041061e-03 -1.774076342582702637e+00 -5.184536799788475037e-02 -4.381812363862991333e-02 3.443864174187183380e-03 -2.298581227660179138e-02 -1.207160577178001404e-01 -6.014623865485191345e-02 -9.110911935567855835e-02 -2.331136167049407959e-01 7.044506818056106567e-02 7.023886591196060181e-02 -7.173852622509002686e-02 1.135700643062591553e-01 -2.501339651644229889e-02 2.426875531673431396e-01 3.331192433834075928e-01 8.313075453042984009e-02 -3.018753975629806519e-02 -9.006782621145248413e-02 1.012968271970748901e-01 4.098811373114585876e-02 -4.424034059047698975e-02 -9.909711778163909912e-02 2.963896468281745911e-02 2.845868766307830811e-01 1.600564271211624146e-01 1.084098070859909058e-01 1.232037022709846497e-01 -1.881723999977111816e-01 -3.434097766876220703e-02 -1.812589049339294434e+00 9.560944512486457825e-03 5.493066087365150452e-02 7.338423281908035278e-02 2.539680525660514832e-02 1.196801736950874329e-01 5.771515518426895142e-02 -1.731204390525817871e-01 -7.626517862081527710e-02 1.099831014871597290e-01 -3.859385848045349121e-01 2.275326475501060486e-02 7.710325997322797775e-03 8.032638579607009888e-02 -5.913442745804786682e-02 6.920988112688064575e-02 7.123108953237533569e-02 2.057997696101665497e-02 -7.574513554573059082e-02 -8.716697245836257935e-02 5.926486104726791382e-02 -1.775148138403892517e-02 3.918113112449645996e-01 -3.961965814232826233e-02 -4.971275106072425842e-03 3.179035484790802002e-01 -1.561494264751672745e-02 1.216430366039276123e-01 -9.669628739356994629e-02 8.605000376701354980e-02 4.935781657695770264e-02 -1.160157084465026855e+00 -5.892815068364143372e-02 1.052653975784778595e-02 -6.317935883998870850e-02 -3.796714916825294495e-02 -2.136517167091369629e-01 5.305878445506095886e-02 6.962615996599197388e-02 2.901486158370971680e-01 1.508747506886720657e-02 3.605922460556030273e-01 1.992244482040405273e+00 8.936777710914611816e-02 -9.427653998136520386e-02 7.439050078392028809e-02 6.462069600820541382e-02 -1.685540080070495605e-01 -2.162579074501991272e-02 -2.443857192993164062e-01 1.917818665504455566e+00 -3.068995662033557892e-03 -1.109186410903930664e-01 -4.326523840427398682e-02 1.159315183758735657e-01 1.778222471475601196e-01 1.855442047119140625e+00 1.173729076981544495e-01 -9.864965081214904785e-02 5.668967589735984802e-02 5.031786486506462097e-02 -1.288384646177291870e-01 2.227395772933959961e-02 7.977153360843658447e-02 3.224780783057212830e-02 1.990238875150680542e-01 -6.213371753692626953e-01 1.619522459805011749e-02 1.107851341366767883e-01 2.248782962560653687e-01 -4.155464470386505127e-02 -7.103789448738098145e-01 3.221752345561981201e-01 -2.191919460892677307e-02 -6.953770667314529419e-02 8.176267147064208984e-02 1.499849408864974976e-01 -7.482731342315673828e-02 1.998572144657373428e-03 7.410420477390289307e-02 -8.498925715684890747e-03 -2.084786146879196167e-01 1.360643059015274048e-01 1.074639521539211273e-02 9.989490732550621033e-03 1.500971019268035889e-01 -8.496726304292678833e-02 4.299858212471008301e-01 -1.098898723721504211e-01 -5.256424471735954285e-02 5.579747557640075684e-01 1.620697043836116791e-02 -4.068233072757720947e-03 9.566656500101089478e-02 -2.149016112089157104e-01 -2.510837912559509277e-01 -2.378926873207092285e-01 7.395704090595245361e-02 1.103400066494941711e-01 -8.092489838600158691e-02 4.587076231837272644e-02 5.455010384321212769e-02 -8.440613746643066406e-02
