1.216906309127807617e-02 1.572635620832443237e-01 -7.931281626224517822e-02 1.655016243457794189e-01 1.788831651210784912e-01 3.023203462362289429e-02 -1.251888573169708252e-01 -2.279050275683403015e-02 -7.644276320934295654e-02 2.766716480255126953e-01 -3.999846056103706360e-02 -5.019038543105125427e-02 2.397030889987945557e-01 2.697397395968437195e-02 -7.748848795890808105e-01 1.351328380405902863e-02 -9.910522401332855225e-02 2.473786026239395142e-01 -4.413007944822311401e-02 3.276966512203216553e-02 1.153347715735435486e-01 6.427755951881408691e-02 -8.466130122542381287e-03 5.233220290392637253e-03 -1.544511467218399048e-01 -1.073813810944557190e-01 -1.949799805879592896e-01 1.448695510625839233e-01 4.392490386962890625e-01 9.425483644008636475e-02 3.583918092772364616e-03 1.006295252591371536e-02 1.114897336810827255e-02 4.557511210441589355e-02 4.045678675174713135e-02 5.244693160057067871e-02 -1.952011823654174805e+00 -4.741481505334377289e-03 -7.578381150960922241e-02 -1.769434474408626556e-02 1.937309280037879944e-02 7.689000666141510010e-02 -3.866716846823692322e-02 9.061794728040695190e-02 2.829122543334960938e-02 1.238906621932983398e+00 7.348015904426574707e-02 -8.157198876142501831e-02 1.432234764099121094e+00 6.766276061534881592e-02 9.490142017602920532e-02 -5.401633381843566895e-01 -1.074450165033340454e-01 -1.688464522361755371e+00 1.055747196078300476e-01 9.350144118070602417e-02 -8.475637063384056091e-03 8.170677721500396729e-02 1.142719686031341553e-01 -8.548243343830108643e-02 6.868458539247512817e-02 8.297310769557952881e-02 1.139669045805931091e-01 -6.404387764632701874e-03 -1.976518332958221436e-01 5.418064445257186890e-02 -5.673566460609436035e-02 9.735261648893356323e-02 -1.122683845460414886e-02 1.815255880355834961e-01 -2.973147854208946228e-02 1.085929051041603088e-01 -5.988901108503341675e-02 -6.420794129371643066e-02 2.222024835646152496e-02 2.289959602057933807e-02 -1.756884506903588772e-03 -1.107863783836364746e-01 1.811945736408233643e-01 7.790657132863998413e-02 5.850117653608322144e-02 -6.246258690953254700e-02 -2.472375929355621338e-01 -7.775398343801498413e-02 -8.500477671623229980e-02 -1.313741505146026611e-01 -8.459589444100856781e-03 9.151692688465118408e-02 -3.350756689906120300e-02 -1.958729885518550873e-02 -1.001206934452056885e-01 3.683395683765411377e-02 -6.135692000389099121e-01 6.806618720293045044e-02 -1.100613474845886230e-01 -8.079667091369628906e-01 -7.250012457370758057e-02 -7.864834368228912354e-02 9.529796428978443146e-03 3.068018332123756409e-02 -1.312787532806396484e-01 1.520044088363647461e+00 2.806678414344787598e-01 4.426393657922744751e-02 -3.378281831741333008e+00 4.350841790437698364e-02 1.077631115913391113e-01 -1.675797253847122192e-01 4.330724477767944336e-01 -1.142262294888496399e-01 2.552478574216365814e-02 -1.508543044328689575e-01 7.079504430294036865e-02 1.265370845794677734e-01 1.721200644969940186e-01 2.156336903572082520e-01 3.732179105281829834e-02 -6.018568202853202820e-02 -1.583493798971176147e-01 4.222373291850090027e-02 -1.574584394693374634e-01 1.234141066670417786e-01 2.546756342053413391e-02 -1.567787826061248779e-01 -1.057490892708301544e-02 9.361416846513748169e-02 1.233186498284339905e-01 -1.547581851482391357e-01 1.419841498136520386e-01 8.194872736930847168e-01 -1.338557004928588867e-01 2.202744245529174805e+00 -5.230628885328769684e-03 -7.984153926372528076e-02 2.739628255367279053e-01 1.587840080261230469e+00 8.274604380130767822e-02 1.264280974864959717e-01 1.387691050767898560e-01 2.299368232488632202e-01 -8.791335672140121460e-02 -7.141645252704620361e-02 -3.786634281277656555e-02 5.719754844903945923e-02 -3.798441216349601746e-02 1.173157244920730591e-01 -5.599691718816757202e-02 -2.273961007595062256e-01 -1.018963381648063660e-02 -4.473684728145599365e-02 7.701323926448822021e-02 -3.524895012378692627e-02 -1.148678828030824661e-02 -1.316568069159984589e-02 -1.278637945652008057e-01 8.783594518899917603e-02 1.413070112466812134e-01 -6.674452871084213257e-02 9.008239209651947021e-02 1.266929954290390015e-01 1.638226509094238281e+00 1.951663345098495483e-01 -7.092555612325668335e-02 1.430283039808273315e-01 1.155794113874435425e-01 -4.843930900096893311e-02 1.071706861257553101e-01 -9.571646153926849365e-02 -1.978803426027297974e-01 -3.800554275512695312e-01 -2.820550501346588135e-01 7.050639390945434570e-02 2.036798298358917236e-01 2.323258854448795319e-02 1.290706396102905273e-01 1.090883761644363403e-01 -4.747220873832702637e-02 -1.384120713919401169e-02 -7.273974269628524780e-02 -1.193537935614585876e-01 -1.997287571430206299e-02 1.054103001952171326e-01 -5.110964179039001465e-02 3.513717651367187500e-02 2.501213178038597107e-02 -1.478621363639831543e-02 -6.734275259077548981e-03 -2.940554358065128326e-02 -3.171688318252563477e-02 7.659772783517837524e-02 6.475329399108886719e-02 6.671439111232757568e-02 -2.028035223484039307e-01 -2.421974763274192810e-02 -8.485762029886245728e-02 -6.495845317840576172e-02 -1.578042954206466675e-01 6.155406683683395386e-02 1.146470680832862854e-01 7.336942944675683975e-03 2.199240624904632568e-01 1.194743663072586060e-01 -6.384946405887603760e-02 -3.837591782212257385e-02 9.623477235436439514e-03 2.684986591339111328e-02 -2.976115234196186066e-02 -1.525572128593921661e-02 -3.154664114117622375e-02 7.655918598175048828e-02 -5.176241695880889893e-02 -1.973544955253601074e-01 1.074007272720336914e+00 1.314037013798952103e-02 1.050395742058753967e-01 4.259153455495834351e-02 9.556293487548828125e-02 -1.398781985044479370e-01 1.745591461658477783e-01 -2.404039382934570312e+00 -9.673978388309478760e-02 1.361452508717775345e-02 -1.416839808225631714e-01 6.005938630551099777e-03 -2.340469742193818092e-03 -7.138556241989135742e-02 -9.239666163921356201e-02 4.314958155155181885e-01 7.829366624355316162e-02 2.806049212813377380e-02 -8.245508372783660889e-02 4.007030650973320007e-02 2.376483939588069916e-02 -1.926890015602111816e+00 5.511571839451789856e-02 -4.493346437811851501e-02 -5.536969006061553955e-02 -1.878249943256378174e-01 -1.367968618869781494e-01 1.685864329338073730e-01 -2.120401244610548019e-03 2.492098808288574219e-01 2.200542576611042023e-02 -3.941952437162399292e-02 2.564838230609893799e-01 -1.376953721046447754e-01 1.276382088661193848e+00 -2.661488354206085205e-01 -1.329480856657028198e-02 -2.179510742425918579e-01 1.177393049001693726e-01 -3.079601936042308807e-02 2.833254337310791016e-01 1.625172942876815796e-01 -6.404611468315124512e-02 2.532958388328552246e-01 4.481517523527145386e-02 3.241872042417526245e-02 8.695418387651443481e-02 1.382066607475280762e-01 -1.760638952255249023e-01 -1.267769634723663330e-01 -1.433027237653732300e-01 -6.823346018791198730e-01 -7.972241938114166260e-02 -2.127619273960590363e-02 -2.048515342175960541e-02 1.187422126531600952e-01 1.571265757083892822e-01 4.654167592525482178e-02 4.564221203327178955e-02 -1.189164444804191589e-01 3.221488744020462036e-02 -9.761870652437210083e-02 4.322503879666328430e-02 2.428737655282020569e-02 -1.339858584105968475e-02 2.987038809806108475e-03 -1.359972804784774780e-01 2.476439625024795532e-02 -1.324108988046646118e-01 -3.590131178498268127e-02 2.372598350048065186e-01 -8.897820860147476196e-02 4.837355017662048340e-02 1.033523678779602051e-01 6.391157209873199463e-02 -1.163617223501205444e-01 -5.335625410079956055e-01 -1.004693150520324707e+00 6.467915326356887817e-02 -2.883576229214668274e-02 1.766822338104248047e-01 -1.151327937841415405e-01 -5.642810463905334473e-02 -2.156678438186645508e-01 -8.358173072338104248e-02 -6.269742548465728760e-02 4.608679562807083130e-02 6.434365361928939819e-02 6.140912324190139771e-02 -1.245657950639724731e-01 1.302822381258010864e-01 4.234644770622253418e-02 -1.687740325927734375e+00 1.376470178365707397e-01 1.312837284058332443e-02 -2.641144581139087677e-02 7.275418844074010849e-03 1.315292567014694214e-01 -1.462225168943405151e-01 1.191957816481590271e-01 -1.918674707412719727e-01 -4.868298023939132690e-02 7.714431732892990112e-03 4.912010207772254944e-02 -7.016565650701522827e-02 -7.233093678951263428e-02 4.725652188062667847e-02 3.087863139808177948e-02 1.901262626051902771e-02 -2.054898262023925781e+00 -2.440166845917701721e-02 -1.344224065542221069e-01 -6.718169152736663818e-02 -1.374090909957885742e-01 2.076424472033977509e-02 5.884042382240295410e-02 3.032647445797920227e-02 2.993698120117187500e-01 9.997574239969253540e-02 3.752930164337158203e-01 -6.289025396108627319e-02 -3.050957992672920227e-02 -3.566544130444526672e-02 1.440602838993072510e-01 -5.575781688094139099e-02 3.931822255253791809e-02 -9.643394500017166138e-02 4.934645816683769226e-02 8.788090944290161133e-02 1.276798546314239502e-01 8.587367832660675049e-02 -1.201910618692636490e-02 1.313495934009552002e-01 2.242505364120006561e-02 -1.286780536174774170e-01 -1.074309945106506348e-01 1.441430598497390747e-01 3.139641880989074707e-02 -3.082614764571189880e-02 -2.375999651849269867e-02 -5.176186561584472656e-01 -2.408005446195602417e-01 1.227484792470932007e-01 -2.520658075809478760e-01 2.529112808406352997e-02 9.751137346029281616e-02 -8.351819962263107300e-02 7.643179595470428467e-02 -4.449108242988586426e-02 2.261717617511749268e-01 9.953548759222030640e-02 -1.361860428005456924e-02 1.905315965414047241e-01 1.137158870697021484e-01 -6.081956252455711365e-02 2.511448264122009277e-01 8.900237083435058594e-02 6.842046044766902924e-03 6.971063464879989624e-02 3.124384023249149323e-02 -1.822664588689804077e-01 -2.704137936234474182e-02 1.978555917739868164e-01 -6.017468497157096863e-02 -1.388741731643676758e-01 -2.398369461297988892e-02 -9.459043294191360474e-02 9.079064242541790009e-03 5.511828884482383728e-02 -1.856591366231441498e-02 -1.621665716171264648e+00 2.968692220747470856e-02 2.446693181991577148e-01 -1.456231951713562012e+00 -1.605227217078208923e-02 -6.502789258956909180e-02 -1.367836594581604004e-01 2.856846712529659271e-02 1.766630634665489197e-02 6.219433993101119995e-02 5.040038749575614929e-02 -3.302035108208656311e-02 3.359540179371833801e-02 -2.037402540445327759e-01 5.154396966099739075e-02 -2.380784414708614349e-02 3.472746163606643677e-02 1.772183477878570557e-01 9.208442270755767822e-02 -1.392084360122680664e-01 5.738892033696174622e-02 4.388628154993057251e-02 -3.053953312337398529e-02 -1.819919824600219727e+00 1.710227727890014648e-01 3.418764099478721619e-02 2.986833080649375916e-02 3.123146854341030121e-02 1.585816591978073120e-01 -1.707272827625274658e-01 1.873917728662490845e-01 -1.651609241962432861e-01 1.329373754560947418e-02 -7.034257054328918457e-02 -3.075080513954162598e-01 -5.273332446813583374e-02 3.344231098890304565e-02 -6.380562782287597656e-01 1.895294338464736938e-01 4.777801930904388428e-01 8.759365417063236237e-03 -2.084498107433319092e-01 2.789394930005073547e-02 9.447638690471649170e-02 -3.198001533746719360e-02 -2.544750459492206573e-02 -7.857573032379150391e-02 1.494525186717510223e-02 -3.106191568076610565e-02 -2.281922399997711182e-01 -3.731418773531913757e-02 -1.398732423782348633e+00 -1.967253327369689941e+00 1.196673631668090820e+00 -1.184660941362380981e-01 1.542523037642240524e-02 -8.366053551435470581e-02 2.014657020568847656e+00 1.346101015806198120e-01 1.203493475914001465e-01 -9.064124524593353271e-02 -8.389583230018615723e-02 2.830352187156677246e-01 3.249650478363037109e+00 2.857592999935150146e-01 -6.798070669174194336e-02 1.533073425292968750e+00 -1.187830194830894470e-01 2.466266304254531860e-01 -2.080610543489456177e-01 -1.767202615737915039e+00 -2.013343095779418945e+00 -9.616567194461822510e-02 -6.900275498628616333e-02 -2.909851633012294769e-02 -1.550260037183761597e-01 7.288748770952224731e-02 6.538488715887069702e-02 1.028406023979187012e-01 -9.225006401538848877e-02 3.642283007502555847e-02 -1.160273998975753784e-01 9.384483098983764648e-02 -2.128428965806961060e-01 1.949890516698360443e-02 -1.165735349059104919e-01 -3.960984572768211365e-02 1.010164525359869003e-02 4.489602148532867432e-01 3.527508303523063660e-02 4.368701577186584473e-02 -5.911088734865188599e-02 -4.572210088372230530e-02 -2.167135953903198242e+00 1.839686930179595947e-01 -2.710061706602573395e-02 3.354725241661071777e-02 -2.009111270308494568e-02 4.138940013945102692e-03 1.264539062976837158e-01 -2.529779076576232910e-01 -6.808410864323377609e-03 1.331073939800262451e-01 2.542661130428314209e-02 -1.534557342529296875e-02 -9.450004994869232178e-02 -1.580185145139694214e-01 9.682896547019481659e-03 5.569375306367874146e-02 1.117480732500553131e-02 1.027473583817481995e-01 2.187269926071166992e+00 -5.428332835435867310e-03 6.622211635112762451e-02 5.070965737104415894e-02 1.489753276109695435e-01 2.136804908514022827e-01 -4.744373261928558350e-02 9.076897986233234406e-03 -2.363232672214508057e-01 5.925061181187629700e-02 -6.932038813829421997e-02 1.887187175452709198e-02 1.351191103458404541e-01 -6.530248373746871948e-02 4.869991913437843323e-03 3.164196386933326721e-03 8.823307603597640991e-02 5.165894627571105957e-01 4.658700823783874512e-01 -1.721712350845336914e-01 -9.354384541511535645e-01 7.392582949250936508e-03 -1.373133808374404907e-01 -3.038891218602657318e-02 -1.180733181536197662e-02 -4.148812964558601379e-02 -6.040101870894432068e-02 1.391668021678924561e-01 -5.509143695235252380e-02 1.394473910331726074e-01 -1.194742135703563690e-02 5.480612162500619888e-03 -1.885934025049209595e-01 -2.192517220973968506e-01 1.346388459205627441e-01 1.329612918198108673e-02 -1.072012037038803101e-01 -3.798772767186164856e-02 -5.621812343597412109e-01 -6.008635833859443665e-02 1.667273163795471191e+00 1.405113190412521362e-01 1.628246009349822998e-01 1.297396063804626465e+00 5.506353825330734253e-02 9.836994856595993042e-02 1.009728685021400452e-01 4.891044646501541138e-02 7.127860933542251587e-02 -2.760410867631435394e-02 -3.284326195716857910e-01 1.144199222326278687e-01 -5.362972617149353027e-02 4.178633540868759155e-02 -1.114200502634048462e-01 -5.216361954808235168e-02 4.924469441175460815e-02 1.635088324546813965e-01 1.364192366600036621e-01 2.117111906409263611e-02 1.527851521968841553e-01 -4.242414608597755432e-02 -3.301527500152587891e-01 6.596264243125915527e-02 1.154770851135253906e-01 -1.167748216539621353e-02 -9.210191201418638229e-04 1.806107014417648315e-01 -1.404089480638504028e-02 1.182346343994140625e-01 -6.385508924722671509e-02 3.714008256793022156e-02 -5.824147537350654602e-02 -3.399743512272834778e-02 6.638759374618530273e-02 -2.533067204058170319e-02 -7.303954660892486572e-02 1.298838853836059570e-01 -1.426388323307037354e-01 2.991416957229375839e-03 4.211201518774032593e-02 -3.303829347714781761e-03 -1.658231616020202637e-01 9.224165976047515869e-02 4.544467329978942871e-01 4.242797940969467163e-02 -4.057816788554191589e-02 1.414159126579761505e-02 3.154479432851076126e-03 2.916664257645606995e-02 2.525687217712402344e-02 -5.784300565719604492e-01 6.042068824172019958e-02 9.246620535850524902e-02 -3.639205172657966614e-02 -6.046428158879280090e-02 -3.193001449108123779e-02 -3.883877396583557129e-02 -1.125638633966445923e-01 1.526190936565399170e-01 3.918433189392089844e-02 -3.689049556851387024e-02 1.399349868297576904e-01 9.928776323795318604e-02 1.543445289134979248e-01 2.422967925667762756e-02 3.677976876497268677e-02 -4.967408999800682068e-02 -2.556423656642436981e-02 -1.762714004144072533e-03 3.456223011016845703e-02 4.243708774447441101e-02 2.446664497256278992e-02 7.637305557727813721e-02 9.608635306358337402e-02 -9.372911602258682251e-02 2.596016228199005127e-01 6.898360699415206909e-02 -2.095061913132667542e-02 3.504928201436996460e-02 2.272203266620635986e-01 -3.992584068328142166e-03 -2.317023038864135742e+00 6.048657372593879700e-02 9.453468769788742065e-02 1.035590767860412598e-01 3.318366035819053650e-02 1.360801458358764648e-01 7.954916954040527344e-01 2.026483863592147827e-01 9.727565571665763855e-03 2.249208465218544006e-02 -8.477320522069931030e-02 -8.915780484676361084e-02 1.103214733302593231e-02 -6.500366330146789551e-02 -5.345079898834228516e-01 -1.255360804498195648e-02 -1.667521335184574127e-02 -2.360995672643184662e-02 -1.797328293323516846e-01 -4.013031721115112305e-03 -1.740817427635192871e+00 -3.697645664215087891e-02 -4.923586547374725342e-02 -1.603956148028373718e-02 -9.374509565532207489e-03 -1.357339471578598022e-01 -6.170804053544998169e-02 -4.020662605762481689e-02 -2.131022959947586060e-01 8.676244318485260010e-02 5.216511711478233337e-02 -1.177978366613388062e-01 1.202593967318534851e-01 1.322302967309951782e-02 2.373130023479461670e-01 3.682083189487457275e-01 1.059688404202461243e-01 -3.499448671936988831e-02 -1.251052618026733398e-01 9.953185170888900757e-02 5.693692713975906372e-02 -7.435406744480133057e-02 -1.204901188611984253e-01 2.175715193152427673e-02 2.705771625041961670e-01 1.883917301893234253e-01 1.453594118356704712e-01 7.410030812025070190e-02 -1.665756553411483765e-01 -2.053503692150115967e-02 -1.763474225997924805e+00 -1.424339599907398224e-02 4.764098674058914185e-02 8.463223278522491455e-02 6.868502497673034668e-02 1.539792716503143311e-01 -7.980392314493656158e-03 -1.474223881959915161e-01 -7.579591125249862671e-02 1.194312945008277893e-01 -3.774761557579040527e-01 3.513277694582939148e-02 1.501005422323942184e-02 5.896388739347457886e-02 -7.700884342193603516e-02 3.977215662598609924e-02 7.670948654413223267e-02 2.844668552279472351e-02 -4.982829093933105469e-02 -1.071898043155670166e-01 4.252567142248153687e-02 -4.921961948275566101e-02 4.084062576293945312e-01 -5.738591402769088745e-02 9.182795882225036621e-03 3.295868337154388428e-01 -2.370008733123540878e-03 1.402608305215835571e-01 -7.496124505996704102e-02 3.520588204264640808e-02 4.710695892572402954e-02 -1.124859690666198730e+00 -3.866314142942428589e-02 9.332565590739250183e-03 -4.742410033941268921e-02 -1.846647635102272034e-02 -1.857554316520690918e-01 5.046611279249191284e-02 1.322920620441436768e-01 3.106550276279449463e-01 1.012205053120851517e-02 4.046752452850341797e-01 1.905470728874206543e+00 8.195175230503082275e-02 -9.216046333312988281e-02 8.696258813142776489e-02 6.972116231918334961e-02 -2.163635492324829102e-01 -2.805559895932674408e-02 -2.571605443954467773e-01 1.914608955383300781e+00 8.570840582251548767e-03 -1.431585103273391724e-01 -4.561866074800491333e-02 1.114591956138610840e-01 1.715210676193237305e-01 1.836914300918579102e+00 9.485270082950592041e-02 -9.153413027524948120e-02 1.031533852219581604e-01 5.055381730198860168e-02 -1.406590193510055542e-01 4.788880795240402222e-02 6.457997858524322510e-02 2.943442016839981079e-02 1.640625894069671631e-01 -6.196218132972717285e-01 2.097374759614467621e-02 1.202831268310546875e-01 2.389817684888839722e-01 -3.564129397273063660e-02 -7.646341919898986816e-01 3.485235869884490967e-01 1.062976568937301636e-02 -7.766741514205932617e-02 4.983151704072952271e-02 1.569714546203613281e-01 -5.744134262204170227e-02 -5.432102084159851074e-02 9.059180319309234619e-02 2.665131911635398865e-02 -2.219431698322296143e-01 1.430998891592025757e-01 4.383783787488937378e-02 -1.389270182698965073e-02 7.390684634447097778e-02 -6.967487186193466187e-02 4.282151162624359131e-01 -1.187379211187362671e-01 -6.702693551778793335e-02 5.707499980926513672e-01 4.096974059939384460e-02 -1.657900214195251465e-02 8.763866126537322998e-02 -1.986136436462402344e-01 -2.533923089504241943e-01 -2.570509314537048340e-01 7.045517861843109131e-02 1.504465937614440918e-01 -7.111780345439910889e-02 3.005454316735267639e-02 6.110134720802307129e-02 -7.528557628393173218e-02
