-1.186256855726242065e-02 1.226580962538719177e-01 -9.285857528448104858e-02 1.176796481013298035e-01 1.610671281814575195e-01 6.698864698410034180e-02 -9.042998403310775757e-02 -2.689616568386554718e-02 -9.331146627664566040e-02 2.988669276237487793e-01 2.855013497173786163e-02 -3.114902647212147713e-03 1.082054749131202698e-01 5.360020324587821960e-02 -7.313032746315002441e-01 3.748307004570960999e-02 -4.005189612507820129e-02 2.183511108160018921e-01 -1.358713209629058838e-02 1.886795833706855774e-02 1.098181307315826416e-01 6.543496996164321899e-02 -3.327327966690063477e-02 4.712418094277381897e-02 -1.246286854147911072e-01 -4.776242375373840332e-02 -1.539073884487152100e-01 1.114972531795501709e-01 3.622730076313018799e-01 5.031535401940345764e-02 3.863264620304107666e-02 -7.040716242045164108e-03 -5.806021392345428467e-03 6.904054433107376099e-02 2.612180821597576141e-02 -7.978555746376514435e-03 -2.086501836776733398e+00 -1.416890323162078857e-02 -9.442231804132461548e-02 6.906623393297195435e-02 -3.786306083202362061e-02 1.134894490242004395e-01 -8.428082615137100220e-02 4.445357248187065125e-02 -1.490232185460627079e-03 1.312113523483276367e+00 7.390881329774856567e-02 -9.275955706834793091e-02 1.490964531898498535e+00 1.164462864398956299e-01 9.672071784734725952e-02 -5.614336133003234863e-01 -1.166442111134529114e-01 -1.711904406547546387e+00 1.352764070034027100e-01 6.970738619565963745e-02 -1.402766536921262741e-02 6.144836172461509705e-02 1.047118604183197021e-01 -5.288345739245414734e-02 2.949685044586658478e-02 1.149680688977241516e-01 3.673673421144485474e-02 1.329615246504545212e-02 -1.668770909309387207e-01 7.555054873228073120e-02 -5.303325876593589783e-02 3.349348157644271851e-02 6.325458642095327377e-03 2.218860536813735962e-01 9.864686988294124603e-03 5.871533229947090149e-02 -4.775413870811462402e-02 -4.824097454547882080e-02 4.015031084418296814e-02 3.252825886011123657e-02 1.146433781832456589e-02 -1.419491022825241089e-01 1.366170197725296021e-01 6.959123164415359497e-02 -2.470284886658191681e-02 -5.073712673038244247e-03 -2.434833049774169922e-01 -5.322362482547760010e-02 -5.492421984672546387e-02 -1.337877064943313599e-01 -4.105139523744583130e-03 1.099122241139411926e-01 4.070879146456718445e-02 1.432915031909942627e-02 -1.344126909971237183e-01 -2.543053962290287018e-02 -6.913697123527526855e-01 8.175744861364364624e-02 -1.181128323078155518e-01 -8.973199725151062012e-01 -5.155111849308013916e-02 -3.724103048443794250e-02 7.528550177812576294e-02 3.841577330604195595e-03 -1.326853483915328979e-01 1.653641819953918457e+00 2.620931267738342285e-01 3.450741246342658997e-02 -3.483222007751464844e+00 3.059175796806812286e-03 1.112546026706695557e-02 -1.366001665592193604e-01 4.705298244953155518e-01 -1.158367022871971130e-01 1.174014061689376831e-02 -1.743807047605514526e-01 7.725390046834945679e-02 8.806502819061279297e-02 1.527458280324935913e-01 1.708552986383438110e-01 5.013367161154747009e-02 -1.081770136952400208e-01 -2.050061374902725220e-01 4.791549872606992722e-03 -9.481102973222732544e-02 1.100536659359931946e-01 5.049982666969299316e-02 -1.455644518136978149e-01 4.046839103102684021e-02 6.604009121656417847e-02 1.083832979202270508e-01 -1.226515099406242371e-01 1.196318268775939941e-01 8.836247920989990234e-01 -1.178974211215972900e-01 2.243547439575195312e+00 5.283421650528907776e-02 -7.230087369680404663e-02 2.166777998208999634e-01 1.675999283790588379e+00 3.763971105217933655e-02 6.863266974687576294e-02 1.277127712965011597e-01 2.698890268802642822e-01 -8.078415691852569580e-02 -5.086332932114601135e-02 -7.179055362939834595e-02 8.152214437723159790e-02 -6.131527945399284363e-02 8.626005053520202637e-02 -3.593508526682853699e-02 -1.437974274158477783e-01 -4.396249353885650635e-02 -1.074487995356321335e-02 5.474460124969482422e-02 -8.383461087942123413e-02 1.139786187559366226e-02 -8.363837003707885742e-02 -1.259753555059432983e-01 4.897762835025787354e-02 2.176253050565719604e-01 -7.936010509729385376e-02 5.461028590798377991e-02 1.384942084550857544e-01 1.677474021911621094e+00 1.832926422357559204e-01 -1.103950142860412598e-01 8.609799295663833618e-02 8.698371052742004395e-02 1.762009039521217346e-02 9.460274130105972290e-02 -2.556215226650238037e-02 -1.467436105012893677e-01 -3.613013327121734619e-01 -2.718843221664428711e-01 1.025584153831005096e-02 1.548166722059249878e-01 6.450655311346054077e-02 7.433590292930603027e-02 9.795519709587097168e-02 -2.633815258741378784e-02 -7.534753531217575073e-04 -3.049088083207607269e-02 -6.896604597568511963e-02 -4.099026322364807129e-02 8.290820568799972534e-02 -9.176009148359298706e-02 1.725837029516696930e-02 6.469994317740201950e-03 -1.110400725156068802e-02 -2.917912043631076813e-02 2.967896498739719391e-02 -5.003961920738220215e-02 -2.151615684852004051e-03 7.825930416584014893e-02 1.149501800537109375e-01 -1.655712127685546875e-01 -4.554454609751701355e-02 -9.332885593175888062e-02 -1.282644551247358322e-02 -9.924727678298950195e-02 1.211797818541526794e-02 8.116687089204788208e-02 7.351059466600418091e-02 1.758181452751159668e-01 1.807197332382202148e-01 -9.983831644058227539e-02 -3.993173316121101379e-02 -1.319759245961904526e-02 1.198600828647613525e-01 -1.072336733341217041e-02 1.057755947113037109e-02 8.777480572462081909e-03 1.016691625118255615e-01 -4.441227391362190247e-02 -1.467184722423553467e-01 1.118894100189208984e+00 -9.503572247922420502e-03 7.192963361740112305e-02 -1.256713527254760265e-03 -1.415618602186441422e-02 -1.205428019165992737e-01 2.092287540435791016e-01 -2.461052656173706055e+00 -8.235275745391845703e-02 1.251680124551057816e-02 -1.890973895788192749e-01 8.867842261679470539e-04 6.053976248949766159e-03 -1.855720020830631256e-02 -6.334137171506881714e-02 4.919499456882476807e-01 1.932418346405029297e-02 4.773515835404396057e-02 3.340110555291175842e-02 3.555811941623687744e-02 4.331879690289497375e-02 -1.983649730682373047e+00 4.679822549223899841e-02 -4.050565510988235474e-02 -2.746585011482238770e-02 -1.308882087469100952e-01 -7.800183445215225220e-02 9.064215421676635742e-02 -3.864636644721031189e-02 1.857555061578750610e-01 6.424912810325622559e-02 -1.018293295055627823e-02 1.761031001806259155e-01 -1.632628738880157471e-01 1.343921661376953125e+00 -2.467182129621505737e-01 -3.504843264818191528e-02 -2.019023746252059937e-01 7.987240701913833618e-02 3.296487778425216675e-02 3.244501054286956787e-01 1.307325363159179688e-01 -4.034150764346122742e-02 1.776214689016342163e-01 4.001789167523384094e-02 2.957193367183208466e-02 8.949979394674301147e-02 1.064181104302406311e-01 -2.111815959215164185e-01 -1.661787778139114380e-01 -8.929121494293212891e-02 -6.598718762397766113e-01 -6.658440828323364258e-02 -2.461311814840883017e-04 2.767474204301834106e-02 1.175341680645942688e-01 7.866770029067993164e-02 3.342675790190696716e-02 5.822409689426422119e-02 -1.170403063297271729e-01 1.905759610235691071e-02 -5.707776546478271484e-02 1.562645286321640015e-02 3.517195209860801697e-02 -1.365988701581954956e-02 -1.242161728441715240e-03 -6.935025006532669067e-02 3.982738405466079712e-02 -4.186024889349937439e-02 -7.295793038792908192e-04 1.632590442895889282e-01 -5.163259804248809814e-02 1.134222373366355896e-02 6.507533043622970581e-02 1.415413618087768555e-02 -1.207959130406379700e-01 -5.774484276771545410e-01 -1.071765184402465820e+00 6.807716190814971924e-02 -5.241138115525245667e-02 1.607220023870468140e-01 -8.863240480422973633e-02 -5.720335245132446289e-02 -2.178717255592346191e-01 -1.200643107295036316e-01 -4.241359606385231018e-02 -6.240365281701087952e-02 6.864460557699203491e-02 4.589648544788360596e-02 -1.486294120550155640e-01 1.687586456537246704e-01 9.170919656753540039e-02 -1.746334552764892578e+00 1.259347498416900635e-01 6.482351571321487427e-02 -5.362684652209281921e-02 -4.498007521033287048e-02 1.835693269968032837e-01 -7.517823576927185059e-02 1.204139292240142822e-01 -1.623840630054473877e-01 -1.058106198906898499e-01 -1.418646541424095631e-03 -2.547084121033549309e-03 -2.291108109056949615e-02 -2.364470250904560089e-02 7.324288040399551392e-02 1.592809148132801056e-02 3.201088681817054749e-02 -2.099706411361694336e+00 -1.460088789463043213e-02 -1.722424626350402832e-01 -8.687940239906311035e-02 -5.638912320137023926e-02 2.590115182101726532e-02 6.241297721862792969e-02 -2.231218852102756500e-02 2.476861327886581421e-01 2.781567163765430450e-02 2.142232805490493774e-01 -7.257270812988281250e-02 -5.224059894680976868e-02 -4.921620711684226990e-02 7.543366402387619019e-02 -5.873906984925270081e-02 1.313862577080726624e-02 -9.556761011481285095e-03 2.198185026645660400e-02 3.961654379963874817e-03 7.644920051097869873e-02 4.900978878140449524e-02 -3.833009302616119385e-02 1.510115712881088257e-01 6.805410142987966537e-03 -1.423888206481933594e-01 -6.256899982690811157e-02 1.313482075929641724e-01 3.200133098289370537e-03 -3.692891076207160950e-02 3.752002865076065063e-02 -5.609408617019653320e-01 -1.148495748639106750e-01 9.013444930315017700e-02 -2.071829438209533691e-01 1.868228055536746979e-02 3.837432712316513062e-02 -5.280177667737007141e-02 8.802950382232666016e-02 -6.470558047294616699e-02 1.580073684453964233e-01 8.535396307706832886e-02 -1.162672042846679688e-02 1.708277016878128052e-01 9.533125162124633789e-02 -2.291479520499706268e-02 1.943733543157577515e-01 9.507641196250915527e-02 -1.251266058534383774e-02 1.081167533993721008e-01 6.103875860571861267e-02 -1.800046712160110474e-01 -1.193785443902015686e-01 2.001383900642395020e-01 -2.335597760975360870e-02 -1.111581549048423767e-01 -1.388534158468246460e-01 -1.162590757012367249e-01 -1.386107224971055984e-02 9.102585166692733765e-02 -6.597288697957992554e-02 -1.625805854797363281e+00 5.820626020431518555e-02 2.768394649028778076e-01 -1.528417468070983887e+00 -2.008566446602344513e-02 -8.114480972290039062e-02 -8.821982890367507935e-02 1.880612410604953766e-02 2.377469092607498169e-02 3.465354815125465393e-02 5.552418902516365051e-02 -2.032550983130931854e-02 1.247801724821329117e-02 -1.140251979231834412e-01 6.934139877557754517e-02 -1.397979725152254105e-02 1.918615959584712982e-02 8.779729157686233521e-02 1.034635975956916809e-01 -1.623090356588363647e-01 1.204694435000419617e-01 3.741599246859550476e-02 -7.646101992577314377e-03 -1.877862095832824707e+00 1.590441167354583740e-01 6.142177805304527283e-02 2.031269855797290802e-02 1.981109566986560822e-02 1.305043548345565796e-01 -1.348040550947189331e-01 1.477520465850830078e-01 -9.217301756143569946e-02 6.426937412470579147e-03 -5.640663579106330872e-02 -2.898016870021820068e-01 -1.243448350578546524e-02 2.315793000161647797e-02 -5.768360495567321777e-01 1.869274824857711792e-01 5.331993103027343750e-01 4.958289489150047302e-02 -2.454046607017517090e-01 -5.098022054880857468e-03 4.018992558121681213e-02 6.459715223172679543e-05 -2.724105492234230042e-03 -8.652270585298538208e-02 4.220287874341011047e-02 -6.366859376430511475e-02 -1.628957837820053101e-01 -5.696971341967582703e-02 -1.451777815818786621e+00 -2.032029390335083008e+00 1.212832927703857422e+00 -5.944171175360679626e-02 -5.244442448019981384e-02 -7.920402288436889648e-02 2.061090230941772461e+00 1.505209952592849731e-01 1.294377595186233521e-01 -9.426576644182205200e-02 -4.064795747399330139e-02 2.537273764610290527e-01 3.358687400817871094e+00 2.677696049213409424e-01 -2.089385129511356354e-02 1.631577968597412109e+00 -9.738443046808242798e-02 2.104892134666442871e-01 -2.195044755935668945e-01 -1.813650608062744141e+00 -2.150986909866333008e+00 -7.890227437019348145e-02 -1.219992041587829590e-01 6.944692134857177734e-02 -8.799916505813598633e-02 4.207059368491172791e-02 3.730485960841178894e-02 1.031026467680931091e-01 -8.716949820518493652e-02 2.130506932735443115e-02 -1.164561733603477478e-01 7.305347174406051636e-02 -1.913225650787353516e-01 -6.000956986099481583e-03 -1.403266936540603638e-01 -3.684949874877929688e-02 2.479399740695953369e-02 5.120001435279846191e-01 5.684143304824829102e-02 5.937372520565986633e-02 -3.300933539867401123e-02 1.471523474901914597e-02 -2.269174337387084961e+00 1.905957460403442383e-01 1.641375012695789337e-02 5.294395983219146729e-02 4.750434681773185730e-02 1.922774128615856171e-02 3.027166426181793213e-02 -3.095427155494689941e-01 -4.000600054860115051e-02 6.240471825003623962e-02 -3.927599173039197922e-03 2.800572663545608521e-02 -1.185361444950103760e-01 -6.780189275741577148e-02 4.401005432009696960e-02 3.076863102614879608e-02 2.031027572229504585e-03 8.902222663164138794e-02 2.351900339126586914e+00 -2.652698755264282227e-02 1.391252409666776657e-02 9.774488210678100586e-02 1.427538543939590454e-01 1.481393426656723022e-01 -6.354561448097229004e-02 -2.293329127132892609e-02 -2.321638613939285278e-01 3.964130952954292297e-02 -6.626603752374649048e-02 -2.188985981047153473e-02 1.145356819033622742e-01 -1.396686285734176636e-01 2.718356996774673462e-02 2.067685360088944435e-03 7.051015645265579224e-02 5.707084536552429199e-01 5.003672242164611816e-01 -1.791121214628219604e-01 -9.834581017494201660e-01 -1.064255088567733765e-02 -5.740544199943542480e-02 -2.232114039361476898e-02 -1.002464070916175842e-01 -6.560306251049041748e-02 -5.537564679980278015e-02 1.881102323532104492e-01 -9.523697942495346069e-02 1.057808101177215576e-01 -6.108269095420837402e-02 -1.918573863804340363e-02 -1.376090496778488159e-01 -1.770383715629577637e-01 1.015910133719444275e-01 -1.509825419634580612e-02 -9.466484934091567993e-02 -4.814195632934570312e-02 -5.853112339973449707e-01 -7.637298107147216797e-02 1.706892013549804688e+00 1.579548269510269165e-01 1.111637875437736511e-01 1.283154726028442383e+00 8.312483876943588257e-02 3.133625537157058716e-02 8.469107747077941895e-02 5.952915921807289124e-02 2.736832760274410248e-02 2.621665410697460175e-02 -2.612739503383636475e-01 1.042702868580818176e-01 1.516990829259157181e-02 8.149065822362899780e-02 -1.268512010574340820e-01 -2.132499217987060547e-02 5.243530496954917908e-02 1.207743287086486816e-01 1.044854521751403809e-01 4.280443862080574036e-02 1.024578437209129333e-01 -5.334397777915000916e-02 -3.300795853137969971e-01 4.296869039535522461e-02 7.239165902137756348e-02 2.377749979496002197e-02 3.982235677540302277e-03 1.383635550737380981e-01 -6.887344177812337875e-03 1.058585047721862793e-01 -4.643619433045387268e-02 4.876308143138885498e-03 -1.089897453784942627e-01 -1.737234852043911815e-04 7.608395069837570190e-02 1.466385181993246078e-02 -5.772526934742927551e-02 1.230098977684974670e-01 -1.110085323452949524e-01 7.142848521471023560e-02 -3.159416839480400085e-03 -3.584130853414535522e-02 -1.424701958894729614e-01 1.396576594561338425e-02 4.699122607707977295e-01 1.921093277633190155e-02 3.165785968303680420e-02 -4.099286720156669617e-02 -1.650338061153888702e-02 6.815445143729448318e-03 9.787823073565959930e-03 -5.796994566917419434e-01 -3.706369549036026001e-02 9.276085346937179565e-02 -3.407454118132591248e-02 -1.010786294937133789e-01 -2.501689642667770386e-02 -2.756429649889469147e-02 -6.662928313016891479e-02 1.939591169357299805e-01 3.955421224236488342e-02 -5.302497372031211853e-02 1.662536114454269409e-01 6.734625250101089478e-02 1.241183280944824219e-01 7.849357277154922485e-02 2.943021245300769806e-02 -5.144656822085380554e-02 -1.614972017705440521e-02 1.855402998626232147e-02 6.191140785813331604e-02 5.170184373855590820e-02 2.500032773241400719e-03 7.087103277444839478e-02 5.711524561047554016e-02 -1.163322031497955322e-01 2.479292154312133789e-01 8.400392532348632812e-02 5.617423728108406067e-02 -2.787178615108132362e-03 2.533678114414215088e-01 -2.468911558389663696e-02 -2.313181877136230469e+00 1.112031936645507812e-01 1.549247950315475464e-01 1.142138242721557617e-01 4.292567726224660873e-03 1.213555112481117249e-01 7.777307629585266113e-01 1.509707719087600708e-01 3.840894624590873718e-02 -2.405515126883983612e-02 -8.282482624053955078e-02 -8.720824867486953735e-02 3.032333403825759888e-02 -5.739469826221466064e-02 -5.542711019515991211e-01 3.705524606630206108e-03 2.522815950214862823e-02 2.708601206541061401e-02 -1.425106376409530640e-01 1.198373455554246902e-02 -1.821215510368347168e+00 -9.052950143814086914e-02 -2.099907211959362030e-02 2.439561672508716583e-02 4.372821375727653503e-02 -1.413706392049789429e-01 -3.785650804638862610e-02 -6.449670344591140747e-02 -2.326996475458145142e-01 6.972315907478332520e-02 7.750064134597778320e-02 -9.641916304826736450e-02 1.195432171225547791e-01 -4.346416518092155457e-02 2.873882651329040527e-01 2.959999144077301025e-01 8.300033956766128540e-02 5.861915182322263718e-03 -6.536087393760681152e-02 6.748855859041213989e-02 5.582799389958381653e-02 -3.079377301037311554e-02 -7.355818897485733032e-02 5.683675035834312439e-02 3.022766709327697754e-01 1.498550027608871460e-01 8.823105692863464355e-02 1.355995684862136841e-01 -2.114387601613998413e-01 -3.017925471067428589e-02 -1.856599688529968262e+00 3.986871615052223206e-02 4.269139468669891357e-02 6.929094344377517700e-02 8.940890431404113770e-03 1.728686243295669556e-01 3.184259310364723206e-02 -1.642665416002273560e-01 -8.543819189071655273e-02 1.131904125213623047e-01 -3.891614675521850586e-01 1.094085257500410080e-02 2.174692600965499878e-02 4.051044583320617676e-02 -5.690532922744750977e-02 2.518462203443050385e-02 6.330917030572891235e-02 2.134604752063751221e-02 -6.586293131113052368e-02 -6.683610379695892334e-02 2.485193870961666107e-02 -2.487184107303619385e-02 4.255515336990356445e-01 -8.027397096157073975e-02 -1.914138905704021454e-02 3.124283254146575928e-01 -3.619094192981719971e-02 8.223956823348999023e-02 -1.250331252813339233e-01 7.443567365407943726e-02 5.094010010361671448e-02 -1.190175175666809082e+00 -8.609520643949508667e-02 3.287063911557197571e-03 -4.933649301528930664e-02 -4.014864936470985413e-02 -1.934246420860290527e-01 8.322470635175704956e-02 7.789649069309234619e-02 2.769549190998077393e-01 -4.052912816405296326e-03 3.594760000705718994e-01 2.044539451599121094e+00 9.801567345857620239e-02 -1.255480945110321045e-01 8.726888895034790039e-02 4.058150574564933777e-02 -1.432427912950515747e-01 2.869600616395473480e-02 -2.273030430078506470e-01 1.964931607246398926e+00 -2.913576364517211914e-02 -7.117012143135070801e-02 -7.085695117712020874e-02 1.434764415025711060e-01 1.638718396425247192e-01 1.927914619445800781e+00 1.307125538587570190e-01 -6.715134531259536743e-02 4.669149592518806458e-02 2.766144461929798126e-02 -7.785449177026748657e-02 -4.040183965116739273e-03 1.088973507285118103e-01 3.313596174120903015e-02 2.086279988288879395e-01 -6.015512943267822266e-01 1.852107606828212738e-02 1.062336266040802002e-01 2.286646962165832520e-01 -2.456475980579853058e-02 -7.218860983848571777e-01 2.882431447505950928e-01 -6.473662704229354858e-02 -5.752882361412048340e-02 9.741014242172241211e-02 2.107404023408889771e-01 -4.695937037467956543e-02 -1.569280400872230530e-02 1.161044016480445862e-01 -2.086194790899753571e-02 -2.169388979673385620e-01 1.041941568255424500e-01 7.115518674254417419e-03 -1.349366363137960434e-02 1.168778911232948303e-01 -8.600071072578430176e-02 4.431158006191253662e-01 -7.679742574691772461e-02 -5.348962917923927307e-02 5.680506229400634766e-01 2.052220702171325684e-02 2.368805743753910065e-02 7.174157351255416870e-02 -2.059088796377182007e-01 -1.714059263467788696e-01 -2.066689878702163696e-01 8.149600028991699219e-02 9.513802081346511841e-02 -1.130459383130073547e-01 6.350049376487731934e-02 5.884480476379394531e-02 -5.629656836390495300e-02
